{"sizes":[240,120,1],"layers":[{"0":{},"1":{},"2":{},"3":{},"4":{},"5":{},"6":{},"7":{},"8":{},"9":{},"10":{},"11":{},"12":{},"13":{},"14":{},"15":{},"16":{},"17":{},"18":{},"19":{},"20":{},"21":{},"22":{},"23":{},"24":{},"25":{},"26":{},"27":{},"28":{},"29":{},"30":{},"31":{},"32":{},"33":{},"34":{},"35":{},"36":{},"37":{},"38":{},"39":{},"40":{},"41":{},"42":{},"43":{},"44":{},"45":{},"46":{},"47":{},"48":{},"49":{},"50":{},"51":{},"52":{},"53":{},"54":{},"55":{},"56":{},"57":{},"58":{},"59":{},"60":{},"61":{},"62":{},"63":{},"64":{},"65":{},"66":{},"67":{},"68":{},"69":{},"70":{},"71":{},"72":{},"73":{},"74":{},"75":{},"76":{},"77":{},"78":{},"79":{},"80":{},"81":{},"82":{},"83":{},"84":{},"85":{},"86":{},"87":{},"88":{},"89":{},"90":{},"91":{},"92":{},"93":{},"94":{},"95":{},"96":{},"97":{},"98":{},"99":{},"100":{},"101":{},"102":{},"103":{},"104":{},"105":{},"106":{},"107":{},"108":{},"109":{},"110":{},"111":{},"112":{},"113":{},"114":{},"115":{},"116":{},"117":{},"118":{},"119":{},"120":{},"121":{},"122":{},"123":{},"124":{},"125":{},"126":{},"127":{},"128":{},"129":{},"130":{},"131":{},"132":{},"133":{},"134":{},"135":{},"136":{},"137":{},"138":{},"139":{},"140":{},"141":{},"142":{},"143":{},"144":{},"145":{},"146":{},"147":{},"148":{},"149":{},"150":{},"151":{},"152":{},"153":{},"154":{},"155":{},"156":{},"157":{},"158":{},"159":{},"160":{},"161":{},"162":{},"163":{},"164":{},"165":{},"166":{},"167":{},"168":{},"169":{},"170":{},"171":{},"172":{},"173":{},"174":{},"175":{},"176":{},"177":{},"178":{},"179":{},"180":{},"181":{},"182":{},"183":{},"184":{},"185":{},"186":{},"187":{},"188":{},"189":{},"190":{},"191":{},"192":{},"193":{},"194":{},"195":{},"196":{},"197":{},"198":{},"199":{},"200":{},"201":{},"202":{},"203":{},"204":{},"205":{},"206":{},"207":{},"208":{},"209":{},"210":{},"211":{},"212":{},"213":{},"214":{},"215":{},"216":{},"217":{},"218":{},"219":{},"220":{},"221":{},"222":{},"223":{},"224":{},"225":{},"226":{},"227":{},"228":{},"229":{},"230":{},"231":{},"232":{},"233":{},"234":{},"235":{},"236":{},"237":{},"238":{},"239":{}},{"0":{"bias":-0.4335191249847412,"weights":{"0":-0.013981412164866924,"1":-0.05134207755327225,"2":0.0896502137184143,"3":-0.09448422491550446,"4":-0.0856289491057396,"5":-0.027930356562137604,"6":-0.07231269776821136,"7":-0.08569691330194473,"8":-0.07980211824178696,"9":0.07963790744543076,"10":0.008077050559222698,"11":0.08219859004020691,"12":0.12476915866136551,"13":0.049097925424575806,"14":-0.16151940822601318,"15":-0.13136106729507446,"16":0.15959107875823975,"17":-0.1808389574289322,"18":-0.10033779591321945,"19":-0.19957754015922546,"20":0.16552063822746277,"21":0.020776215940713882,"22":-0.01066819578409195,"23":-0.12555494904518127,"24":-0.09041426330804825,"25":0.11686166375875473,"26":-0.18983399868011475,"27":-0.053961381316185,"28":-0.16900129616260529,"29":-0.018279697746038437,"30":-0.03496183827519417,"31":0.08246492594480515,"32":-0.15246301889419556,"33":-0.06516456604003906,"34":0.14864033460617065,"35":-0.08132685720920563,"36":0.15070907771587372,"37":0.08735815435647964,"38":0.17431750893592834,"39":0.006286972668021917,"40":0.09401922672986984,"41":0.2040194272994995,"42":0.05686956271529198,"43":0.11585274338722229,"44":0.04677003249526024,"45":-0.1442989706993103,"46":0.05676748603582382,"47":-0.14992688596248627,"48":-0.016892770305275917,"49":-0.17888468503952026,"50":-0.12504342198371887,"51":0.03898690268397331,"52":-0.18899552524089813,"53":0.06455203145742416,"54":-0.10306006669998169,"55":0.06146170571446419,"56":0.12043295800685883,"57":-0.12469791620969772,"58":-0.17510993778705597,"59":-0.19149990379810333,"60":0.15103960037231445,"61":0.03827844187617302,"62":0.10822811722755432,"63":0.1126917228102684,"64":-0.08515322953462601,"65":-0.1832156926393509,"66":-0.1834053248167038,"67":0.107709601521492,"68":0.15012094378471375,"69":0.13016510009765625,"70":0.08329536765813828,"71":-0.0027217725291848183,"72":0.004771862179040909,"73":-0.24176810681819916,"74":-0.08112052828073502,"75":-0.04795880988240242,"76":0.12419450283050537,"77":0.1241539716720581,"78":-0.182745561003685,"79":-0.12541726231575012,"80":0.1744794249534607,"81":0.03575706481933594,"82":-0.16017772257328033,"83":-0.037015195935964584,"84":-0.005974829196929932,"85":-0.016434842720627785,"86":-0.08898673951625824,"87":-0.10433600097894669,"88":0.09826983511447906,"89":0.16849550604820251,"90":-0.14258241653442383,"91":-0.10398251563310623,"92":0.13337677717208862,"93":0.037401869893074036,"94":-0.06195494532585144,"95":0.1463729590177536,"96":-0.17342190444469452,"97":-0.031244797632098198,"98":-0.1787484884262085,"99":-0.09647703915834427,"100":-0.004443948622792959,"101":0.05915938317775726,"102":-0.12548823654651642,"103":-0.15391066670417786,"104":-0.003424180205911398,"105":0.09515801072120667,"106":0.09243230521678925,"107":0.007833275943994522,"108":-0.015455619432032108,"109":0.03806539252400398,"110":0.11454269289970398,"111":0.08957904577255249,"112":0.18935811519622803,"113":0.13480471074581146,"114":-0.195468932390213,"115":-0.16360357403755188,"116":-0.13265833258628845,"117":0.08576760441064835,"118":0.00004459395495359786,"119":0.0797007828950882,"120":0.06125888228416443,"121":-0.10924796760082245,"122":-0.08268803358078003,"123":0.15379118919372559,"124":0.16407179832458496,"125":0.08783388137817383,"126":0.01967581920325756,"127":-0.3292634189128876,"128":-0.07068724930286407,"129":-0.10759101808071136,"130":0.1171296164393425,"131":0.17978397011756897,"132":-0.018149254843592644,"133":0.0869949460029602,"134":0.09503794461488724,"135":-0.06581456959247589,"136":-0.0940222293138504,"137":0.07945146411657333,"138":0.16083426773548126,"139":0.019216997548937798,"140":0.16737298667430878,"141":0.034804441034793854,"142":-0.1443808674812317,"143":0.15507715940475464,"144":-0.09228241443634033,"145":-0.2551283538341522,"146":-0.033545855432748795,"147":0.004324111621826887,"148":-0.10043611377477646,"149":-0.08848532289266586,"150":0.052525490522384644,"151":-0.1477537304162979,"152":0.07393267005681992,"153":-0.043436139822006226,"154":-0.15118622779846191,"155":0.041654787957668304,"156":0.10537668317556381,"157":-0.20059339702129364,"158":0.18430116772651672,"159":-0.043568603694438934,"160":-0.08820245414972305,"161":-0.16156786680221558,"162":-0.07433798164129257,"163":-0.3568868935108185,"164":-0.21408578753471375,"165":-0.20540525019168854,"166":-0.05653921514749527,"167":-0.031714748591184616,"168":-0.07662493735551834,"169":-0.17406104505062103,"170":0.16495484113693237,"171":0.032541677355766296,"172":-0.17061571776866913,"173":0.14304068684577942,"174":-0.035888634622097015,"175":-0.172573983669281,"176":-0.09867114573717117,"177":-0.1658870428800583,"178":-0.14322037994861603,"179":-0.045225273817777634,"180":-0.13079164922237396,"181":-0.08402542024850845,"182":-0.08883092552423477,"183":0.13871213793754578,"184":0.05637450888752937,"185":-0.024095404893159866,"186":0.08974307775497437,"187":-0.24337643384933472,"188":0.15852883458137512,"189":-0.07883493602275848,"190":0.03827035054564476,"191":-0.1976276934146881,"192":-0.040930021554231644,"193":-0.11821964383125305,"194":-0.0017728327075019479,"195":-0.18803994357585907,"196":0.011474820785224438,"197":-0.06872017681598663,"198":-0.22464784979820251,"199":-0.41625601053237915,"200":0.10839226096868515,"201":-0.08500811457633972,"202":0.0008634367841295898,"203":-0.10315320640802383,"204":-0.011900794692337513,"205":-0.3129151463508606,"206":-0.16529221832752228,"207":-0.1538155972957611,"208":0.020870618522167206,"209":-0.011637574061751366,"210":-0.06908814609050751,"211":-0.2259230613708496,"212":-0.22814474999904633,"213":-0.22245249152183533,"214":-0.15567722916603088,"215":-0.10713087022304535,"216":0.17673709988594055,"217":-0.283850759267807,"218":0.05805635824799538,"219":0.0994010865688324,"220":-0.006200836040079594,"221":-0.10727837681770325,"222":-0.25263461470603943,"223":-0.5145670771598816,"224":-0.15828527510166168,"225":-0.18511126935482025,"226":-0.16900108754634857,"227":-0.1342412531375885,"228":-0.024779876694083214,"229":-0.20476923882961273,"230":0.12009084969758987,"231":-0.1910310685634613,"232":0.052447039633989334,"233":-0.08767498284578323,"234":-0.3734061121940613,"235":-0.36982840299606323,"236":-0.19588622450828552,"237":0.0042615607380867004,"238":-0.15422718226909637,"239":-0.15323561429977417}},"1":{"bias":-2.2257113456726074,"weights":{"0":-0.12926699221134186,"1":0.37384748458862305,"2":0.16111122071743011,"3":0.09802693128585815,"4":0.1632399559020996,"5":0.24929900467395782,"6":-0.1138492226600647,"7":-0.03230450674891472,"8":0.5536479353904724,"9":0.5067405104637146,"10":0.02375674434006214,"11":0.3358020484447479,"12":-0.11910204589366913,"13":-1.0144031047821045,"14":0.04000484198331833,"15":-0.06911098957061768,"16":0.11335647106170654,"17":0.6355303525924683,"18":-1.1992380619049072,"19":-1.7210859060287476,"20":0.3412743806838989,"21":-0.4215853810310364,"22":-0.45009419322013855,"23":0.014665072783827782,"24":-0.16803450882434845,"25":-0.22591686248779297,"26":0.15319912135601044,"27":-0.00038741962634958327,"28":-0.18053746223449707,"29":0.3885745108127594,"30":-0.8838515877723694,"31":-0.7601943612098694,"32":0.5506528615951538,"33":-0.03861831873655319,"34":-0.10393956303596497,"35":-0.4477234184741974,"36":0.06029880791902542,"37":-1.2754651308059692,"38":-0.0037504059728235006,"39":-0.06365491449832916,"40":-0.1431531310081482,"41":0.07482466846704483,"42":-0.737584114074707,"43":-2.0171961784362793,"44":1.6285417079925537,"45":-0.21715332567691803,"46":-1.061970591545105,"47":0.0006174658774398267,"48":0.1363677829504013,"49":-0.028088849037885666,"50":-0.06097998842597008,"51":0.12431933730840683,"52":-0.1768537014722824,"53":-0.13050395250320435,"54":0.49638211727142334,"55":-0.9342201948165894,"56":2.1113674640655518,"57":0.5675457715988159,"58":-0.8851108551025391,"59":0.5974019169807434,"60":0.02948928438127041,"61":-0.13662926852703094,"62":0.13020047545433044,"63":0.15384496748447418,"64":-0.2559948265552521,"65":-0.031607937067747116,"66":0.0377482995390892,"67":-1.741406798362732,"68":1.0064172744750977,"69":-0.298697292804718,"70":-0.44062381982803345,"71":1.3927669525146484,"72":0.15807069838047028,"73":2.044266939163208,"74":-0.011509631760418415,"75":0.04359116405248642,"76":0.013525290414690971,"77":1.4999428987503052,"78":1.2509464025497437,"79":-2.57509183883667,"80":2.594130277633667,"81":-0.6846778392791748,"82":-1.1220208406448364,"83":0.006258755922317505,"84":-0.11133093386888504,"85":2.4543190002441406,"86":0.125092551112175,"87":-0.19227951765060425,"88":0.12649564445018768,"89":0.6542596817016602,"90":2.013601779937744,"91":-1.0156581401824951,"92":3.677137851715088,"93":0.7214853167533875,"94":1.079867959022522,"95":0.2746770679950714,"96":0.060515712946653366,"97":1.8323280811309814,"98":-0.16481666266918182,"99":0.03522155061364174,"100":-0.013780288398265839,"101":0.26104727387428284,"102":2.3153133392333984,"103":-0.2443109005689621,"104":-0.17473027110099792,"105":0.7195084095001221,"106":-0.35172367095947266,"107":-1.4283013343811035,"108":-0.1804981380701065,"109":-0.4246128499507904,"110":-0.14046607911586761,"111":0.1377866417169571,"112":-0.21213942766189575,"113":0.8751090168952942,"114":-0.09433524310588837,"115":-2.6367075443267822,"116":-2.250152826309204,"117":1.3251203298568726,"118":0.6845669746398926,"119":1.1672521829605103,"120":0.08990471065044403,"121":2.9392576217651367,"122":-0.022740736603736877,"123":0.04569578543305397,"124":-0.15949110686779022,"125":1.4245436191558838,"126":2.572040557861328,"127":-0.6653289198875427,"128":1.0017352104187012,"129":1.3924908638000488,"130":-0.5452388525009155,"131":1.0530372858047485,"132":0.18798743188381195,"133":0.20393434166908264,"134":0.08882100880146027,"135":-0.09636179357767105,"136":0.02098670043051243,"137":-1.4652087688446045,"138":1.2880281209945679,"139":1.1800463199615479,"140":-4.308585166931152,"141":-0.13437381386756897,"142":-2.9173412322998047,"143":-0.09322371333837509,"144":-0.1223854050040245,"145":-1.0940423011779785,"146":0.1407272219657898,"147":-0.09009845554828644,"148":-0.16584540903568268,"149":-2.5962188243865967,"150":-0.09414355456829071,"151":-0.3628998398780823,"152":0.9253340363502502,"153":-0.3794573247432709,"154":2.466125249862671,"155":2.372844696044922,"156":-0.06254204362630844,"157":-0.35693585872650146,"158":0.193572998046875,"159":-0.09761234372854233,"160":0.083796925842762,"161":-1.626936674118042,"162":0.2194909155368805,"163":0.20067860186100006,"164":-0.19729287922382355,"165":-2.4200069904327393,"166":-3.490774631500244,"167":-4.654496669769287,"168":-0.007849205285310745,"169":0.20584134757518768,"170":0.0028406220953911543,"171":-0.09224127233028412,"172":0.1607820987701416,"173":0.9754770994186401,"174":-1.5712279081344604,"175":-2.18940806388855,"176":2.0524866580963135,"177":1.2153327465057373,"178":1.3715943098068237,"179":0.10584276914596558,"180":-0.12735959887504578,"181":-0.06473267823457718,"182":-0.14653202891349792,"183":-0.06681610643863678,"184":-0.09627564996480942,"185":-0.9653574228286743,"186":2.916243553161621,"187":0.13321176171302795,"188":-0.20111697912216187,"189":0.7327250242233276,"190":-2.984175682067871,"191":-3.250251293182373,"192":-0.00762665132060647,"193":0.08539815992116928,"194":0.17426016926765442,"195":0.0005231706309132278,"196":-0.014850962907075882,"197":-1.2190319299697876,"198":0.0009125738870352507,"199":-1.0672917366027832,"200":-1.7781587839126587,"201":5.4289140701293945,"202":-2.1676108837127686,"203":-0.6247673630714417,"204":-0.1940959393978119,"205":-0.5494861006736755,"206":0.005465422756969929,"207":-0.12720069289207458,"208":-0.6288402676582336,"209":0.026959886774420738,"210":-0.2305448353290558,"211":-2.442072868347168,"212":4.448175430297852,"213":-2.615556001663208,"214":0.8528557419776917,"215":2.053983211517334,"216":0.14022210240364075,"217":-2.0389275550842285,"218":-0.05983107164502144,"219":0.07611922919750214,"220":-0.2290457785129547,"221":-3.5783450603485107,"222":1.783979892730713,"223":0.5256531834602356,"224":-2.8241660594940186,"225":2.4754891395568848,"226":0.6623933911323547,"227":0.6969698071479797,"228":0.0906628966331482,"229":-2.5780088901519775,"230":-0.03615225851535797,"231":-0.054105885326862335,"232":0.17251497507095337,"233":-2.3608391284942627,"234":-0.02622522972524166,"235":-0.9595537781715393,"236":-3.8418469429016113,"237":2.248936414718628,"238":0.5783581733703613,"239":0.5813201665878296}},"2":{"bias":-0.5536783933639526,"weights":{"0":0.030669528990983963,"1":-0.03365636244416237,"2":0.1991259902715683,"3":0.1298929899930954,"4":0.17743000388145447,"5":-0.17993329465389252,"6":-0.004254607483744621,"7":-0.10496338456869125,"8":-0.1135885939002037,"9":-0.02955874614417553,"10":-0.11098136007785797,"11":0.040178973227739334,"12":-0.10580199211835861,"13":0.08111581206321716,"14":-0.020370176061987877,"15":0.002574692014604807,"16":0.17189829051494598,"17":-0.13469019532203674,"18":-0.0938323587179184,"19":0.014360090717673302,"20":-0.05355890840291977,"21":0.16777177155017853,"22":-0.2461157739162445,"23":0.1590980738401413,"24":0.023682909086346626,"25":0.09337027370929718,"26":0.11917674541473389,"27":0.13562677800655365,"28":-0.18491803109645844,"29":-0.08032594621181488,"30":0.16820479929447174,"31":0.22718235850334167,"32":0.04460439831018448,"33":-0.006848272867500782,"34":0.31009817123413086,"35":-0.034544963389635086,"36":0.09350719302892685,"37":0.1173936277627945,"38":-0.03204590454697609,"39":-0.1471172273159027,"40":-0.1856764554977417,"41":-0.20350699126720428,"42":-0.04069281741976738,"43":-0.033075977116823196,"44":0.1220201775431633,"45":0.048020701855421066,"46":-0.1339210718870163,"47":-0.026158442720770836,"48":-0.18779870867729187,"49":-0.4859158396720886,"50":-0.03640591353178024,"51":0.10371365398168564,"52":-0.10314365476369858,"53":-0.12396472692489624,"54":-0.6715222597122192,"55":-0.3406674265861511,"56":-0.22175480425357819,"57":-0.36435645818710327,"58":0.22394852340221405,"59":-0.7383846044540405,"60":0.15936769545078278,"61":-0.612270176410675,"62":-0.02322607859969139,"63":-0.01378430612385273,"64":-0.09021642804145813,"65":-0.024241864681243896,"66":-0.31395766139030457,"67":-0.09953726083040237,"68":-0.08946479856967926,"69":-0.40675124526023865,"70":0.6907867789268494,"71":-0.24116931855678558,"72":-0.0494781918823719,"73":-0.263827383518219,"74":0.07473176717758179,"75":-0.15070316195487976,"76":0.12005744129419327,"77":0.04996423423290253,"78":-0.5034988522529602,"79":0.8644513487815857,"80":-0.7805003523826599,"81":0.10072291642427444,"82":0.3733347952365875,"83":0.7476964592933655,"84":0.0015365690924227238,"85":-0.3078376352787018,"86":0.08400367200374603,"87":-0.11632759869098663,"88":-0.012244527228176594,"89":-0.10392356663942337,"90":-0.3335707485675812,"91":0.4358975291252136,"92":-0.04706806316971779,"93":-0.20250356197357178,"94":-0.16739384829998016,"95":-0.9441789984703064,"96":0.07283010333776474,"97":0.11832159012556076,"98":-0.1618330180644989,"99":-0.10664626955986023,"100":0.15187299251556396,"101":-0.32631629705429077,"102":0.15292072296142578,"103":0.6534886956214905,"104":-1.2790255546569824,"105":0.44313037395477295,"106":-0.5005647540092468,"107":1.4923495054244995,"108":0.05294893682003021,"109":-0.9307002425193787,"110":-0.15140679478645325,"111":-0.11366259306669235,"112":0.09639379382133484,"113":-0.2938442826271057,"114":-1.0260475873947144,"115":0.056017983704805374,"116":-0.14514560997486115,"117":0.09394598007202148,"118":-0.024571062996983528,"119":0.8250464797019958,"120":-0.12288787215948105,"121":-2.0018270015716553,"122":0.10502167791128159,"123":-0.13200758397579193,"124":-0.016188256442546844,"125":-2.0503599643707275,"126":0.6363804340362549,"127":-0.015332000330090523,"128":-0.48510006070137024,"129":-0.0041215443052351475,"130":-1.5610257387161255,"131":3.283761739730835,"132":-0.18791262805461884,"133":0.4091639220714569,"134":0.0247989259660244,"135":0.09669933468103409,"136":-0.1344064325094223,"137":-0.5571602582931519,"138":-1.215049147605896,"139":0.9977673888206482,"140":-1.1558555364608765,"141":0.9129167199134827,"142":-1.186466932296753,"143":-1.0503263473510742,"144":0.18653319776058197,"145":1.1213964223861694,"146":0.027384810149669647,"147":0.11753968149423599,"148":0.1419188380241394,"149":0.34242546558380127,"150":0.015720035880804062,"151":1.8450251817703247,"152":-0.9918122291564941,"153":2.978196144104004,"154":-0.5356376767158508,"155":0.37810876965522766,"156":-0.17775405943393707,"157":0.5673669576644897,"158":-0.11367295682430267,"159":0.12668712437152863,"160":0.05075119808316231,"161":1.3700374364852905,"162":-0.4873729944229126,"163":-0.544821560382843,"164":-1.4033863544464111,"165":-1.0157808065414429,"166":-1.0516993999481201,"167":1.044215440750122,"168":0.07338734716176987,"169":-1.1567715406417847,"170":-0.08423145860433578,"171":-0.054476115852594376,"172":0.0540815107524395,"173":-2.277414560317993,"174":0.4011646509170532,"175":0.9394984841346741,"176":-1.6679515838623047,"177":-0.2425137609243393,"178":2.069430351257324,"179":0.2546709179878235,"180":0.10686758160591125,"181":-0.48876744508743286,"182":-0.15400588512420654,"183":0.1835760474205017,"184":0.38653844594955444,"185":0.46768906712532043,"186":-1.2107868194580078,"187":0.21307973563671112,"188":-0.7207818627357483,"189":-1.7158360481262207,"190":2.19173264503479,"191":-1.0048611164093018,"192":0.05997131019830704,"193":-0.33719122409820557,"194":0.04882195591926575,"195":0.09412797540426254,"196":0.10415873676538467,"197":-1.1044418811798096,"198":0.5169768929481506,"199":0.7584185004234314,"200":-1.5492357015609741,"201":-0.8680771589279175,"202":0.7233495116233826,"203":0.9966438412666321,"204":-0.05502824857831001,"205":-0.2931358814239502,"206":-0.07327704131603241,"207":-0.1571100503206253,"208":-0.03324608504772186,"209":0.5200774073600769,"210":-1.3432351350784302,"211":-0.6072026491165161,"212":-1.6955429315567017,"213":-0.7333345413208008,"214":-1.6563942432403564,"215":-1.623253345489502,"216":-0.11176148802042007,"217":-0.2634349763393402,"218":-0.13705241680145264,"219":-0.14548853039741516,"220":-0.03280291706323624,"221":-0.6870836615562439,"222":0.3095838725566864,"223":0.7008106708526611,"224":-1.3503363132476807,"225":1.361177921295166,"226":-0.6026209592819214,"227":1.5793027877807617,"228":0.1927594393491745,"229":-0.3343581557273865,"230":-0.07192834466695786,"231":0.1203053668141365,"232":-0.15968166291713715,"233":0.16638712584972382,"234":-0.6874265670776367,"235":-0.4613075256347656,"236":-3.6327779293060303,"237":-2.6301937103271484,"238":-5.133500576019287,"239":-2.455082893371582}},"3":{"bias":-0.32304760813713074,"weights":{"0":-0.02728182077407837,"1":-0.12760652601718903,"2":-0.11484391242265701,"3":0.00238330801948905,"4":0.043074142187833786,"5":-0.10993778705596924,"6":-0.19361969828605652,"7":-0.17231357097625732,"8":0.15920311212539673,"9":0.011481869965791702,"10":-0.19172002375125885,"11":-0.11784763634204865,"12":0.12954680621623993,"13":-0.2134179025888443,"14":-0.1245272159576416,"15":0.1369781792163849,"16":-0.0024556161370128393,"17":0.0035326278302818537,"18":-0.1778596043586731,"19":0.07380170375108719,"20":-0.01600342057645321,"21":0.0783061757683754,"22":-0.12041053175926208,"23":-0.15298615396022797,"24":-0.09348919987678528,"25":-0.19523608684539795,"26":-0.050732117146253586,"27":-0.08422722667455673,"28":-0.16125522553920746,"29":0.08108613640069962,"30":-0.054185427725315094,"31":-0.043129511177539825,"32":-0.1731107085943222,"33":-0.08283364772796631,"34":-0.2120378613471985,"35":0.01983386091887951,"36":-0.026819320395588875,"37":-0.016537820920348167,"38":0.1918269395828247,"39":0.170725017786026,"40":0.12949153780937195,"41":-0.2198236882686615,"42":-0.18363505601882935,"43":-0.09994815289974213,"44":-0.03314443677663803,"45":0.07920648902654648,"46":0.12103275209665298,"47":-0.019148314371705055,"48":-0.058718446642160416,"49":-0.22318966686725616,"50":-0.01839759759604931,"51":0.14305415749549866,"52":-0.014880198985338211,"53":-0.08922121673822403,"54":-0.0798434242606163,"55":-0.23462100327014923,"56":-0.29179880023002625,"57":-0.0931607112288475,"58":-0.19488286972045898,"59":0.10775856673717499,"60":0.1294897198677063,"61":0.16398698091506958,"62":-0.17022620141506195,"63":-0.04610522836446762,"64":-0.04484119638800621,"65":-0.14125803112983704,"66":-0.20551300048828125,"67":0.4634929597377777,"68":-0.058400340378284454,"69":-0.21921667456626892,"70":-0.29644572734832764,"71":0.47279980778694153,"72":-0.017115693539381027,"73":-0.1664324402809143,"74":-0.10790001600980759,"75":0.1279335469007492,"76":-0.15191231667995453,"77":-0.24482941627502441,"78":-0.11518917232751846,"79":0.2985784113407135,"80":-0.3004668653011322,"81":-0.0799551010131836,"82":-0.12978242337703705,"83":0.2662079632282257,"84":-0.015452142804861069,"85":-0.32566338777542114,"86":-0.10018067806959152,"87":0.059337422251701355,"88":-0.0832909569144249,"89":0.15434804558753967,"90":-0.5830894708633423,"91":-0.05444910749793053,"92":-0.7682823538780212,"93":-0.1461120992898941,"94":-0.5978318452835083,"95":-0.2831214964389801,"96":0.09679201990365982,"97":-1.0195735692977905,"98":0.19094717502593994,"99":0.14915195107460022,"100":0.01413037721067667,"101":-0.5690944790840149,"102":-0.779738187789917,"103":-0.6298505067825317,"104":-0.937383234500885,"105":-0.3313542604446411,"106":-0.7133345603942871,"107":-1.5936057567596436,"108":0.030146533623337746,"109":0.01576235704123974,"110":0.0650850236415863,"111":0.19615356624126434,"112":0.08811814337968826,"113":-0.5394264459609985,"114":-0.49441730976104736,"115":1.0793639421463013,"116":-0.6081910729408264,"117":-0.06632939726114273,"118":0.17626391351222992,"119":0.8084642887115479,"120":0.02039017342031002,"121":-0.27931299805641174,"122":0.18538619577884674,"123":-0.19265156984329224,"124":-0.003831350477412343,"125":-0.7786991000175476,"126":-3.239969253540039,"127":1.5480446815490723,"128":-0.08292541652917862,"129":4.4127302169799805,"130":-1.8248422145843506,"131":-3.0571513175964355,"132":0.10360975563526154,"133":3.408432722091675,"134":-0.14197567105293274,"135":0.006730039604008198,"136":0.1418403834104538,"137":-0.02256929688155651,"138":-2.0753464698791504,"139":3.6626360416412354,"140":-4.107197284698486,"141":-1.5801056623458862,"142":1.4515925645828247,"143":0.5080028772354126,"144":0.11150321364402771,"145":1.8134230375289917,"146":0.16519322991371155,"147":0.18353702127933502,"148":0.019045518711209297,"149":3.93640398979187,"150":-3.624656915664673,"151":0.7907072901725769,"152":0.21102707087993622,"153":3.1361472606658936,"154":-1.624773621559143,"155":-1.0751655101776123,"156":-0.014899443835020065,"157":0.892554759979248,"158":0.09399369359016418,"159":0.005444517824798822,"160":-0.05551820993423462,"161":-1.1310452222824097,"162":-3.4186599254608154,"163":6.664389133453369,"164":-1.3327717781066895,"165":-0.26502466201782227,"166":0.5127072334289551,"167":0.16579432785511017,"168":0.1462700068950653,"169":-3.367605209350586,"170":-0.14753910899162292,"171":-0.18117637932300568,"172":0.10629362612962723,"173":-0.4651743769645691,"174":-0.23026952147483826,"175":-1.0328238010406494,"176":4.109401702880859,"177":-1.486964464187622,"178":-0.1335977464914322,"179":-0.31256625056266785,"180":0.15412968397140503,"181":-3.171319007873535,"182":0.1321585476398468,"183":0.07243449240922928,"184":0.14585746824741364,"185":-1.7631369829177856,"186":-1.5388749837875366,"187":0.0065706828609108925,"188":-1.3702038526535034,"189":0.41014331579208374,"190":-1.774904489517212,"191":1.9633737802505493,"192":-0.005762984976172447,"193":-3.5497243404388428,"194":0.02040022239089012,"195":0.1937381774187088,"196":0.03763584420084953,"197":-3.7743091583251953,"198":0.15636321902275085,"199":-0.4783485233783722,"200":1.1298928260803223,"201":2.6622049808502197,"202":-0.2351173460483551,"203":-0.48296037316322327,"204":0.09301513433456421,"205":0.05947611853480339,"206":-0.05539710074663162,"207":-0.11539030075073242,"208":0.20280218124389648,"209":-0.4817447066307068,"210":-1.2259442806243896,"211":3.418846607208252,"212":-1.8660327196121216,"213":1.1942360401153564,"214":-0.4688856303691864,"215":-1.0471569299697876,"216":-0.10582160204648972,"217":-0.5774230360984802,"218":-0.1756918579339981,"219":0.15565422177314758,"220":-0.1506740301847458,"221":0.3332648277282715,"222":-0.7974997758865356,"223":-1.5892785787582397,"224":0.8216858506202698,"225":1.2345439195632935,"226":-3.689073324203491,"227":2.57924222946167,"228":0.1480065882205963,"229":-0.2665537893772125,"230":-0.04574751481413841,"231":-0.1252484917640686,"232":-0.02943192608654499,"233":0.4265977442264557,"234":-0.7692559361457825,"235":-0.21178476512432098,"236":-0.2423534095287323,"237":0.39950793981552124,"238":-2.327246904373169,"239":-3.3946914672851562}},"4":{"bias":-2.0582327842712402,"weights":{"0":0.11435872316360474,"1":-0.23380734026432037,"2":-0.11547672748565674,"3":-0.179911807179451,"4":-0.007414412684738636,"5":0.18500642478466034,"6":-0.3533379137516022,"7":-0.4373703598976135,"8":0.25893715023994446,"9":0.24220722913742065,"10":-0.4180104732513428,"11":0.22033457458019257,"12":-0.012023844756186008,"13":-0.45675477385520935,"14":-0.04770538583397865,"15":-0.10601693391799927,"16":0.021178163588047028,"17":-0.08381283283233643,"18":-0.5950009226799011,"19":-0.3911913335323334,"20":-0.18631410598754883,"21":0.05023115500807762,"22":-0.5249204039573669,"23":-0.2676886320114136,"24":0.0641053318977356,"25":0.20479068160057068,"26":-0.02427547052502632,"27":-0.057944077998399734,"28":0.023325921967625618,"29":0.35464397072792053,"30":-0.3564482629299164,"31":-0.44697996973991394,"32":1.1590025424957275,"33":0.5623801946640015,"34":-0.1555148810148239,"35":0.35327810049057007,"36":0.07066831737756729,"37":-0.8327772617340088,"38":-0.15702193975448608,"39":0.08268550038337708,"40":0.09444782137870789,"41":1.0854694843292236,"42":-1.0032767057418823,"43":-2.0475752353668213,"44":0.8864686489105225,"45":-0.2749713957309723,"46":0.06678944826126099,"47":-0.23203222453594208,"48":-0.0665261372923851,"49":-2.0489044189453125,"50":0.04444125294685364,"51":-0.03502665460109711,"52":0.14759844541549683,"53":0.2726522982120514,"54":-2.0139572620391846,"55":-2.778001308441162,"56":-0.18708857893943787,"57":-0.6256143450737,"58":-1.0579395294189453,"59":-0.5170777440071106,"60":-0.15835511684417725,"61":-0.21416768431663513,"62":-0.09615962207317352,"63":0.13026010990142822,"64":0.019198697060346603,"65":1.3164857625961304,"66":-1.3711243867874146,"67":-2.6589810848236084,"68":3.0060410499572754,"69":1.3670403957366943,"70":0.7929152846336365,"71":0.5594204068183899,"72":-0.07219807803630829,"73":0.4564759433269501,"74":-0.14639496803283691,"75":-0.09130451828241348,"76":-0.07167927175760269,"77":0.28306159377098083,"78":0.6616713404655457,"79":-2.270754337310791,"80":3.072437286376953,"81":0.2541607618331909,"82":-0.011195504106581211,"83":1.6671757698059082,"84":-0.13247686624526978,"85":0.2850331962108612,"86":0.07048804312944412,"87":-0.12838932871818542,"88":0.16110962629318237,"89":1.159572958946228,"90":-0.15785375237464905,"91":-3.8852007389068604,"92":2.5939106941223145,"93":-0.3490949273109436,"94":0.489651620388031,"95":-3.2500722408294678,"96":-0.156213641166687,"97":3.2724876403808594,"98":-0.19883351027965546,"99":-0.09995780885219574,"100":-0.06485451012849808,"101":4.35099983215332,"102":1.8535270690917969,"103":-2.8890299797058105,"104":4.133258819580078,"105":1.2970490455627441,"106":0.7666258215904236,"107":-0.971496045589447,"108":0.10060742497444153,"109":2.2937891483306885,"110":0.07431726902723312,"111":-0.17506341636180878,"112":-0.13643896579742432,"113":-1.1278775930404663,"114":3.714700222015381,"115":-0.8560110330581665,"116":-2.8201828002929688,"117":2.815957546234131,"118":-0.29400351643562317,"119":-1.9594560861587524,"120":-0.05660288780927658,"121":1.9643008708953857,"122":0.16121725738048553,"123":-0.05278018116950989,"124":0.1514562964439392,"125":-0.5574745535850525,"126":2.829892635345459,"127":0.5622074604034424,"128":-2.8077938556671143,"129":-0.8195156455039978,"130":0.43312758207321167,"131":0.7506842613220215,"132":0.159445121884346,"133":-0.17940418422222137,"134":-0.08218353986740112,"135":-0.08666731417179108,"136":-0.13730210065841675,"137":-1.0589900016784668,"138":-0.6293776035308838,"139":-1.3040556907653809,"140":-2.2850117683410645,"141":0.40358787775039673,"142":0.5009504556655884,"143":0.7782567143440247,"144":-0.195425346493721,"145":3.3081836700439453,"146":0.013720892369747162,"147":0.08408009260892868,"148":0.08926156908273697,"149":-0.3833351135253906,"150":-1.0686439275741577,"151":0.16293354332447052,"152":-0.6768959760665894,"153":1.7611734867095947,"154":1.2793034315109253,"155":-0.08119823783636093,"156":-0.17125698924064636,"157":2.6224493980407715,"158":0.10771916806697845,"159":0.08419926464557648,"160":0.04815926402807236,"161":0.42105937004089355,"162":-1.3597893714904785,"163":-0.13042281568050385,"164":0.4884943664073944,"165":0.10987481474876404,"166":-0.7879811525344849,"167":4.68710470199585,"168":-0.020129909738898277,"169":1.0765719413757324,"170":0.1949128359556198,"171":-0.010727815330028534,"172":-0.08678235858678818,"173":-0.4959598183631897,"174":-1.0377675294876099,"175":0.25633037090301514,"176":3.0146381855010986,"177":-1.863808035850525,"178":0.2575821876525879,"179":1.328589916229248,"180":-0.029472261667251587,"181":0.7928808331489563,"182":-0.19868440926074982,"183":0.04093720018863678,"184":-0.1952628642320633,"185":-2.3074734210968018,"186":-0.14850746095180511,"187":-0.0019706643652170897,"188":-1.8768246173858643,"189":1.9510198831558228,"190":2.1257474422454834,"191":0.6370413303375244,"192":-0.042347054928541183,"193":0.06595108658075333,"194":-0.012329339049756527,"195":0.05216025933623314,"196":-0.17173215746879578,"197":-1.8417747020721436,"198":-0.5124693512916565,"199":-1.2576143741607666,"200":2.0808722972869873,"201":0.04959999769926071,"202":-1.0773038864135742,"203":-2.3646819591522217,"204":0.051577840000391006,"205":-0.725738525390625,"206":0.03563690185546875,"207":-0.12283950299024582,"208":0.06238467991352081,"209":-0.07570221275091171,"210":-1.9957431554794312,"211":-4.512330055236816,"212":1.1898645162582397,"213":1.006473183631897,"214":0.7413716912269592,"215":0.12113650888204575,"216":0.18945519626140594,"217":-1.7492427825927734,"218":0.1721159964799881,"219":0.194473996758461,"220":-0.03683118149638176,"221":-2.533909320831299,"222":0.16576077044010162,"223":-1.3291748762130737,"224":-3.1552557945251465,"225":0.8104761242866516,"226":-5.028537750244141,"227":-2.0131711959838867,"228":-0.03315176069736481,"229":-2.4573843479156494,"230":-0.19312620162963867,"231":0.18469464778900146,"232":0.01429898664355278,"233":-1.9270907640457153,"234":-0.6284059882164001,"235":-1.356730580329895,"236":1.4287879467010498,"237":0.7682605385780334,"238":1.7933162450790405,"239":-3.6626322269439697}},"5":{"bias":-2.8434090614318848,"weights":{"0":-0.10678604245185852,"1":-0.1825367510318756,"2":0.19299274682998657,"3":0.05538124591112137,"4":0.1494443118572235,"5":0.39188826084136963,"6":-0.4783816933631897,"7":-0.6462909579277039,"8":0.3414931297302246,"9":0.13477572798728943,"10":-0.06108288839459419,"11":0.2163110077381134,"12":-0.06405365467071533,"13":-0.2296326756477356,"14":0.16300389170646667,"15":-0.18905465304851532,"16":0.18047799170017242,"17":0.2143232226371765,"18":-0.5569102168083191,"19":-0.5500389337539673,"20":-0.08913739025592804,"21":-0.28449320793151855,"22":-0.4142063856124878,"23":0.15431994199752808,"24":-0.04902978241443634,"25":-0.40780457854270935,"26":-0.05844423174858093,"27":-0.10704340785741806,"28":0.05118395388126373,"29":0.1367802619934082,"30":0.23939740657806396,"31":-0.5962424874305725,"32":0.39468154311180115,"33":0.02053580805659294,"34":0.5126998424530029,"35":0.1854274719953537,"36":-0.19569382071495056,"37":-0.007924945093691349,"38":0.1905331164598465,"39":-0.1768323928117752,"40":0.15846647322177887,"41":-0.0688856989145279,"42":0.13913984596729279,"43":-0.5579325556755066,"44":0.8990896344184875,"45":0.1698599010705948,"46":-0.14979344606399536,"47":0.6263927817344666,"48":-0.08777368813753128,"49":-0.0803312435746193,"50":0.09281359612941742,"51":0.08822815865278244,"52":-0.12387537956237793,"53":0.12450262159109116,"54":-0.037782326340675354,"55":-0.753315806388855,"56":-0.007978786714375019,"57":0.06810641288757324,"58":-0.0419318787753582,"59":0.4169189929962158,"60":-0.026873204857110977,"61":0.7685523629188538,"62":-0.16492725908756256,"63":0.11943964660167694,"64":-0.17224974930286407,"65":0.289131224155426,"66":0.5536559820175171,"67":-0.1548791080713272,"68":0.5258300304412842,"69":-0.43294042348861694,"70":0.5592378377914429,"71":-0.37927868962287903,"72":-0.014702700078487396,"73":-0.1139708012342453,"74":-0.16287095844745636,"75":-0.03385575860738754,"76":-0.032236382365226746,"77":0.39210245013237,"78":0.2871858477592468,"79":-1.414901852607727,"80":1.4031676054000854,"81":0.15458300709724426,"82":0.7797296047210693,"83":0.3758953809738159,"84":-0.19115333259105682,"85":-0.4086509048938751,"86":-0.15443792939186096,"87":-0.03296072781085968,"88":-0.20230653882026672,"89":-0.651866614818573,"90":0.42430901527404785,"91":-0.6433802843093872,"92":0.07153038680553436,"93":-0.15232214331626892,"94":-0.14200979471206665,"95":0.4839748740196228,"96":0.12686045467853546,"97":0.5210075378417969,"98":-0.18760637938976288,"99":0.16053315997123718,"100":0.13296248018741608,"101":-0.6882005333900452,"102":1.1422277688980103,"103":-1.9633435010910034,"104":-0.5316978693008423,"105":0.4567672312259674,"106":-0.3772590756416321,"107":0.8323882818222046,"108":0.15530703961849213,"109":0.25060907006263733,"110":-0.19781389832496643,"111":0.07616410404443741,"112":-0.007305166684091091,"113":-1.1529678106307983,"114":1.1765424013137817,"115":-2.15166974067688,"116":0.5355008840560913,"117":0.6123379468917847,"118":-0.07096046954393387,"119":-0.15925189852714539,"120":-0.18300451338291168,"121":1.5949598550796509,"122":-0.18874122202396393,"123":-0.015057602897286415,"124":-0.10661482065916061,"125":0.6362505555152893,"126":1.0673822164535522,"127":-0.8345209956169128,"128":-0.8610578179359436,"129":-0.10078869760036469,"130":-0.4215794801712036,"131":-0.7584426999092102,"132":0.005045474041253328,"133":1.8343513011932373,"134":-0.028352821245789528,"135":-0.014421019703149796,"136":-0.1681564450263977,"137":0.9187233448028564,"138":1.3012032508850098,"139":-0.9109950065612793,"140":0.134926900267601,"141":0.8595609664916992,"142":1.0710740089416504,"143":0.29198601841926575,"144":0.16182586550712585,"145":3.966385841369629,"146":-0.08821035176515579,"147":0.08683011680841446,"148":-0.16799506545066833,"149":0.27393922209739685,"150":3.078477382659912,"151":-2.3493847846984863,"152":0.05614781752228737,"153":-0.3054227828979492,"154":-0.46576404571533203,"155":0.89901202917099,"156":-0.058938656002283096,"157":3.7410695552825928,"158":-0.04912818968296051,"159":0.16051210463047028,"160":-0.17164476215839386,"161":1.1919535398483276,"162":2.287893772125244,"163":-1.4664092063903809,"164":0.5749824643135071,"165":0.33509665727615356,"166":-0.20734328031539917,"167":-1.2653549909591675,"168":0.057559069246053696,"169":-0.875677227973938,"170":-0.187972292304039,"171":-0.0761357918381691,"172":-0.09274636209011078,"173":0.1369420439004898,"174":2.79429030418396,"175":-3.662552833557129,"176":0.5564725399017334,"177":-0.17814910411834717,"178":-0.32215648889541626,"179":-0.5033846497535706,"180":-0.06727694720029831,"181":1.494488000869751,"182":-0.04769444465637207,"183":0.04449135437607765,"184":-0.19978900253772736,"185":0.4239230751991272,"186":0.7102236151695251,"187":-2.4158573150634766,"188":-0.5151336193084717,"189":0.30148836970329285,"190":-1.3758010864257812,"191":-0.8469520807266235,"192":0.17097684741020203,"193":2.651674747467041,"194":0.092923603951931,"195":0.0910947322845459,"196":0.09839112311601639,"197":-5.883913040161133,"198":2.3814332485198975,"199":0.47165173292160034,"200":1.408316969871521,"201":-3.3782336711883545,"202":-1.1248618364334106,"203":-1.1300740242004395,"204":-0.052105341106653214,"205":-3.2665066719055176,"206":-0.16572163999080658,"207":0.15367388725280762,"208":0.15244673192501068,"209":-1.9814951419830322,"210":-1.4167941808700562,"211":-4.774181365966797,"212":1.1642521619796753,"213":0.6570916175842285,"214":-2.212900161743164,"215":1.1848301887512207,"216":-0.055689819157123566,"217":-3.0610713958740234,"218":0.11036314815282822,"219":-0.12425114214420319,"220":-0.10991059988737106,"221":0.5389902591705322,"222":-3.8728244304656982,"223":-4.301758289337158,"224":3.092768430709839,"225":-9.751033782958984,"226":-6.104308128356934,"227":-2.0598597526550293,"228":0.16427306830883026,"229":-3.3599395751953125,"230":0.12059877067804337,"231":0.028151042759418488,"232":-0.18192289769649506,"233":1.456344723701477,"234":-4.938566207885742,"235":-5.625330924987793,"236":10.111562728881836,"237":0.059114303439855576,"238":-0.2448631078004837,"239":-2.591489791870117}},"6":{"bias":-4.7593817710876465,"weights":{"0":-0.12947794795036316,"1":0.5524477958679199,"2":0.007506417576223612,"3":0.09809818863868713,"4":0.1549888551235199,"5":-0.52422696352005,"6":0.7525114417076111,"7":1.2935504913330078,"8":-0.5873700976371765,"9":-0.21692244708538055,"10":0.37891098856925964,"11":-0.13277511298656464,"12":0.05946427583694458,"13":0.4652133882045746,"14":0.16209980845451355,"15":0.1368110477924347,"16":-0.109734907746315,"17":-0.17219777405261993,"18":0.6537126302719116,"19":1.087462306022644,"20":-1.3265550136566162,"21":-0.3294418156147003,"22":-1.2659950256347656,"23":-0.2378627210855484,"24":-0.12705540657043457,"25":0.5557687878608704,"26":0.06631916761398315,"27":0.19440755248069763,"28":-0.17402411997318268,"29":0.7780693173408508,"30":-0.1299096941947937,"31":0.741999089717865,"32":-1.124077558517456,"33":0.522281289100647,"34":1.175698161125183,"35":0.018706759437918663,"36":-0.0023510251194238663,"37":-0.4104464054107666,"38":-0.012844610027968884,"39":-0.08221658319234848,"40":0.09862856566905975,"41":-0.12104333192110062,"42":-0.655382513999939,"43":0.3765416741371155,"44":-1.4251445531845093,"45":-0.8131348490715027,"46":0.42369595170021057,"47":-0.20046009123325348,"48":-0.14293932914733887,"49":-0.06403925269842148,"50":-0.13358339667320251,"51":-0.000772260595113039,"52":-0.10177680104970932,"53":0.426006555557251,"54":-0.2486560195684433,"55":1.040759801864624,"56":0.28803813457489014,"57":-0.5365100502967834,"58":-0.06846559792757034,"59":0.7324462532997131,"60":0.1758577674627304,"61":-1.1913371086120605,"62":-0.07546310126781464,"63":0.11706981062889099,"64":-0.07154834270477295,"65":0.2771128714084625,"66":-1.0433852672576904,"67":0.459759384393692,"68":-0.5950874090194702,"69":-1.2172366380691528,"70":0.5276394486427307,"71":-0.2603967487812042,"72":0.033583417534828186,"73":-0.3849824368953705,"74":0.0055975541472435,"75":-0.07571251690387726,"76":0.11219552904367447,"77":1.5508478879928589,"78":-2.2419180870056152,"79":2.635833263397217,"80":0.1867314875125885,"81":0.4915606677532196,"82":-0.13446509838104248,"83":-0.27936598658561707,"84":-0.011342497542500496,"85":-0.44982463121414185,"86":-0.16178512573242188,"87":-0.038149937987327576,"88":0.23898807168006897,"89":0.6783594489097595,"90":-0.5681742429733276,"91":0.8007324934005737,"92":-0.7154477834701538,"93":0.4290650188922882,"94":-0.3838600814342499,"95":0.09221208840608597,"96":-0.11309906840324402,"97":0.2050003558397293,"98":-0.14806611835956573,"99":0.1466400921344757,"100":0.14670711755752563,"101":1.0230717658996582,"102":0.6405919194221497,"103":1.0903782844543457,"104":-0.1106814295053482,"105":-0.5445986390113831,"106":-0.6237443685531616,"107":-0.6315954923629761,"108":-0.010034892708063126,"109":-0.22059032320976257,"110":0.12178833037614822,"111":-0.15286417305469513,"112":0.15218804776668549,"113":0.6928896903991699,"114":1.1330432891845703,"115":-0.022032976150512695,"116":-0.02926134131848812,"117":-0.3297710716724396,"118":0.2013283222913742,"119":-0.009161093272268772,"120":-0.08370298892259598,"121":-0.7723913788795471,"122":-0.033342115581035614,"123":0.18165570497512817,"124":0.07752750813961029,"125":0.06694823503494263,"126":-0.6645241975784302,"127":0.4739362895488739,"128":-0.8898088335990906,"129":0.09698887169361115,"130":0.19912926852703094,"131":-0.25985994935035706,"132":-0.1561189889907837,"133":-0.3103121519088745,"134":-0.17413698136806488,"135":0.10259824991226196,"136":-0.08447780460119247,"137":1.164819598197937,"138":0.3337993025779724,"139":0.2801518440246582,"140":-0.258686363697052,"141":-0.33578380942344666,"142":0.1733025759458542,"143":0.5290219783782959,"144":0.11267124861478806,"145":-0.947994589805603,"146":-0.1761203408241272,"147":-0.04641689360141754,"148":-0.1538245677947998,"149":1.1565021276474,"150":-0.06386281549930573,"151":0.7223727107048035,"152":-0.10847771167755127,"153":-0.007376495283097029,"154":-0.16213545203208923,"155":0.11584087461233139,"156":0.12393227964639664,"157":0.0916464701294899,"158":-0.12895315885543823,"159":0.16489814221858978,"160":0.15497249364852905,"161":0.0529528371989727,"162":-0.9736541509628296,"163":2.5707991123199463,"164":-0.3053526282310486,"165":-1.085419774055481,"166":0.4449211061000824,"167":-0.009315833449363708,"168":-0.16637346148490906,"169":-0.41693004965782166,"170":0.19989532232284546,"171":-0.08436644077301025,"172":-0.019755396991968155,"173":1.299418330192566,"174":1.2375320196151733,"175":0.46900638937950134,"176":-0.6805638074874878,"177":1.4218822717666626,"178":-0.5912458300590515,"179":0.15943212807178497,"180":0.11855448782444,"181":-0.7294042110443115,"182":0.12358192354440689,"183":-0.07640375196933746,"184":-0.09795638918876648,"185":2.3805439472198486,"186":-1.8447171449661255,"187":2.9931721687316895,"188":1.981589674949646,"189":0.32840460538864136,"190":1.4026812314987183,"191":0.1351049542427063,"192":-0.18486306071281433,"193":-2.411017417907715,"194":-0.12358687072992325,"195":-0.10258771479129791,"196":0.156219482421875,"197":0.9162086248397827,"198":-2.1929450035095215,"199":5.374227046966553,"200":4.0637969970703125,"201":5.361162185668945,"202":-1.8260746002197266,"203":-0.8150492310523987,"204":-0.12899065017700195,"205":-5.240580081939697,"206":0.14443203806877136,"207":0.07826459407806396,"208":1.0868791341781616,"209":-7.288329601287842,"210":1.3514586687088013,"211":2.880049228668213,"212":-1.8414093255996704,"213":-1.03567636013031,"214":-5.8627495765686035,"215":4.213940620422363,"216":-0.008581048808991909,"217":-4.705512523651123,"218":-0.1186572015285492,"219":0.1868470460176468,"220":-0.02263128198683262,"221":-4.95140266418457,"222":-0.11468770354986191,"223":0.54616379737854,"224":5.70231294631958,"225":-15.495525360107422,"226":-3.392664670944214,"227":-11.854104042053223,"228":-0.10608059912919998,"229":-4.959228515625,"230":0.023054443299770355,"231":0.13241587579250336,"232":-0.138522207736969,"233":-3.0406296253204346,"234":-2.054013967514038,"235":-1.7953017950057983,"236":7.270370960235596,"237":-15.19074821472168,"238":-14.001421928405762,"239":5.600419044494629}},"7":{"bias":-0.42918306589126587,"weights":{"0":0.08829180896282196,"1":0.707737386226654,"2":-0.11193494498729706,"3":0.020225534215569496,"4":-0.16237619519233704,"5":0.32443711161613464,"6":0.24937687814235687,"7":-0.12021788954734802,"8":1.3654495477676392,"9":0.7203421592712402,"10":0.1259598433971405,"11":1.021582007408142,"12":-0.023836251348257065,"13":-0.41370272636413574,"14":0.036975596100091934,"15":0.08740613609552383,"16":0.056657563894987106,"17":0.1861601024866104,"18":-0.5782184600830078,"19":-1.0214118957519531,"20":0.7041141986846924,"21":0.9082396030426025,"22":-0.6725183725357056,"23":0.5066513419151306,"24":-0.08370746672153473,"25":0.13714763522148132,"26":0.18121834099292755,"27":-0.1581147164106369,"28":-0.047420695424079895,"29":0.7050244808197021,"30":-0.7112298011779785,"31":-1.35605788230896,"32":0.889876663684845,"33":1.4598132371902466,"34":-1.0310819149017334,"35":0.6072971224784851,"36":0.15617430210113525,"37":0.5276714563369751,"38":0.13761432468891144,"39":0.12731927633285522,"40":-0.1606486588716507,"41":1.5215225219726562,"42":-0.5460377931594849,"43":-1.8326219320297241,"44":2.0282294750213623,"45":-0.11181056499481201,"46":0.030136628076434135,"47":-0.29632967710494995,"48":0.14275719225406647,"49":2.920534610748291,"50":-0.1591864377260208,"51":-0.1769375056028366,"52":0.040372662246227264,"53":2.426046133041382,"54":0.5951048731803894,"55":-0.6813887357711792,"56":1.967266321182251,"57":0.18536345660686493,"58":-0.2750687003135681,"59":0.7539956569671631,"60":-0.059127017855644226,"61":1.615959644317627,"62":-0.02896779403090477,"63":-0.16988278925418854,"64":0.1190904974937439,"65":0.4145822823047638,"66":0.7186233401298523,"67":0.4247879087924957,"68":2.290165662765503,"69":0.15654709935188293,"70":0.5135087966918945,"71":1.6866114139556885,"72":0.08830862492322922,"73":1.039860486984253,"74":-0.04174073040485382,"75":0.10874201357364655,"76":-0.025749510154128075,"77":-1.8954375982284546,"78":2.862699270248413,"79":1.0423147678375244,"80":-2.496079206466675,"81":1.3341985940933228,"82":-0.19615082442760468,"83":-0.3584911525249481,"84":0.13545382022857666,"85":1.7470166683197021,"86":0.10665012896060944,"87":0.0715380534529686,"88":0.08121533691883087,"89":1.075508952140808,"90":0.6028920412063599,"91":-0.3677583336830139,"92":-1.2461647987365723,"93":0.44603922963142395,"94":-0.45754390954971313,"95":1.3374125957489014,"96":0.18863017857074738,"97":0.7280020117759705,"98":-0.012478004209697247,"99":-0.1907968372106552,"100":-0.1026400551199913,"101":-0.8374248743057251,"102":0.26196029782295227,"103":1.0697184801101685,"104":-3.6017439365386963,"105":0.042287275195121765,"106":0.04261258617043495,"107":-1.2816959619522095,"108":0.13020895421504974,"109":1.322162389755249,"110":0.10919980704784393,"111":-0.033845268189907074,"112":0.10338673740625381,"113":0.13808652758598328,"114":-0.8988652229309082,"115":0.42239075899124146,"116":0.1021333709359169,"117":-0.5425363183021545,"118":0.6070058941841125,"119":0.7574854493141174,"120":-0.1146574541926384,"121":-0.7799863219261169,"122":-0.01704266294836998,"123":-0.08699193596839905,"124":-0.07527467608451843,"125":-0.4590618908405304,"126":-0.08900613337755203,"127":-1.0774736404418945,"128":-0.17454314231872559,"129":-0.21671883761882782,"130":0.8100071549415588,"131":0.9675409197807312,"132":-0.033877287060022354,"133":0.0191704910248518,"134":0.008628372102975845,"135":0.07892359793186188,"136":-0.15917722880840302,"137":0.38907718658447266,"138":-1.0905243158340454,"139":-0.5901247262954712,"140":0.8503528237342834,"141":-1.8149724006652832,"142":0.5363149642944336,"143":-0.887256920337677,"144":0.19365501403808594,"145":-0.08730216324329376,"146":0.07473214715719223,"147":-0.054617688059806824,"148":0.17273737490177155,"149":-0.501414954662323,"150":-0.012695308774709702,"151":0.10022535175085068,"152":0.2390272170305252,"153":1.2098629474639893,"154":0.21566158533096313,"155":0.5465131402015686,"156":-0.17100554704666138,"157":-0.8126716613769531,"158":-0.10991860181093216,"159":-0.18807575106620789,"160":-0.19808897376060486,"161":-0.519713819026947,"162":-1.0975607633590698,"163":-0.5987091660499573,"164":0.4448374807834625,"165":0.05350031331181526,"166":-1.2316691875457764,"167":-0.6913475394248962,"168":-0.19206103682518005,"169":-0.06938106566667557,"170":-0.09990981966257095,"171":0.18819767236709595,"172":-0.1019243448972702,"173":0.3874247670173645,"174":-1.116682529449463,"175":-1.9586009979248047,"176":0.7783371806144714,"177":0.8328717350959778,"178":0.9729858636856079,"179":-0.6678757667541504,"180":0.11767629534006119,"181":-3.9131321907043457,"182":-0.10250891745090485,"183":-0.04551202803850174,"184":0.13673241436481476,"185":-2.6194331645965576,"186":-0.2766028642654419,"187":-1.5540831089019775,"188":0.7500941157341003,"189":2.480295419692993,"190":-1.6276044845581055,"191":1.1730598211288452,"192":0.0420793853700161,"193":-3.1320064067840576,"194":-0.03794701769948006,"195":0.15117909014225006,"196":0.18850964307785034,"197":0.01588202267885208,"198":-2.4410197734832764,"199":-3.687112808227539,"200":-1.4739480018615723,"201":-1.27335524559021,"202":-2.5675573348999023,"203":-0.2732737362384796,"204":0.006041775923222303,"205":-2.1331989765167236,"206":0.07953058928251266,"207":-0.1695231795310974,"208":-0.15983270108699799,"209":1.8244214057922363,"210":-0.7852449417114258,"211":-3.126631021499634,"212":5.362122058868408,"213":-1.2182358503341675,"214":4.069671630859375,"215":0.23731595277786255,"216":-0.0221700519323349,"217":-0.9361303448677063,"218":0.022478241473436356,"219":-0.006784386467188597,"220":-0.15719148516654968,"221":0.9387038350105286,"222":-0.29456827044487,"223":-0.7289628386497498,"224":1.352055549621582,"225":-1.3639837503433228,"226":0.5287905931472778,"227":0.22860515117645264,"228":0.15671274065971375,"229":-0.7064440250396729,"230":0.16188649833202362,"231":-0.007315374910831451,"232":0.06277530640363693,"233":-0.19909094274044037,"234":-0.34857505559921265,"235":0.2525411546230316,"236":0.09980317950248718,"237":0.5599597096443176,"238":2.472386598587036,"239":1.889616847038269}},"8":{"bias":-0.3914680480957031,"weights":{"0":-0.051755160093307495,"1":0.16077448427677155,"2":0.18729016184806824,"3":-0.06891600787639618,"4":-0.1321026235818863,"5":0.19476881623268127,"6":-0.08019144833087921,"7":-0.4353153705596924,"8":0.5527523756027222,"9":-0.06087762489914894,"10":0.0763859823346138,"11":0.4367378056049347,"12":0.11100857704877853,"13":-0.7392187118530273,"14":-0.15051127970218658,"15":0.10377338528633118,"16":0.023653864860534668,"17":0.18975988030433655,"18":-1.0365954637527466,"19":-1.302392601966858,"20":0.16444389522075653,"21":0.02942783571779728,"22":-0.8331753015518188,"23":0.39683207869529724,"24":0.009628943167626858,"25":-0.5449162125587463,"26":0.027383578941226006,"27":0.06482475250959396,"28":0.015643004328012466,"29":0.15434187650680542,"30":-0.7448098063468933,"31":-0.9509178996086121,"32":0.9760816693305969,"33":0.3391357362270355,"34":-0.3218279480934143,"35":-0.3436107635498047,"36":0.0060851117596030235,"37":-1.1379451751708984,"38":0.09839700162410736,"39":0.018961269408464432,"40":0.024986200034618378,"41":0.4861190915107727,"42":0.2795393466949463,"43":-2.106633424758911,"44":1.3800628185272217,"45":-0.3110949695110321,"46":-0.3712315559387207,"47":-0.4342647194862366,"48":-0.13611848652362823,"49":-0.9852761626243591,"50":0.1665302962064743,"51":-0.006923828739672899,"52":-0.0705873966217041,"53":-1.4204655885696411,"54":1.0045267343521118,"55":-0.7057077884674072,"56":2.8495676517486572,"57":-0.22587355971336365,"58":-0.5113810300827026,"59":0.5729314088821411,"60":-0.044858526438474655,"61":-0.20211757719516754,"62":-0.17298336327075958,"63":-0.02028083987534046,"64":0.17713522911071777,"65":-0.16182242333889008,"66":0.06005484238266945,"67":-1.576268196105957,"68":1.0182322263717651,"69":-0.7620487809181213,"70":1.341128945350647,"71":-1.7848165035247803,"72":-0.16488629579544067,"73":2.7789084911346436,"74":-0.12291817367076874,"75":-0.07363907247781754,"76":0.16777591407299042,"77":1.9947134256362915,"78":2.32082200050354,"79":-1.604638934135437,"80":3.5736215114593506,"81":2.064640998840332,"82":-0.7695667743682861,"83":0.6993472576141357,"84":-0.01795942522585392,"85":3.29022216796875,"86":-0.09559284150600433,"87":0.015348104760050774,"88":0.09863214194774628,"89":0.8317149877548218,"90":3.3220090866088867,"91":0.16734452545642853,"92":3.0843818187713623,"93":0.08663003146648407,"94":-1.003912091255188,"95":3.114802837371826,"96":-0.0026717588771134615,"97":-0.14046049118041992,"98":-0.01042069960385561,"99":-0.10466082394123077,"100":-0.1096014529466629,"101":-3.0009710788726807,"102":2.683997869491577,"103":1.5274046659469604,"104":-5.468722820281982,"105":-0.3253524899482727,"106":-2.609703540802002,"107":-2.2273247241973877,"108":-0.05987672135233879,"109":0.9722545146942139,"110":-0.15654750168323517,"111":0.09362722933292389,"112":0.09446969628334045,"113":0.020438330247998238,"114":1.5327011346817017,"115":0.4194100499153137,"116":-1.7447471618652344,"117":-2.8106677532196045,"118":-3.7628543376922607,"119":1.721747875213623,"120":0.165387824177742,"121":0.22971446812152863,"122":-0.007734138984233141,"123":0.18013466894626617,"124":-0.15067800879478455,"125":-0.8826720714569092,"126":1.5340828895568848,"127":0.2553514838218689,"128":0.9009377360343933,"129":-1.2779364585876465,"130":-3.5354208946228027,"131":0.9502211809158325,"132":-0.06323877722024918,"133":-0.4039589464664459,"134":0.13167636096477509,"135":-0.03996217995882034,"136":-0.18643701076507568,"137":-0.7911062836647034,"138":-0.6105430722236633,"139":-0.021944841369986534,"140":1.8052382469177246,"141":0.2416178435087204,"142":-2.865708112716675,"143":-0.49238115549087524,"144":-0.16547875106334686,"145":-0.3901711404323578,"146":0.11031682044267654,"147":0.14264826476573944,"148":0.07549112290143967,"149":-1.4135550260543823,"150":-0.35777777433395386,"151":-0.3845405876636505,"152":1.9483604431152344,"153":-2.1123971939086914,"154":-0.8597131371498108,"155":0.2585662603378296,"156":-0.05086961016058922,"157":1.7719074487686157,"158":-0.10064061731100082,"159":0.0885482132434845,"160":0.12389279156923294,"161":1.5290658473968506,"162":0.329471617937088,"163":-0.835899829864502,"164":3.3791022300720215,"165":0.39757904410362244,"166":-1.5215632915496826,"167":0.09770557284355164,"168":-0.12714073061943054,"169":0.8530553579330444,"170":-0.08052835613489151,"171":0.0888553187251091,"172":-0.12438148260116577,"173":-0.89809650182724,"174":1.374941349029541,"175":-1.5385833978652954,"176":1.664185643196106,"177":-0.8082796335220337,"178":-0.4272393584251404,"179":-0.32815584540367126,"180":-0.1712307333946228,"181":-1.2428767681121826,"182":0.08996335417032242,"183":-0.11167208850383759,"184":0.14684730768203735,"185":-0.4732585549354553,"186":-0.993598997592926,"187":-1.222750186920166,"188":1.8419127464294434,"189":-1.6476359367370605,"190":0.08544044941663742,"191":-0.3339844346046448,"192":-0.031535614281892776,"193":-0.34875842928886414,"194":0.08337684720754623,"195":-0.17695529758930206,"196":0.02656923234462738,"197":0.2073594480752945,"198":0.27202656865119934,"199":-1.037479043006897,"200":0.357611745595932,"201":-0.318197637796402,"202":-0.4856298565864563,"203":-0.2928391993045807,"204":-0.12606313824653625,"205":-0.609637975692749,"206":-0.09421604126691818,"207":0.19026315212249756,"208":-0.05879489332437515,"209":-0.5092735886573792,"210":0.03745655715465546,"211":-0.8972381353378296,"212":5.777573585510254,"213":-5.12898588180542,"214":-0.2699046730995178,"215":-2.2734439373016357,"216":0.16594353318214417,"217":-0.6075878739356995,"218":0.004437685012817383,"219":-0.034561887383461,"220":-0.10267535597085953,"221":0.2001582682132721,"222":0.2304316759109497,"223":-3.355102777481079,"224":-4.941856861114502,"225":1.544482707977295,"226":-1.0752551555633545,"227":-1.862890601158142,"228":0.09295926988124847,"229":-0.49221664667129517,"230":0.1699603646993637,"231":0.14517149329185486,"232":0.15667353570461273,"233":-2.1410577297210693,"234":1.603581428527832,"235":1.019511342048645,"236":-5.672016143798828,"237":-0.24464908242225647,"238":0.8426088690757751,"239":-0.3789817988872528}},"9":{"bias":-1.6679635047912598,"weights":{"0":0.06191421300172806,"1":-0.1384524703025818,"2":-0.16004997491836548,"3":0.0019350401125848293,"4":-0.0947677418589592,"5":0.18158218264579773,"6":0.12269129604101181,"7":-0.12436004728078842,"8":-0.09896823018789291,"9":0.12371506541967392,"10":0.06018518656492233,"11":-0.10155678540468216,"12":0.08669929206371307,"13":0.12179519981145859,"14":0.03772113099694252,"15":0.15372848510742188,"16":-0.19950968027114868,"17":0.15223845839500427,"18":-0.1970328539609909,"19":0.11173995584249496,"20":-0.06313423067331314,"21":-0.06299881637096405,"22":-0.17142321169376373,"23":-0.1821950078010559,"24":0.11086191982030869,"25":0.0776563435792923,"26":0.12594929337501526,"27":0.07649379223585129,"28":0.004656157921999693,"29":0.2606642246246338,"30":0.03524661064147949,"31":-0.22576077282428741,"32":0.0211770199239254,"33":-0.055783871561288834,"34":-0.044769540429115295,"35":0.12750349938869476,"36":-0.16092798113822937,"37":-0.005501356907188892,"38":-0.11124587804079056,"39":0.07826073467731476,"40":0.051194146275520325,"41":0.13483601808547974,"42":-0.30745700001716614,"43":-0.2598832845687866,"44":-0.12699493765830994,"45":-0.19218742847442627,"46":-0.037597816437482834,"47":-0.14592096209526062,"48":0.11819744110107422,"49":-0.24275115132331848,"50":0.06540042906999588,"51":-0.08705103397369385,"52":-0.031214261427521706,"53":-0.10113150626420975,"54":-0.2637145221233368,"55":-0.6561649441719055,"56":-0.14063645899295807,"57":-0.3019566833972931,"58":-0.19621610641479492,"59":0.050005849450826645,"60":-0.11975789815187454,"61":-0.7338416576385498,"62":0.06934302300214767,"63":0.08902985602617264,"64":0.09091482311487198,"65":0.07049883902072906,"66":-0.43426069617271423,"67":-0.9201414585113525,"68":0.31452348828315735,"69":-0.4015888571739197,"70":-0.30415305495262146,"71":-0.38809117674827576,"72":-0.1350584626197815,"73":-1.6124945878982544,"74":0.1560283899307251,"75":0.07030045241117477,"76":-0.18969663977622986,"77":0.9303697943687439,"78":-2.5102131366729736,"79":-3.1685478687286377,"80":-0.1650211662054062,"81":0.3612343668937683,"82":0.28232598304748535,"83":-0.8996869325637817,"84":0.09152507036924362,"85":-4.111156940460205,"86":0.031197579577565193,"87":0.03266258165240288,"88":-0.019054880365729332,"89":-0.7810608148574829,"90":-3.213855743408203,"91":-3.851320505142212,"92":-0.42120468616485596,"93":-0.6092097759246826,"94":-1.8849775791168213,"95":-1.3683252334594727,"96":-0.13414546847343445,"97":-3.268258810043335,"98":0.08342457562685013,"99":-0.09090811014175415,"100":-0.005606026854366064,"101":1.7946536540985107,"102":-3.211163282394409,"103":-7.0729241371154785,"104":2.4099090099334717,"105":-2.302885055541992,"106":0.5972120761871338,"107":-0.48289167881011963,"108":-0.13912373781204224,"109":2.8659915924072266,"110":0.14786750078201294,"111":0.12656576931476593,"112":0.0645953118801117,"113":7.30892276763916,"114":0.8505690097808838,"115":-7.724211692810059,"116":12.581685066223145,"117":1.2363576889038086,"118":0.9052519202232361,"119":1.4480557441711426,"120":0.18468865752220154,"121":2.828711748123169,"122":0.06885988265275955,"123":-0.08650284260511398,"124":0.01449103094637394,"125":2.2883472442626953,"126":3.5432956218719482,"127":-1.3715919256210327,"128":0.2212250977754593,"129":-0.9929897785186768,"130":-0.09541500359773636,"131":-0.45605653524398804,"132":-0.13906879723072052,"133":1.4493809938430786,"134":-0.09738406538963318,"135":-0.06912144273519516,"136":0.04944494739174843,"137":0.8186784982681274,"138":0.004601486027240753,"139":-1.3677077293395996,"140":1.846297025680542,"141":0.7225515842437744,"142":0.16285113990306854,"143":0.9847557544708252,"144":-0.008954469114542007,"145":0.4747605323791504,"146":0.14983440935611725,"147":-0.05033135041594505,"148":0.13633541762828827,"149":-0.22550827264785767,"150":-0.4704248011112213,"151":-0.5741730332374573,"152":0.9176955223083496,"153":0.8576494455337524,"154":1.1369508504867554,"155":1.7204463481903076,"156":-0.13491588830947876,"157":1.0770426988601685,"158":-0.05440037325024605,"159":-0.13698941469192505,"160":0.1575467586517334,"161":-1.8217417001724243,"162":0.6120464205741882,"163":-1.3801472187042236,"164":-0.7333029508590698,"165":0.36325833201408386,"166":0.926335871219635,"167":0.7011112570762634,"168":0.05101269856095314,"169":-0.48759040236473083,"170":-0.14414724707603455,"171":0.19493749737739563,"172":0.1735682636499405,"173":-1.6006146669387817,"174":0.2948378920555115,"175":-0.19101880490779877,"176":-1.1670753955841064,"177":0.3701232075691223,"178":1.259460210800171,"179":0.32138001918792725,"180":-0.1178467720746994,"181":1.6768596172332764,"182":0.16630366444587708,"183":-0.07647891342639923,"184":0.003439679043367505,"185":-1.372268795967102,"186":-0.20044200122356415,"187":-0.046551842242479324,"188":0.17438580095767975,"189":0.33820435404777527,"190":0.25806593894958496,"191":0.5524064302444458,"192":0.15508709847927094,"193":-1.2079577445983887,"194":0.12774783372879028,"195":-0.0076568457297980785,"196":-0.1603674292564392,"197":-1.6102510690689087,"198":-0.6047757863998413,"199":-1.2497220039367676,"200":-0.04086557403206825,"201":0.03186023235321045,"202":0.40753987431526184,"203":-0.5389155745506287,"204":0.122128427028656,"205":-1.4120467901229858,"206":0.16393069922924042,"207":-0.0047739241272211075,"208":-0.12293701618909836,"209":-1.9771803617477417,"210":-0.12235809117555618,"211":-1.9021755456924438,"212":-0.24608607590198517,"213":0.48719465732574463,"214":1.258681297302246,"215":-0.7772109508514404,"216":-0.09089524298906326,"217":-0.9409560561180115,"218":-0.04852885380387306,"219":0.12793581187725067,"220":-0.046883370727300644,"221":-1.0979868173599243,"222":-1.2976970672607422,"223":-1.3969264030456543,"224":0.3927115797996521,"225":0.4123297929763794,"226":-0.9465506672859192,"227":0.48487693071365356,"228":0.02447962947189808,"229":-2.2115209102630615,"230":-0.09445948898792267,"231":0.005420348607003689,"232":0.04898194223642349,"233":-1.5978800058364868,"234":-0.5908910632133484,"235":-1.411097764968872,"236":-2.612802743911743,"237":1.5270918607711792,"238":0.0931321382522583,"239":-0.7159374952316284}},"10":{"bias":-0.7501938343048096,"weights":{"0":0.08659689873456955,"1":-0.06785175949335098,"2":-0.005407463293522596,"3":-0.08306466788053513,"4":-0.07854843139648438,"5":-0.19143857061862946,"6":-0.14135372638702393,"7":-0.019735580310225487,"8":0.06443500518798828,"9":0.03273044899106026,"10":-0.09548196196556091,"11":0.10569202154874802,"12":-0.08997958898544312,"13":0.03383147716522217,"14":-0.10583025962114334,"15":0.07279935479164124,"16":0.17636798322200775,"17":-0.21755141019821167,"18":-0.10171908140182495,"19":-0.009923864156007767,"20":-0.057565364986658096,"21":-0.10616090148687363,"22":-0.1341729611158371,"23":-0.22838908433914185,"24":0.11930550634860992,"25":-0.16308344900608063,"26":-0.05761798098683357,"27":-0.028311993926763535,"28":0.1814783364534378,"29":-0.06478162109851837,"30":-0.042707305401563644,"31":-0.1187349408864975,"32":-0.34907066822052,"33":-0.07980158925056458,"34":0.044899068772792816,"35":0.10491982847452164,"36":0.07597806304693222,"37":-0.38494032621383667,"38":-0.012784748338162899,"39":0.0022123148664832115,"40":-0.06700535118579865,"41":-0.012556955218315125,"42":-0.24965918064117432,"43":-0.08458463102579117,"44":-0.34722644090652466,"45":0.3310360908508301,"46":-0.24206523597240448,"47":0.12790276110172272,"48":0.027311600744724274,"49":-1.1061958074569702,"50":0.00824909657239914,"51":-0.10517409443855286,"52":0.0037131591234356165,"53":-0.46256351470947266,"54":-0.7743657231330872,"55":-0.5074416399002075,"56":-0.3216763734817505,"57":-0.2508438229560852,"58":-0.0343741849064827,"59":-0.39098188281059265,"60":0.03403688967227936,"61":0.12108007818460464,"62":-0.1789603978395462,"63":-0.042765162885189056,"64":0.19097484648227692,"65":-0.3497040271759033,"66":0.32009604573249817,"67":0.9458173513412476,"68":-0.9850625395774841,"69":0.6958836317062378,"70":-0.7019284963607788,"71":0.6707984805107117,"72":-0.1771145612001419,"73":0.661087155342102,"74":0.13455985486507416,"75":0.014165129512548447,"76":-0.04774247854948044,"77":-0.3312431275844574,"78":0.7701987028121948,"79":1.3893100023269653,"80":-0.18697087466716766,"81":0.5824955701828003,"82":-0.3570394217967987,"83":1.975728154182434,"84":0.05979776009917259,"85":0.9260509610176086,"86":0.010334323160350323,"87":0.11589991301298141,"88":0.1629982590675354,"89":1.0786712169647217,"90":-0.08223184943199158,"91":0.5328695774078369,"92":0.2779129445552826,"93":0.541207492351532,"94":1.284485101699829,"95":0.2793062925338745,"96":0.08002786338329315,"97":0.6854940056800842,"98":-0.002991066314280033,"99":0.01014790590852499,"100":0.16529729962348938,"101":0.996572732925415,"102":-0.5862822532653809,"103":-0.06497666239738464,"104":0.04873969778418541,"105":0.0157182440161705,"106":-0.04055682197213173,"107":-0.24902494251728058,"108":0.005141911096870899,"109":0.00509566068649292,"110":-0.0006219290662556887,"111":0.04358125105500221,"112":-0.1778150498867035,"113":0.1485508680343628,"114":-0.4645932912826538,"115":-0.04934638366103172,"116":0.2319391518831253,"117":-0.4351579546928406,"118":0.6245071291923523,"119":-0.6509940028190613,"120":0.18111953139305115,"121":-1.8583884239196777,"122":0.19696897268295288,"123":0.06590337306261063,"124":-0.03724025934934616,"125":-0.7925892472267151,"126":-0.8947157859802246,"127":-1.1450810432434082,"128":0.5806161165237427,"129":-0.4228876233100891,"130":-0.9168975949287415,"131":0.1725185662508011,"132":-0.05640780180692673,"133":-2.0178284645080566,"134":0.03379957005381584,"135":-0.19593390822410583,"136":0.02587692067027092,"137":-1.157382607460022,"138":-2.3737034797668457,"139":-1.2434914112091064,"140":0.6775168180465698,"141":-0.05075949430465698,"142":-1.596453309059143,"143":-0.1776180863380432,"144":0.025238629430532455,"145":1.7097893953323364,"146":-0.07572132349014282,"147":0.18570825457572937,"148":0.2434876263141632,"149":-0.6623804569244385,"150":-0.20481690764427185,"151":1.9024416208267212,"152":0.78350830078125,"153":-1.3050549030303955,"154":0.043345268815755844,"155":0.6034327149391174,"156":0.13442932069301605,"157":0.3158894181251526,"158":0.1908903867006302,"159":-0.07112172991037369,"160":0.16690243780612946,"161":0.12125807255506516,"162":-1.8570469617843628,"163":0.12057257443666458,"164":-1.3742330074310303,"165":3.341421127319336,"166":-3.432983875274658,"167":0.725382924079895,"168":0.018479054793715477,"169":0.9853779673576355,"170":-0.11541315913200378,"171":0.16242653131484985,"172":0.11263035982847214,"173":-1.367730736732483,"174":0.4306391477584839,"175":1.8710187673568726,"176":-0.8553833961486816,"177":-2.4405782222747803,"178":-0.4905543029308319,"179":-0.21768692135810852,"180":-0.18793898820877075,"181":-0.3132510185241699,"182":-0.07196745276451111,"183":-0.16278649866580963,"184":0.40085533261299133,"185":0.3890429735183716,"186":-1.622106909751892,"187":0.938237190246582,"188":-1.706229329109192,"189":2.819620132446289,"190":-0.032707665115594864,"191":-2.0891003608703613,"192":0.19945429265499115,"193":-3.3040878772735596,"194":-0.0009614381706342101,"195":-0.06546607613563538,"196":-0.13909883797168732,"197":-1.3774250745773315,"198":-1.1957664489746094,"199":-1.3517630100250244,"200":-2.275141954421997,"201":-1.7318094968795776,"202":-0.672657310962677,"203":0.7115869522094727,"204":0.14751020073890686,"205":-0.14419281482696533,"206":0.04658769443631172,"207":-0.14746131002902985,"208":-0.05719945579767227,"209":-1.047334909439087,"210":0.5660765171051025,"211":1.9449211359024048,"212":0.7500063180923462,"213":0.3811599612236023,"214":2.6319472789764404,"215":-3.3171145915985107,"216":0.05645360052585602,"217":-1.1757866144180298,"218":-0.197720006108284,"219":-0.018951604142785072,"220":0.18377476930618286,"221":-1.452754259109497,"222":0.4854482412338257,"223":0.771645188331604,"224":1.7338420152664185,"225":-0.17529432475566864,"226":1.225498914718628,"227":-1.2656657695770264,"228":-0.12526129186153412,"229":-0.5894913673400879,"230":0.013531477190554142,"231":-0.05653274804353714,"232":0.07068412005901337,"233":0.965279757976532,"234":-1.6628224849700928,"235":-0.8415749669075012,"236":-0.09805670380592346,"237":-0.4042259454727173,"238":-1.0711454153060913,"239":-0.2554950714111328}},"11":{"bias":-3.2528812885284424,"weights":{"0":0.18343627452850342,"1":0.11381976306438446,"2":0.04615001007914543,"3":-0.1023520827293396,"4":0.14988300204277039,"5":0.10045938193798065,"6":0.06338293105363846,"7":0.18104885518550873,"8":0.3801061809062958,"9":-0.07055647671222687,"10":0.13892029225826263,"11":-0.21609829366207123,"12":-0.06428269296884537,"13":0.35155507922172546,"14":-0.06831423193216324,"15":0.15795786678791046,"16":0.18033519387245178,"17":0.2053445726633072,"18":-0.15108022093772888,"19":-0.0721316859126091,"20":0.6866493821144104,"21":0.23767411708831787,"22":0.264958918094635,"23":0.38131144642829895,"24":0.1599341779947281,"25":0.07996907830238342,"26":0.16706879436969757,"27":-0.16494500637054443,"28":0.12926249206066132,"29":0.49746787548065186,"30":-0.2848399579524994,"31":-0.24513985216617584,"32":0.1916881799697876,"33":-0.37522029876708984,"34":0.3650217652320862,"35":-0.3058449327945709,"36":-0.13166990876197815,"37":-0.2801583707332611,"38":0.16451877355575562,"39":-0.16911129653453827,"40":0.023930199444293976,"41":-0.9380408525466919,"42":0.8164299130439758,"43":0.17655888199806213,"44":0.08339201658964157,"45":0.16932106018066406,"46":-0.9524528980255127,"47":-0.1955539584159851,"48":0.13746245205402374,"49":-1.1291568279266357,"50":-0.041378363966941833,"51":-0.0017831732984632254,"52":0.07961276173591614,"53":-0.48052409291267395,"54":-0.4044760763645172,"55":-0.9763527512550354,"56":0.18843132257461548,"57":-0.3269628882408142,"58":-0.981394350528717,"59":-0.4613852798938751,"60":0.11829366534948349,"61":-0.9888522028923035,"62":-0.1503714621067047,"63":-0.1671450287103653,"64":-0.17384371161460876,"65":-0.393580824136734,"66":-0.4295870065689087,"67":-1.3738906383514404,"68":1.7227470874786377,"69":0.3964935541152954,"70":-1.0704164505004883,"71":0.6366530060768127,"72":-0.108040951192379,"73":0.5814821124076843,"74":-0.12236666679382324,"75":0.171800434589386,"76":-0.10284104198217392,"77":0.578307569026947,"78":0.7827394604682922,"79":-1.2153840065002441,"80":0.6166088581085205,"81":0.7663149237632751,"82":0.4183581471443176,"83":-0.4948744475841522,"84":0.07956928014755249,"85":-0.6133717894554138,"86":-0.19282086193561554,"87":-0.13644467294216156,"88":0.008406264707446098,"89":1.2498588562011719,"90":-0.912900447845459,"91":-3.439936399459839,"92":2.7630090713500977,"93":0.5017057657241821,"94":1.214187502861023,"95":-0.1930837482213974,"96":0.032362643629312515,"97":0.8448250889778137,"98":-0.05335262790322304,"99":0.16787338256835938,"100":0.1635122448205948,"101":1.4121198654174805,"102":1.653645396232605,"103":-2.202521324157715,"104":3.2037429809570312,"105":0.39438527822494507,"106":2.371990203857422,"107":-0.2581076920032501,"108":0.0454070009291172,"109":1.4542796611785889,"110":-0.025191504508256912,"111":0.024462975561618805,"112":0.10441724210977554,"113":1.2982996702194214,"114":1.1778172254562378,"115":-1.9244519472122192,"116":-0.6376124024391174,"117":-0.37517064809799194,"118":-0.6517183184623718,"119":0.4533824324607849,"120":0.0008746357052586973,"121":0.4013150632381439,"122":0.11538755893707275,"123":0.1496577113866806,"124":-0.02369794249534607,"125":0.5867854356765747,"126":1.5023620128631592,"127":-2.368436098098755,"128":-1.784286379814148,"129":0.6032599806785583,"130":1.0001362562179565,"131":-1.0218008756637573,"132":-0.10729488730430603,"133":-0.5553163290023804,"134":-0.1441584676504135,"135":-0.18948151171207428,"136":-0.058057237416505814,"137":0.18531110882759094,"138":1.370004415512085,"139":-0.28607702255249023,"140":-2.612046241760254,"141":2.115391254425049,"142":2.4437503814697266,"143":1.0110503435134888,"144":0.0917491689324379,"145":0.23910807073116302,"146":-0.16938400268554688,"147":0.026471847668290138,"148":-0.0923641100525856,"149":1.6409841775894165,"150":1.2720681428909302,"151":-2.467172861099243,"152":1.068936824798584,"153":1.607584834098816,"154":1.8037315607070923,"155":1.871046781539917,"156":0.05677364394068718,"157":0.18687273561954498,"158":0.0996648520231247,"159":-0.14750690758228302,"160":0.057632721960544586,"161":-0.043988339602947235,"162":1.930456519126892,"163":-1.0504220724105835,"164":-1.2760084867477417,"165":-0.08669859170913696,"166":1.3172242641448975,"167":-0.6469568610191345,"168":-0.023541642352938652,"169":6.196883201599121,"170":0.1505001187324524,"171":-0.07576631754636765,"172":0.10586407780647278,"173":3.3702404499053955,"174":3.4464237689971924,"175":0.6275681257247925,"176":-1.0128543376922607,"177":-0.6884453892707825,"178":1.3462803363800049,"179":-0.7746255993843079,"180":-0.1310318410396576,"181":1.5264478921890259,"182":-0.08138726651668549,"183":0.015060960315167904,"184":-0.05701917037367821,"185":-0.3725057542324066,"186":0.8595741391181946,"187":-2.2427492141723633,"188":-0.7671726942062378,"189":-0.5454767346382141,"190":-1.4938796758651733,"191":-0.3802717328071594,"192":-0.07401426136493683,"193":-1.5576823949813843,"194":-0.18214137852191925,"195":-0.16444221138954163,"196":-0.15435177087783813,"197":-2.7011778354644775,"198":-0.9310415983200073,"199":-1.397840976715088,"200":0.705011248588562,"201":-0.362613320350647,"202":-1.042773962020874,"203":-0.435012549161911,"204":0.1441105157136917,"205":-2.3280937671661377,"206":0.153285950422287,"207":-0.01593131013214588,"208":-0.02594820223748684,"209":-0.3476736843585968,"210":-4.484972953796387,"211":-3.540834426879883,"212":-1.7218406200408936,"213":-0.9414229989051819,"214":-7.972415447235107,"215":2.6610889434814453,"216":-0.13516634702682495,"217":-3.348043203353882,"218":0.15079478919506073,"219":-0.13777685165405273,"220":-0.20238307118415833,"221":-1.9537353515625,"222":-1.2127289772033691,"223":-4.757757663726807,"224":2.681952476501465,"225":5.850246906280518,"226":3.7371819019317627,"227":-0.9573445320129395,"228":-0.13769836723804474,"229":-3.7264187335968018,"230":0.14531229436397552,"231":-0.1704948991537094,"232":-0.12970833480358124,"233":-6.882668495178223,"234":3.01997971534729,"235":3.667692184448242,"236":-2.5759081840515137,"237":0.9210195541381836,"238":-5.073997497558594,"239":6.823157787322998}},"12":{"bias":0.9044399261474609,"weights":{"0":0.11829041689634323,"1":-0.05261305347084999,"2":-0.02068326063454151,"3":-0.05449002981185913,"4":-0.1732102930545807,"5":0.0008307111565954983,"6":-0.14284218847751617,"7":-0.09016446769237518,"8":0.06262732297182083,"9":0.07464015483856201,"10":-0.11707369238138199,"11":0.06169062852859497,"12":-0.15555599331855774,"13":-0.21735872328281403,"14":0.12808147072792053,"15":0.03998762369155884,"16":0.04859563708305359,"17":-0.07466807961463928,"18":0.06135191023349762,"19":0.16659606993198395,"20":-0.09568674862384796,"21":-0.10525470227003098,"22":0.06035787984728813,"23":0.1334138810634613,"24":0.09519380331039429,"25":-0.03096635453402996,"26":0.02413831651210785,"27":-0.15159177780151367,"28":0.00017654277326073498,"29":-0.13267181813716888,"30":-0.04798657447099686,"31":0.05773863568902016,"32":0.20059175789356232,"33":-0.019178105518221855,"34":-0.04802211746573448,"35":-0.14749054610729218,"36":-0.028765501454472542,"37":0.11793135106563568,"38":-0.17675958573818207,"39":0.19189196825027466,"40":0.09941791743040085,"41":-0.10848332196474075,"42":0.16597551107406616,"43":-0.06762402504682541,"44":-0.11160693317651749,"45":0.082497738301754,"46":-0.0006688939174637198,"47":-0.21013128757476807,"48":-0.14938561618328094,"49":-0.026513827964663506,"50":0.012682097963988781,"51":0.04042680189013481,"52":0.03276769444346428,"53":-0.028356287628412247,"54":-0.06475768983364105,"55":0.038749080151319504,"56":-0.14007733762264252,"57":0.16765514016151428,"58":-0.028093302622437477,"59":0.1576179414987564,"60":0.1207292452454567,"61":0.07973635196685791,"62":0.1886836439371109,"63":0.01686248555779457,"64":-0.1891162395477295,"65":-0.17645478248596191,"66":-0.09470735490322113,"67":0.06953679025173187,"68":0.13973568379878998,"69":-0.008837498724460602,"70":0.06383916735649109,"71":-0.19976826012134552,"72":0.03924596309661865,"73":-0.24866431951522827,"74":-0.1463431566953659,"75":0.07046595960855484,"76":-0.02733714133501053,"77":-0.0544092021882534,"78":0.042991116642951965,"79":0.019519859924912453,"80":-0.06094964221119881,"81":-0.13578851521015167,"82":0.07418545335531235,"83":0.001158994622528553,"84":-0.16132989525794983,"85":-0.15006892383098602,"86":0.09907200932502747,"87":0.1856764256954193,"88":-0.03855202719569206,"89":0.14090581238269806,"90":-0.22697819769382477,"91":-0.07853037118911743,"92":0.1689349263906479,"93":-0.15415342152118683,"94":-0.06125409156084061,"95":0.043489545583724976,"96":0.15082953870296478,"97":-0.12107370048761368,"98":0.1784152388572693,"99":-0.12668579816818237,"100":-0.01900220662355423,"101":0.008465391583740711,"102":-0.2922697365283966,"103":-0.21175359189510345,"104":0.22976991534233093,"105":-0.1605146825313568,"106":0.11462509632110596,"107":0.054477810859680176,"108":-0.11359948664903641,"109":0.27946680784225464,"110":0.14105075597763062,"111":-0.1812790036201477,"112":0.1403523087501526,"113":-0.23251986503601074,"114":0.16150785982608795,"115":0.09496455639600754,"116":0.16977693140506744,"117":0.028514152392745018,"118":-0.20356419682502747,"119":0.4007253348827362,"120":0.19326487183570862,"121":-0.04443494975566864,"122":-0.002704530954360962,"123":-0.04793703556060791,"124":-0.19128122925758362,"125":0.018847107887268066,"126":-0.22935882210731506,"127":-0.42080429196357727,"128":0.13692091405391693,"129":0.1294085681438446,"130":-0.2819259464740753,"131":0.07599333673715591,"132":0.048467520624399185,"133":-0.42902201414108276,"134":0.15914969146251678,"135":-0.03367015719413757,"136":-0.07898278534412384,"137":0.4408923089504242,"138":-0.7069722414016724,"139":-1.137790322303772,"140":0.2150491625070572,"141":-1.214360237121582,"142":-1.0440551042556763,"143":0.06054774671792984,"144":-0.09742868691682816,"145":-1.6668018102645874,"146":-0.0017918484518304467,"147":0.17435429990291595,"148":0.10998141020536423,"149":-0.04736033454537392,"150":-0.9344885349273682,"151":-1.7069292068481445,"152":0.7191315293312073,"153":0.6566448211669922,"154":-0.6153566241264343,"155":-0.18888509273529053,"156":-0.12426329404115677,"157":-2.313154458999634,"158":-0.034297630190849304,"159":0.06541638821363449,"160":0.12577596306800842,"161":-0.47518593072891235,"162":-1.3801766633987427,"163":-2.078861951828003,"164":-0.11895181983709335,"165":0.6300870776176453,"166":-2.3896994590759277,"167":-0.29531028866767883,"168":-0.06335173547267914,"169":-4.975546836853027,"170":-0.12227459251880646,"171":0.005366049241274595,"172":-0.01472084317356348,"173":-0.4363524615764618,"174":-2.986154079437256,"175":-3.7235305309295654,"176":1.454200029373169,"177":-0.6709479093551636,"178":-1.360012173652649,"179":1.8046586513519287,"180":-0.034800220280885696,"181":-5.027918815612793,"182":-0.12704479694366455,"183":-0.17038793861865997,"184":0.07391699403524399,"185":1.6996889114379883,"186":0.31701692938804626,"187":-5.249087810516357,"188":0.2681858539581299,"189":-6.34926700592041,"190":-2.212390422821045,"191":-5.69530725479126,"192":-0.0008201408199965954,"193":-6.300207614898682,"194":0.012137848883867264,"195":0.01681094989180565,"196":-0.19128480553627014,"197":5.649752140045166,"198":-0.863832414150238,"199":-4.666909694671631,"200":11.389973640441895,"201":-1.225559949874878,"202":-0.34673404693603516,"203":1.619991660118103,"204":-0.029707372188568115,"205":-0.4331552982330322,"206":-0.14304417371749878,"207":0.1339619755744934,"208":0.015958372503519058,"209":0.39903581142425537,"210":0.9433513879776001,"211":-0.9994813203811646,"212":-0.9978401064872742,"213":0.4317052364349365,"214":0.6630389094352722,"215":-0.47387754917144775,"216":0.020350374281406403,"217":0.6365022659301758,"218":-0.022245824337005615,"219":0.048064764589071274,"220":0.03360426425933838,"221":1.8988264799118042,"222":1.6414484977722168,"223":0.02687646634876728,"224":-0.43487516045570374,"225":-1.7522945404052734,"226":-0.2802774906158447,"227":0.8715488314628601,"228":0.17653070390224457,"229":0.26337501406669617,"230":-0.07764215767383575,"231":-0.01759946718811989,"232":-0.1506538689136505,"233":1.0666004419326782,"234":-0.36086440086364746,"235":2.0271811485290527,"236":-0.3468661904335022,"237":1.0551607608795166,"238":-0.15422149002552032,"239":-1.6602805852890015}},"13":{"bias":-2.496325731277466,"weights":{"0":0.10706903785467148,"1":0.01837981678545475,"2":0.04814760014414787,"3":0.14052556455135345,"4":0.014779885299503803,"5":0.1425168812274933,"6":0.2745233178138733,"7":0.15833303332328796,"8":0.0839608833193779,"9":-0.13954474031925201,"10":0.025906488299369812,"11":0.14372551441192627,"12":0.041420307010412216,"13":0.016452239826321602,"14":-0.09412514418363571,"15":0.14775225520133972,"16":-0.04266403242945671,"17":0.19789907336235046,"18":-0.1574171930551529,"19":-0.15816889703273773,"20":0.30334100127220154,"21":-0.02169022336602211,"22":-0.1592506617307663,"23":-0.1602461189031601,"24":0.10534805059432983,"25":-0.018345143646001816,"26":-0.14617329835891724,"27":-0.1005314290523529,"28":-0.14236246049404144,"29":-0.1906580626964569,"30":0.10924730449914932,"31":-0.26604053378105164,"32":0.035206038504838943,"33":0.042926449328660965,"34":0.08620245009660721,"35":-0.20302070677280426,"36":-0.15280309319496155,"37":0.4347735643386841,"38":-0.15306469798088074,"39":-0.06795988976955414,"40":0.12151332199573517,"41":-0.0636848658323288,"42":0.5774335861206055,"43":0.3337303400039673,"44":0.49505379796028137,"45":0.09358685463666916,"46":0.08569266647100449,"47":0.3240886926651001,"48":-0.17450681328773499,"49":0.07143736630678177,"50":0.11326514929533005,"51":-0.18431997299194336,"52":-0.037091970443725586,"53":-0.36702150106430054,"54":0.2860690951347351,"55":0.17850396037101746,"56":0.25871458649635315,"57":0.29813775420188904,"58":0.25629720091819763,"59":-0.30404382944107056,"60":0.17030121386051178,"61":0.32890015840530396,"62":-0.11059866845607758,"63":-0.028653033077716827,"64":0.13353006541728973,"65":0.20695586502552032,"66":0.026959294453263283,"67":-0.03646264970302582,"68":0.574646532535553,"69":0.34289395809173584,"70":-0.0963321179151535,"71":-0.09322292357683182,"72":-0.049815334379673004,"73":0.015602119266986847,"74":-0.18038338422775269,"75":0.16525128483772278,"76":-0.12247904390096664,"77":-0.17084531486034393,"78":0.17396339774131775,"79":0.15412989258766174,"80":0.8546531796455383,"81":-0.2438800185918808,"82":0.33589550852775574,"83":-0.7023602724075317,"84":-0.18861202895641327,"85":0.1858508288860321,"86":0.02968754433095455,"87":0.15224872529506683,"88":-0.14097191393375397,"89":0.8131412267684937,"90":-0.44385460019111633,"91":-1.1455814838409424,"92":0.43512892723083496,"93":-1.1391303539276123,"94":-0.45068681240081787,"95":-0.521084725856781,"96":0.11173686385154724,"97":-1.1871304512023926,"98":0.025440139696002007,"99":0.1940862089395523,"100":0.005879019852727652,"101":0.6382666826248169,"102":-1.8013094663619995,"103":-1.9437503814697266,"104":0.9157291650772095,"105":0.8620004057884216,"106":-0.6375160217285156,"107":0.9698377251625061,"108":-0.17449937760829926,"109":-1.323533058166504,"110":-0.07089924067258835,"111":-0.006537886336445808,"112":0.10475167632102966,"113":0.7128803730010986,"114":-1.3075180053710938,"115":-2.1454033851623535,"116":-0.022594820708036423,"117":0.07181701064109802,"118":-0.40074098110198975,"119":0.7765871286392212,"120":0.05523691698908806,"121":-3.4847846031188965,"122":-0.11070505529642105,"123":-0.1663077175617218,"124":-0.11454470455646515,"125":0.9141253232955933,"126":-2.6798861026763916,"127":-5.818920135498047,"128":0.3623499274253845,"129":-3.4732141494750977,"130":0.5246995687484741,"131":-0.18478022515773773,"132":0.09643790125846863,"133":0.39294490218162537,"134":-0.06476961821317673,"135":0.17080248892307281,"136":0.0011201594024896622,"137":3.929802894592285,"138":1.912711262702942,"139":-3.5048937797546387,"140":7.7479963302612305,"141":-0.3717227876186371,"142":2.103731870651245,"143":0.9089170098304749,"144":-0.0338323600590229,"145":-0.30394628643989563,"146":-0.15318705141544342,"147":0.07640192657709122,"148":-0.1872607171535492,"149":-0.02603006921708584,"150":3.91723895072937,"151":-0.8465976119041443,"152":-2.614382028579712,"153":0.7583431601524353,"154":1.562157154083252,"155":-1.3590182065963745,"156":-0.08064112067222595,"157":-1.0594769716262817,"158":-0.12617972493171692,"159":0.07628054171800613,"160":-0.3409045934677124,"161":-0.8496021628379822,"162":4.319813251495361,"163":-0.9976778626441956,"164":1.0700643062591553,"165":-4.111008167266846,"166":2.8596129417419434,"167":1.9224958419799805,"168":0.14074447751045227,"169":0.49549993872642517,"170":0.05868864804506302,"171":-0.056695714592933655,"172":-0.009506428614258766,"173":2.8846733570098877,"174":2.163957118988037,"175":-0.38524329662323,"176":-0.1491401344537735,"177":0.898531436920166,"178":0.383609414100647,"179":-1.6828763484954834,"180":-0.011145082302391529,"181":-2.2231991291046143,"182":-0.0888194665312767,"183":0.06839035451412201,"184":0.05321482941508293,"185":-1.7046705484390259,"186":-0.04019133001565933,"187":-1.3735957145690918,"188":-0.4727512300014496,"189":-0.9221009016036987,"190":1.1791757345199585,"191":-2.2355263233184814,"192":0.10414492338895798,"193":1.1649314165115356,"194":-0.033098846673965454,"195":0.10238664597272873,"196":0.16006502509117126,"197":-0.012699195183813572,"198":1.5071941614151,"199":0.46911779046058655,"200":-0.9650650024414062,"201":-1.7633283138275146,"202":2.892313241958618,"203":1.1362894773483276,"204":-0.06662573665380478,"205":-0.4084894359111786,"206":-0.15264947712421417,"207":0.10158790647983551,"208":0.06401235610246658,"209":-0.8613735437393188,"210":0.04564651846885681,"211":-1.1850786209106445,"212":-1.9572893381118774,"213":0.0941491425037384,"214":-2.3754684925079346,"215":1.9228636026382446,"216":0.11093604564666748,"217":-1.3214383125305176,"218":0.09663981944322586,"219":0.11221896857023239,"220":-0.13029402494430542,"221":-2.9848389625549316,"222":1.51508629322052,"223":-1.9637887477874756,"224":-7.888236045837402,"225":5.720834255218506,"226":1.5558329820632935,"227":-0.6505540609359741,"228":0.040053002536296844,"229":-2.793192148208618,"230":-0.06917966157197952,"231":0.12542259693145752,"232":0.0978740006685257,"233":-2.6247141361236572,"234":0.02233128622174263,"235":-0.27040889859199524,"236":-4.448836803436279,"237":-6.081246852874756,"238":5.513342380523682,"239":1.3626337051391602}},"14":{"bias":-2.5078036785125732,"weights":{"0":0.02920532412827015,"1":0.05759860575199127,"2":0.18616901338100433,"3":0.1015184298157692,"4":0.06501267105340958,"5":0.006318319123238325,"6":-0.15223832428455353,"7":-0.14311611652374268,"8":0.20722785592079163,"9":0.05612729489803314,"10":-0.06295180320739746,"11":-0.1328728199005127,"12":0.06757190823554993,"13":0.17769692838191986,"14":0.02663261629641056,"15":0.0774354413151741,"16":-0.06956563144922256,"17":0.19529584050178528,"18":-0.07478319853544235,"19":0.1430252343416214,"20":0.2763056755065918,"21":-0.12359224259853363,"22":-0.20870284736156464,"23":-0.03585093840956688,"24":-0.1707581877708435,"25":0.13911335170269012,"26":0.04250391945242882,"27":-0.02293785661458969,"28":-0.025099940598011017,"29":0.01550302654504776,"30":-0.10635706037282944,"31":0.012255089357495308,"32":-0.006251485086977482,"33":-0.04838903620839119,"34":-0.13280531764030457,"35":0.022089077159762383,"36":-0.11950480192899704,"37":0.07198525220155716,"38":-0.05453258380293846,"39":0.10699538886547089,"40":-0.08059364557266235,"41":0.15597018599510193,"42":0.01968986913561821,"43":-0.10779283195734024,"44":-0.18864592909812927,"45":-0.1558559089899063,"46":-0.06660130620002747,"47":-0.11156699806451797,"48":0.12594130635261536,"49":-0.4189316928386688,"50":-0.09700675308704376,"51":-0.0968502089381218,"52":0.09709769487380981,"53":-0.3765968680381775,"54":-0.12434413284063339,"55":-0.39275580644607544,"56":0.47597792744636536,"57":0.0021643624641001225,"58":-0.42120814323425293,"59":-0.06623441725969315,"60":0.007578004617244005,"61":-0.5350648164749146,"62":0.08637063950300217,"63":-0.10760911554098129,"64":-0.14043205976486206,"65":-0.05232826992869377,"66":-0.48383888602256775,"67":-0.6272954940795898,"68":0.3360631763935089,"69":0.2945984899997711,"70":-0.22350846230983734,"71":-0.17516952753067017,"72":0.1680491864681244,"73":-1.1870322227478027,"74":0.06038463115692139,"75":-0.0013476775493472815,"76":-0.3033275604248047,"77":0.19489896297454834,"78":-0.5977892279624939,"79":-1.164380669593811,"80":0.04654083400964737,"81":-0.11720073223114014,"82":0.4986766576766968,"83":-0.02018323354423046,"84":-0.16548746824264526,"85":-2.412393808364868,"86":-0.11642880737781525,"87":-0.056454822421073914,"88":0.011504077352583408,"89":-0.8006999492645264,"90":-1.3293581008911133,"91":-2.0623250007629395,"92":1.615632176399231,"93":-0.4702851474285126,"94":-0.13706207275390625,"95":-0.9575502872467041,"96":-0.11889080703258514,"97":0.41708460450172424,"98":0.09325741231441498,"99":-0.17530061304569244,"100":0.005808345507830381,"101":1.9222476482391357,"102":-1.2722175121307373,"103":-2.3742942810058594,"104":1.4832059144973755,"105":-0.8947502970695496,"106":-1.105250358581543,"107":1.215767741203308,"108":0.07562036067247391,"109":0.1627211570739746,"110":0.11327329277992249,"111":-0.09625912457704544,"112":-0.12469684332609177,"113":0.48492932319641113,"114":0.8649616241455078,"115":-0.835338830947876,"116":3.8505678176879883,"117":0.511542558670044,"118":-1.1427000761032104,"119":0.10039664804935455,"120":0.056246317923069,"121":-0.40632450580596924,"122":0.11769085377454758,"123":0.10596415400505066,"124":0.05322756990790367,"125":-0.13913433253765106,"126":0.7105768918991089,"127":-1.4715646505355835,"128":3.8066489696502686,"129":-0.24782398343086243,"130":-0.8435909152030945,"131":-2.0147178173065186,"132":-0.04561338201165199,"133":1.9643349647521973,"134":0.048871882259845734,"135":-0.04317538067698479,"136":-0.1645682156085968,"137":2.1084938049316406,"138":1.7415719032287598,"139":-1.3477433919906616,"140":1.5242663621902466,"141":0.6532917618751526,"142":-0.8865203857421875,"143":-0.8116739988327026,"144":0.17668141424655914,"145":0.982988178730011,"146":0.12746119499206543,"147":0.10537036508321762,"148":0.15419448912143707,"149":0.9945505261421204,"150":0.9388461112976074,"151":-0.42405542731285095,"152":-0.40313076972961426,"153":0.6523849964141846,"154":-1.5402482748031616,"155":0.3190124034881592,"156":0.13598184287548065,"157":0.10204655677080154,"158":-0.030534371733665466,"159":-0.08054656535387039,"160":-0.14775662124156952,"161":-1.460166573524475,"162":0.10176229476928711,"163":-0.9489868879318237,"164":-1.4939796924591064,"165":0.624077558517456,"166":0.832370936870575,"167":-1.224402666091919,"168":-0.03839043900370598,"169":-0.07877000421285629,"170":-0.052787911146879196,"171":0.1167336255311966,"172":-0.10933085530996323,"173":-1.9498451948165894,"174":1.0498825311660767,"175":-0.16188126802444458,"176":-0.35245469212532043,"177":2.1371219158172607,"178":-0.6973152756690979,"179":-0.4729234576225281,"180":-0.17907080054283142,"181":-2.0852909088134766,"182":-0.1895524263381958,"183":-0.1515333354473114,"184":0.11944599449634552,"185":-2.9051177501678467,"186":0.3184441030025482,"187":-0.22686336934566498,"188":-1.0139018297195435,"189":1.517091989517212,"190":-1.746929407119751,"191":-3.0624518394470215,"192":-0.16453136503696442,"193":0.47910070419311523,"194":0.1127246841788292,"195":-0.03263075277209282,"196":-0.052204061299562454,"197":-0.3022385239601135,"198":0.16677676141262054,"199":-1.4011667966842651,"200":1.4253580570220947,"201":0.7655401229858398,"202":-1.7089018821716309,"203":0.11963118612766266,"204":0.08957474678754807,"205":-3.145075559616089,"206":0.1510310024023056,"207":-0.15934595465660095,"208":0.014643063768744469,"209":-3.626579761505127,"210":0.8675365447998047,"211":-0.5801680088043213,"212":2.1591739654541016,"213":-5.516608238220215,"214":0.2209102213382721,"215":1.3124215602874756,"216":-0.0329815149307251,"217":-2.495816230773926,"218":-0.027781248092651367,"219":-0.14835025370121002,"220":-0.16324912011623383,"221":-3.687761068344116,"222":0.9147107601165771,"223":0.24151931703090668,"224":5.613154411315918,"225":-1.1260995864868164,"226":-3.7569103240966797,"227":-8.991701126098633,"228":-0.09216838330030441,"229":-3.1755876541137695,"230":-0.08935883641242981,"231":0.033224090933799744,"232":-0.09527020901441574,"233":2.2203147411346436,"234":-5.216789245605469,"235":-5.603336334228516,"236":8.452688217163086,"237":-1.4931799173355103,"238":5.4581804275512695,"239":1.9604820013046265}},"15":{"bias":0.24107125401496887,"weights":{"0":0.036085985600948334,"1":-0.32598233222961426,"2":-0.0764375552535057,"3":-0.07369250804185867,"4":-0.17789326608181,"5":-0.10721331089735031,"6":0.03137453272938728,"7":-0.03542967513203621,"8":-0.23938550055027008,"9":0.012148059904575348,"10":-0.1688501536846161,"11":-0.17718850076198578,"12":-0.18493981659412384,"13":-0.01521195936948061,"14":-0.08993328362703323,"15":0.07619451731443405,"16":-0.0732443705201149,"17":-0.2571693956851959,"18":0.02472754195332527,"19":0.05185673385858536,"20":-0.04469374567270279,"21":0.1964072734117508,"22":0.12973789870738983,"23":-0.2055654078722,"24":-0.08274653553962708,"25":-0.13631680607795715,"26":0.19331222772598267,"27":-0.028566591441631317,"28":-0.040545374155044556,"29":0.09541933983564377,"30":-0.17272742092609406,"31":-0.11722906678915024,"32":-0.09383255243301392,"33":-0.008576313965022564,"34":-0.18212778866291046,"35":-0.12945447862148285,"36":-0.12500925362110138,"37":-0.2955745756626129,"38":-0.08297785371541977,"39":0.029609844088554382,"40":-0.047493379563093185,"41":-0.22513212263584137,"42":0.03800807520747185,"43":-0.060389913618564606,"44":-0.27485477924346924,"45":-0.09085112810134888,"46":0.04289253428578377,"47":0.05740436539053917,"48":0.07141797244548798,"49":-0.15916883945465088,"50":0.1372251659631729,"51":0.15267761051654816,"52":0.02204824984073639,"53":-0.06757933646440506,"54":-0.15859118103981018,"55":0.12941156327724457,"56":-0.5649963021278381,"57":0.20354942977428436,"58":-0.16574126482009888,"59":-0.2329540252685547,"60":-0.11685524880886078,"61":-1.2257686853408813,"62":-0.039113882929086685,"63":0.036493029445409775,"64":0.14938057959079742,"65":-0.7468376159667969,"66":-0.4754714369773865,"67":-0.08341458439826965,"68":-0.7057432532310486,"69":-0.16806314885616302,"70":-0.4515792429447174,"71":-0.46195197105407715,"72":-0.0018828181782737374,"73":-0.6101496815681458,"74":0.0639236718416214,"75":0.05576261505484581,"76":-0.07737606763839722,"77":-0.9031479358673096,"78":-0.32604876160621643,"79":0.9477632641792297,"80":-2.1593573093414307,"81":-0.3513700067996979,"82":-0.37777385115623474,"83":-0.09292471408843994,"84":0.012868118472397327,"85":0.28500211238861084,"86":-0.14261958003044128,"87":0.17779773473739624,"88":0.1460130363702774,"89":-0.742425799369812,"90":0.32160696387290955,"91":1.8506355285644531,"92":-1.9518227577209473,"93":-0.8339728713035583,"94":-1.0207358598709106,"95":0.11547652631998062,"96":-0.048354621976614,"97":-0.39235547184944153,"98":0.13002914190292358,"99":0.1290384829044342,"100":0.0583735853433609,"101":-0.4053099751472473,"102":-0.1836199164390564,"103":1.7139235734939575,"104":-2.54646372795105,"105":0.1632559448480606,"106":-0.6847731471061707,"107":2.052337169647217,"108":0.013771007768809795,"109":1.1673365831375122,"110":-0.10710408538579941,"111":-0.1292397826910019,"112":0.10207701474428177,"113":1.3817410469055176,"114":-1.917994737625122,"115":1.9246917963027954,"116":-0.5805465579032898,"117":1.1741033792495728,"118":-0.14978203177452087,"119":-0.8848944902420044,"120":0.11744348704814911,"121":0.46769988536834717,"122":-0.19702215492725372,"123":0.044812772423028946,"124":0.18110033869743347,"125":0.9693695902824402,"126":-2.7542622089385986,"127":1.5657589435577393,"128":-1.727468490600586,"129":-1.683529019355774,"130":2.282524824142456,"131":1.5978786945343018,"132":-0.132229745388031,"133":-0.5569791197776794,"134":0.08351839333772659,"135":0.10120426118373871,"136":0.028337450698018074,"137":1.101928472518921,"138":-3.717045545578003,"139":0.5484517812728882,"140":1.6381367444992065,"141":-1.0598838329315186,"142":0.943055272102356,"143":0.6799508929252625,"144":0.17068347334861755,"145":-0.3767974376678467,"146":0.004986094776540995,"147":0.17558526992797852,"148":0.05986059457063675,"149":0.16537578403949738,"150":-5.160122871398926,"151":2.295161724090576,"152":-1.9195528030395508,"153":1.8831382989883423,"154":3.041891574859619,"155":-1.0552712678909302,"156":0.030823539942502975,"157":-2.7940640449523926,"158":-0.06255336850881577,"159":-0.13674268126487732,"160":0.15126043558120728,"161":0.43471118807792664,"162":-1.932207703590393,"163":-0.7723222970962524,"164":1.000217080116272,"165":0.7444550395011902,"166":-1.5302077531814575,"167":1.2617590427398682,"168":0.03737100213766098,"169":-1.9022200107574463,"170":0.12317536771297455,"171":0.1896592229604721,"172":0.18374788761138916,"173":-2.725005626678467,"174":-4.622105121612549,"175":2.4886672496795654,"176":-3.135471820831299,"177":-0.7513390779495239,"178":2.4402801990509033,"179":5.6017746925354,"180":0.07549290359020233,"181":1.1686700582504272,"182":-0.16064293682575226,"183":0.1646144688129425,"184":0.12341241538524628,"185":0.8281663656234741,"186":-6.867687225341797,"187":5.5483784675598145,"188":-2.529650926589966,"189":-0.18277451395988464,"190":1.4301732778549194,"191":-1.511655330657959,"192":0.11523979902267456,"193":-2.096480131149292,"194":0.01284140907227993,"195":0.17365716397762299,"196":0.16945186257362366,"197":-2.320200204849243,"198":0.5772135257720947,"199":0.3594529628753662,"200":1.3456580638885498,