{"sizes":[240,120,1],"layers":[{"0":{},"1":{},"2":{},"3":{},"4":{},"5":{},"6":{},"7":{},"8":{},"9":{},"10":{},"11":{},"12":{},"13":{},"14":{},"15":{},"16":{},"17":{},"18":{},"19":{},"20":{},"21":{},"22":{},"23":{},"24":{},"25":{},"26":{},"27":{},"28":{},"29":{},"30":{},"31":{},"32":{},"33":{},"34":{},"35":{},"36":{},"37":{},"38":{},"39":{},"40":{},"41":{},"42":{},"43":{},"44":{},"45":{},"46":{},"47":{},"48":{},"49":{},"50":{},"51":{},"52":{},"53":{},"54":{},"55":{},"56":{},"57":{},"58":{},"59":{},"60":{},"61":{},"62":{},"63":{},"64":{},"65":{},"66":{},"67":{},"68":{},"69":{},"70":{},"71":{},"72":{},"73":{},"74":{},"75":{},"76":{},"77":{},"78":{},"79":{},"80":{},"81":{},"82":{},"83":{},"84":{},"85":{},"86":{},"87":{},"88":{},"89":{},"90":{},"91":{},"92":{},"93":{},"94":{},"95":{},"96":{},"97":{},"98":{},"99":{},"100":{},"101":{},"102":{},"103":{},"104":{},"105":{},"106":{},"107":{},"108":{},"109":{},"110":{},"111":{},"112":{},"113":{},"114":{},"115":{},"116":{},"117":{},"118":{},"119":{},"120":{},"121":{},"122":{},"123":{},"124":{},"125":{},"126":{},"127":{},"128":{},"129":{},"130":{},"131":{},"132":{},"133":{},"134":{},"135":{},"136":{},"137":{},"138":{},"139":{},"140":{},"141":{},"142":{},"143":{},"144":{},"145":{},"146":{},"147":{},"148":{},"149":{},"150":{},"151":{},"152":{},"153":{},"154":{},"155":{},"156":{},"157":{},"158":{},"159":{},"160":{},"161":{},"162":{},"163":{},"164":{},"165":{},"166":{},"167":{},"168":{},"169":{},"170":{},"171":{},"172":{},"173":{},"174":{},"175":{},"176":{},"177":{},"178":{},"179":{},"180":{},"181":{},"182":{},"183":{},"184":{},"185":{},"186":{},"187":{},"188":{},"189":{},"190":{},"191":{},"192":{},"193":{},"194":{},"195":{},"196":{},"197":{},"198":{},"199":{},"200":{},"201":{},"202":{},"203":{},"204":{},"205":{},"206":{},"207":{},"208":{},"209":{},"210":{},"211":{},"212":{},"213":{},"214":{},"215":{},"216":{},"217":{},"218":{},"219":{},"220":{},"221":{},"222":{},"223":{},"224":{},"225":{},"226":{},"227":{},"228":{},"229":{},"230":{},"231":{},"232":{},"233":{},"234":{},"235":{},"236":{},"237":{},"238":{},"239":{}},{"0":{"bias":0.037847571074962616,"weights":{"0":-0.022860772907733917,"1":-0.17308929562568665,"2":-0.04992016777396202,"3":-0.09177994728088379,"4":0.14807911217212677,"5":-0.10712641477584839,"6":0.0501779206097126,"7":-0.02634601667523384,"8":-0.1627451330423355,"9":0.11507667601108551,"10":-0.10458018630743027,"11":0.17700748145580292,"12":0.11628059297800064,"13":0.01867937296628952,"14":0.011381401680409908,"15":0.020940186455845833,"16":-0.023563029244542122,"17":-0.19271916151046753,"18":0.12882591784000397,"19":0.05881268158555031,"20":-0.10530848056077957,"21":0.136850044131279,"22":-0.12262676656246185,"23":0.07276571542024612,"24":0.025149794295430183,"25":-0.05902640148997307,"26":0.024710144847631454,"27":-0.016157830134034157,"28":-0.07813204079866409,"29":0.14625199139118195,"30":0.03673166036605835,"31":-0.030950743705034256,"32":0.180257648229599,"33":0.19277028739452362,"34":-0.16041122376918793,"35":0.1043495312333107,"36":0.19392576813697815,"37":0.05298703536391258,"38":-0.18890812993049622,"39":-0.03527026250958443,"40":-0.046903181821107864,"41":0.023801123723387718,"42":-0.10030291229486465,"43":-0.1578875184059143,"44":0.05000683292746544,"45":0.19469374418258667,"46":-0.0011503391433507204,"47":-0.04572625458240509,"48":-0.08051799237728119,"49":0.17004574835300446,"50":0.11501477658748627,"51":-0.0008798763155937195,"52":0.0851655974984169,"53":-0.16444769501686096,"54":-0.14361217617988586,"55":-0.10992888361215591,"56":0.0066697741858661175,"57":0.12396766990423203,"58":-0.03132018819451332,"59":-0.018636692315340042,"60":0.11596876382827759,"61":0.07103877514600754,"62":0.12629742920398712,"63":-0.03531245142221451,"64":-0.16810773313045502,"65":0.1388656347990036,"66":0.0007220948464237154,"67":-0.14372868835926056,"68":0.14198550581932068,"69":-0.07799381762742996,"70":0.13073259592056274,"71":0.1567651629447937,"72":0.08022092282772064,"73":0.08370357751846313,"74":0.14588116109371185,"75":0.03629358112812042,"76":-0.018488723784685135,"77":0.1739114671945572,"78":0.10947605967521667,"79":-0.01881481520831585,"80":0.14621774852275848,"81":-0.05224456265568733,"82":-0.14970563352108002,"83":-0.1419534981250763,"84":-0.19188374280929565,"85":-0.1990196853876114,"86":-0.06884538382291794,"87":-0.020003410056233406,"88":0.18205776810646057,"89":0.1732138842344284,"90":0.08439710736274719,"91":-0.06157248094677925,"92":0.11838436126708984,"93":-0.033437132835388184,"94":0.11861242353916168,"95":0.19304107129573822,"96":-0.04945946857333183,"97":0.18700405955314636,"98":0.04086046293377876,"99":-0.002417282434180379,"100":0.08564510941505432,"101":-0.05192190408706665,"102":-0.1960831582546234,"103":0.05800512805581093,"104":0.1808781921863556,"105":-0.018727855756878853,"106":0.045549727976322174,"107":0.17173431813716888,"108":0.19958941638469696,"109":-0.02712530642747879,"110":0.08903087675571442,"111":0.030796153470873833,"112":0.053655438125133514,"113":-0.13566546142101288,"114":-0.03158756345510483,"115":0.029975373297929764,"116":-0.08751913160085678,"117":0.11795822530984879,"118":0.1891617327928543,"119":0.1661880910396576,"120":-0.07441984117031097,"121":0.09812457114458084,"122":0.09777365624904633,"123":-0.1725870668888092,"124":-0.08754587173461914,"125":-0.1187448725104332,"126":-0.08791142702102661,"127":-0.013565805740654469,"128":0.0359652005136013,"129":0.010360389947891235,"130":-0.05657709017395973,"131":0.039582617580890656,"132":0.03994939848780632,"133":0.05168813467025757,"134":-0.026863127946853638,"135":0.18439874053001404,"136":-0.14790847897529602,"137":-0.13273108005523682,"138":-0.015145462937653065,"139":-0.1868439018726349,"140":0.01128660049289465,"141":-0.13218390941619873,"142":-0.19547484815120697,"143":0.1834116280078888,"144":-0.13624849915504456,"145":-0.07428279519081116,"146":0.008949135430157185,"147":0.15812931954860687,"148":0.047825492918491364,"149":-0.14016343653202057,"150":-0.020603694021701813,"151":0.031244147568941116,"152":-0.01528805773705244,"153":0.12529635429382324,"154":-0.13835668563842773,"155":-0.07732591032981873,"156":-0.18462496995925903,"157":0.16766320168972015,"158":-0.15515539050102234,"159":0.11449111253023148,"160":0.10469519346952438,"161":-0.0426950566470623,"162":0.09895752370357513,"163":-0.1933557689189911,"164":0.14182806015014648,"165":-0.03357653319835663,"166":-0.17759855091571808,"167":0.10615110397338867,"168":-0.14800907671451569,"169":0.14634352922439575,"170":-0.029081866145133972,"171":0.14783602952957153,"172":-0.008848479017615318,"173":0.10601327568292618,"174":0.041665416210889816,"175":0.10660623759031296,"176":-0.19920669496059418,"177":-0.0027866384480148554,"178":-0.004439514596015215,"179":-0.056522149592638016,"180":-0.15765877068042755,"181":-0.045070141553878784,"182":0.17427705228328705,"183":-0.04577287286520004,"184":-0.12103346735239029,"185":0.09862422198057175,"186":-0.13697639107704163,"187":0.07726340740919113,"188":-0.017945146188139915,"189":0.18087615072727203,"190":0.13264787197113037,"191":-0.08815474063158035,"192":0.0007667997851967812,"193":0.17725098133087158,"194":0.1359289437532425,"195":0.15169581770896912,"196":0.19798393547534943,"197":0.17513170838356018,"198":-0.014450264163315296,"199":-0.19474512338638306,"200":0.04951939731836319,"201":0.07000080496072769,"202":-0.04915153980255127,"203":-0.1696522831916809,"204":0.055141348391771317,"205":-0.1745050996541977,"206":-0.04640326648950577,"207":0.1241421177983284,"208":0.05710150673985481,"209":-0.1347147673368454,"210":0.17562271654605865,"211":0.06103650480508804,"212":0.12188531458377838,"213":-0.08258756250143051,"214":0.03803418576717377,"215":-0.10337232798337936,"216":0.01952994428575039,"217":0.029175637289881706,"218":0.19307798147201538,"219":0.0799797847867012,"220":0.12253356724977493,"221":-0.20249587297439575,"222":0.08244509249925613,"223":0.03626333177089691,"224":-0.024080684408545494,"225":0.04772596433758736,"226":-0.02672072872519493,"227":-0.11058539152145386,"228":0.12613682448863983,"229":-0.05020244047045708,"230":-0.19533388316631317,"231":0.07228712737560272,"232":-0.13771073520183563,"233":0.05938019976019859,"234":0.18196207284927368,"235":-0.011804253794252872,"236":0.1378425806760788,"237":0.055415961891412735,"238":0.15992020070552826,"239":-0.14829346537590027}},"1":{"bias":-0.20263874530792236,"weights":{"0":-0.04800571873784065,"1":0.19678285717964172,"2":-0.07014621049165726,"3":0.012780293822288513,"4":0.1701533943414688,"5":-0.08145076781511307,"6":0.07712341845035553,"7":-0.008872931823134422,"8":-0.11875927448272705,"9":0.19998660683631897,"10":0.1803477704524994,"11":-0.1867968738079071,"12":-0.0045610228553414345,"13":-0.057928625494241714,"14":0.048465240746736526,"15":0.0398334339261055,"16":0.003097738604992628,"17":-0.005871200002729893,"18":0.04788396507501602,"19":-0.09964018315076828,"20":0.012483486905694008,"21":-0.09278837591409683,"22":0.17773497104644775,"23":0.1003643050789833,"24":-0.07753994315862656,"25":0.17306777834892273,"26":0.094852015376091,"27":0.08366589993238449,"28":0.1343730390071869,"29":-0.03188244625926018,"30":-0.008891290985047817,"31":0.10698848962783813,"32":-0.04264121502637863,"33":0.17829643189907074,"34":0.14926491677761078,"35":-0.002985425526276231,"36":0.061728283762931824,"37":0.039784304797649384,"38":-0.09263212978839874,"39":-0.033705174922943115,"40":-0.09057708084583282,"41":-0.1437651813030243,"42":0.1277095228433609,"43":0.07879040390253067,"44":0.041981734335422516,"45":-0.005022278055548668,"46":-0.16998621821403503,"47":0.1383955329656601,"48":-0.12886488437652588,"49":0.09852973371744156,"50":-0.03401098772883415,"51":0.1718113273382187,"52":0.08364009112119675,"53":0.013799935579299927,"54":-0.02330346219241619,"55":0.06525671482086182,"56":-0.15823334455490112,"57":-0.18521444499492645,"58":-0.09330940246582031,"59":-0.006583412643522024,"60":-0.06155920773744583,"61":-0.03330651670694351,"62":-0.010580746456980705,"63":0.1540791541337967,"64":-0.061525244265794754,"65":0.19754604995250702,"66":-0.18236109614372253,"67":-0.19393901526927948,"68":0.1474282294511795,"69":-0.0020175473764538765,"70":0.07119504362344742,"71":0.050880856812000275,"72":-0.07707918435335159,"73":0.0668596550822258,"74":-0.18807150423526764,"75":-0.03800158202648163,"76":0.11124341189861298,"77":0.17656229436397552,"78":-0.040992267429828644,"79":-0.06991705298423767,"80":0.1332700550556183,"81":0.0971546322107315,"82":-0.10704491287469864,"83":0.1636514961719513,"84":0.1627889722585678,"85":-0.1004885882139206,"86":-0.061499688774347305,"87":0.11417767405509949,"88":0.10122037678956985,"89":0.11206237971782684,"90":0.120301254093647,"91":-0.157706618309021,"92":0.07375382632017136,"93":-0.1507546454668045,"94":0.0757453516125679,"95":-0.15308164060115814,"96":-0.1350637823343277,"97":0.11701831966638565,"98":0.07914213836193085,"99":-0.1759437620639801,"100":0.19948115944862366,"101":0.008733014576137066,"102":-0.017618032172322273,"103":-0.06104400381445885,"104":0.08777446299791336,"105":-0.08824547380208969,"106":-0.13753539323806763,"107":0.16280953586101532,"108":-0.11178391426801682,"109":0.14191322028636932,"110":0.13141733407974243,"111":-0.1619882881641388,"112":0.04610181972384453,"113":-0.009761815890669823,"114":-0.09440040588378906,"115":-0.17256700992584229,"116":-0.005329588428139687,"117":-0.06197270750999451,"118":-0.07394050061702728,"119":0.04349486157298088,"120":0.19162815809249878,"121":0.12645787000656128,"122":0.0369131900370121,"123":-0.06716416031122208,"124":-0.021502260118722916,"125":-0.1033991202712059,"126":0.02249746024608612,"127":-0.15995831787586212,"128":-0.14191780984401703,"129":-0.09134206175804138,"130":-0.13724422454833984,"131":0.07237764447927475,"132":0.1419420838356018,"133":-0.027285564690828323,"134":-0.043229490518569946,"135":0.19166462123394012,"136":-0.026544323191046715,"137":-0.025888212025165558,"138":0.08901404589414597,"139":0.10956434905529022,"140":0.12747763097286224,"141":0.016396934166550636,"142":-0.0036087289918214083,"143":0.11492281407117844,"144":-0.1369679868221283,"145":0.2368214726448059,"146":0.06630820780992508,"147":-0.1438809186220169,"148":0.15171100199222565,"149":0.0407850481569767,"150":0.09789910912513733,"151":0.17765724658966064,"152":-0.1690928339958191,"153":-0.10801275819540024,"154":-0.072144515812397,"155":0.06586695462465286,"156":0.10798027366399765,"157":0.14939036965370178,"158":0.025697439908981323,"159":0.08202233910560608,"160":-0.005157597362995148,"161":-0.20933206379413605,"162":-0.016151685267686844,"163":-0.09928558021783829,"164":0.1865883320569992,"165":-0.17450134456157684,"166":-0.06955944001674652,"167":0.18417398631572723,"168":0.13132399320602417,"169":0.12182223796844482,"170":-0.10935008525848389,"171":-0.10498867928981781,"172":0.09872368723154068,"173":0.13791514933109283,"174":0.08053994178771973,"175":0.07424704730510712,"176":0.02125062420964241,"177":-0.20297661423683167,"178":0.1829252392053604,"179":-0.05305806174874306,"180":-0.036784786731004715,"181":-0.005174493882805109,"182":0.09290481358766556,"183":-0.12862688302993774,"184":-0.0054999301210045815,"185":0.05016006529331207,"186":-0.014591771177947521,"187":0.13533328473567963,"188":-0.14904838800430298,"189":-0.04992275685071945,"190":-0.19174857437610626,"191":0.12378723919391632,"192":-0.10447769612073898,"193":0.2141108512878418,"194":0.09059339761734009,"195":0.006179978139698505,"196":-0.1941797435283661,"197":-0.24665763974189758,"198":0.18932625651359558,"199":0.057128485292196274,"200":0.11416292935609818,"201":0.05867898836731911,"202":-0.12791141867637634,"203":0.023458778858184814,"204":-0.0014215164119377732,"205":-0.045973651111125946,"206":0.17782652378082275,"207":-0.08185054361820221,"208":0.07689560204744339,"209":-0.18235184252262115,"210":-0.11216147989034653,"211":0.024147044867277145,"212":-0.04318002238869667,"213":0.017655713483691216,"214":0.015220141969621181,"215":-0.11395891010761261,"216":0.05267009139060974,"217":0.14090794324874878,"218":0.027897613123059273,"219":0.1825413852930069,"220":0.05099567025899887,"221":-0.06965957581996918,"222":0.18201598525047302,"223":-0.11961624771356583,"224":-0.17519758641719818,"225":0.10224345326423645,"226":0.11802660673856735,"227":-0.11869395524263382,"228":0.1663731336593628,"229":0.15301871299743652,"230":-0.022671164944767952,"231":0.10669483244419098,"232":-0.0775018259882927,"233":-0.15131652355194092,"234":0.03580938279628754,"235":-0.05438051000237465,"236":-0.08922847360372543,"237":-0.07254935801029205,"238":0.10397666692733765,"239":0.17662127315998077}},"2":{"bias":0.16545112431049347,"weights":{"0":-0.1735081672668457,"1":-0.11232300847768784,"2":-0.1732708215713501,"3":-0.0305309034883976,"4":0.16677449643611908,"5":0.17760159075260162,"6":-0.04933096095919609,"7":-0.015016414225101471,"8":0.151045024394989,"9":-0.04864111915230751,"10":0.13373921811580658,"11":0.029096798971295357,"12":-0.010638262145221233,"13":0.15709231793880463,"14":-0.14209389686584473,"15":0.13616426289081573,"16":-0.056454338133335114,"17":-0.05415485426783562,"18":-0.05150936171412468,"19":-0.007659156806766987,"20":-0.07191482931375504,"21":0.08647367358207703,"22":0.06846316158771515,"23":-0.06563110649585724,"24":-0.018693266436457634,"25":-0.05919305980205536,"26":-0.02719089761376381,"27":-0.020316528156399727,"28":-0.11104074865579605,"29":0.04078932851552963,"30":0.06945999711751938,"31":-0.07185802608728409,"32":0.0800090804696083,"33":-0.16776534914970398,"34":0.0892162173986435,"35":-0.07679767161607742,"36":-0.19966129958629608,"37":-0.18555331230163574,"38":-0.08820125460624695,"39":0.02982798032462597,"40":-0.1883496642112732,"41":-0.0678364634513855,"42":0.03173070028424263,"43":0.08895586431026459,"44":0.14279407262802124,"45":-0.1422915905714035,"46":0.1402502804994583,"47":0.049891047179698944,"48":0.11143460124731064,"49":0.13244406878948212,"50":-0.11304992437362671,"51":0.16086913645267487,"52":0.013015990145504475,"53":-0.18719686567783356,"54":0.036172933876514435,"55":0.01955152116715908,"56":0.08737734705209732,"57":-0.17168410122394562,"58":0.14190548658370972,"59":-0.12878625094890594,"60":0.0689113661646843,"61":0.14116421341896057,"62":-0.06001218035817146,"63":-0.05861816927790642,"64":-0.14511743187904358,"65":-0.18216857314109802,"66":0.18392066657543182,"67":0.10146093368530273,"68":0.1879296451807022,"69":-0.04601321369409561,"70":0.15803460776805878,"71":-0.08671697229146957,"72":-0.15721580386161804,"73":0.15944382548332214,"74":-0.1498456746339798,"75":-0.09219330549240112,"76":0.10808027535676956,"77":-0.056901924312114716,"78":-0.10297253727912903,"79":0.16559159755706787,"80":0.1549532413482666,"81":0.03587866201996803,"82":-0.13004299998283386,"83":0.0563177764415741,"84":0.19742557406425476,"85":0.19059264659881592,"86":-0.18274959921836853,"87":0.1877828687429428,"88":-0.09651187062263489,"89":-0.031143246218562126,"90":-0.1027260571718216,"91":-0.10348396748304367,"92":-0.05327792838215828,"93":0.027114279568195343,"94":-0.055610429495573044,"95":-0.19819410145282745,"96":0.03830314055085182,"97":0.17650894820690155,"98":-0.09904297441244125,"99":-0.16289085149765015,"100":0.13958457112312317,"101":-0.02863258868455887,"102":-0.06375911831855774,"103":0.03402726724743843,"104":-0.01577151007950306,"105":0.09998520463705063,"106":0.0600399374961853,"107":0.007975462824106216,"108":0.04696880653500557,"109":0.020887214690446854,"110":-0.028679100796580315,"111":0.1639784276485443,"112":-0.02777419239282608,"113":-0.08585014194250107,"114":0.16978511214256287,"115":0.032999806106090546,"116":0.12775865197181702,"117":0.16608284413814545,"118":-0.12864337861537933,"119":0.08191202580928802,"120":-0.11718231439590454,"121":0.1357068568468094,"122":-0.13960888981819153,"123":-0.17572499811649323,"124":-0.17944537103176117,"125":0.11909887939691544,"126":0.1748376190662384,"127":0.10565807670354843,"128":-0.19461224973201752,"129":-0.10682833939790726,"130":-0.01634095050394535,"131":-0.06387653946876526,"132":-0.08913982659578323,"133":-0.1446378529071808,"134":0.04493626952171326,"135":-0.0599612258374691,"136":0.08696379512548447,"137":0.14629049599170685,"138":0.05296506732702255,"139":0.08354175835847855,"140":-0.14472943544387817,"141":0.016540827229619026,"142":-0.19251567125320435,"143":-0.015227347612380981,"144":-0.17037765681743622,"145":0.07305417209863663,"146":-0.16167981922626495,"147":0.19947947561740875,"148":-0.13184930384159088,"149":0.17910414934158325,"150":-0.10580621659755707,"151":-0.08851883560419083,"152":-0.0540757030248642,"153":0.0656115710735321,"154":-0.06528601050376892,"155":0.0702425092458725,"156":-0.12392907589673996,"157":0.06840634346008301,"158":-0.0347600132226944,"159":0.095284603536129,"160":-0.12556707859039307,"161":-0.1445496678352356,"162":0.03627780079841614,"163":-0.07333488762378693,"164":0.10225261747837067,"165":-0.010947000235319138,"166":0.040977779775857925,"167":-0.13697321712970734,"168":0.09868740290403366,"169":0.11696064472198486,"170":0.1059865728020668,"171":0.00028890714747831225,"172":0.19824956357479095,"173":0.08912765979766846,"174":-0.12712273001670837,"175":0.12637069821357727,"176":0.09721963107585907,"177":0.019151989370584488,"178":0.0007716662948951125,"179":-0.03649471327662468,"180":-0.10324998944997787,"181":0.08542677015066147,"182":0.009921313263475895,"183":0.03648076578974724,"184":-0.15310096740722656,"185":-0.02381300739943981,"186":-0.053735800087451935,"187":0.056751009076833725,"188":-0.004331795498728752,"189":-0.0008080329280346632,"190":-0.1527150571346283,"191":0.03605220094323158,"192":0.1781880110502243,"193":-0.08185168355703354,"194":0.1964445263147354,"195":0.12654832005500793,"196":0.018400708213448524,"197":0.0547122061252594,"198":-0.030308613553643227,"199":-0.20848190784454346,"200":0.06061051785945892,"201":0.015976909548044205,"202":0.15396694839000702,"203":0.15090718865394592,"204":0.13567887246608734,"205":-0.109603650867939,"206":0.10726309567689896,"207":0.15905097126960754,"208":-0.08202844113111496,"209":0.18543942272663116,"210":0.17062659561634064,"211":0.13744640350341797,"212":0.11158367991447449,"213":-0.10474435985088348,"214":0.1618838757276535,"215":-0.004456308204680681,"216":-0.17505361139774323,"217":-0.15618659555912018,"218":-0.13681034743785858,"219":0.020113449543714523,"220":0.09220150113105774,"221":0.06689353287220001,"222":0.10274586081504822,"223":-0.07479282468557358,"224":-0.1765943169593811,"225":-0.0497838631272316,"226":-0.14617200195789337,"227":-0.15024806559085846,"228":0.028532952070236206,"229":0.03901438042521477,"230":0.09697243571281433,"231":0.022136567160487175,"232":0.013188471086323261,"233":0.057394884526729584,"234":0.025362670421600342,"235":-0.17149756848812103,"236":-0.03870062902569771,"237":0.07929060608148575,"238":-0.10020492970943451,"239":0.15795092284679413}},"3":{"bias":0.12901431322097778,"weights":{"0":0.1305350363254547,"1":0.009932022541761398,"2":-0.13256661593914032,"3":-0.1422549933195114,"4":-0.017133019864559174,"5":-0.11932934075593948,"6":-0.15126097202301025,"7":-0.07161715626716614,"8":-0.029082506895065308,"9":0.10256172716617584,"10":0.15493834018707275,"11":0.01673196442425251,"12":-0.04443468153476715,"13":0.14104604721069336,"14":0.04667986184358597,"15":0.07889236509799957,"16":-0.06821044534444809,"17":0.16758407652378082,"18":-0.19985148310661316,"19":-0.11327431350946426,"20":-0.0258841160684824,"21":0.13479603826999664,"22":-0.035886168479919434,"23":-0.05359053984284401,"24":0.16720834374427795,"25":-0.17419281601905823,"26":0.16026178002357483,"27":0.16253772377967834,"28":-0.08372920006513596,"29":0.09793542325496674,"30":-0.03219466283917427,"31":-0.07913866639137268,"32":0.1428336650133133,"33":-0.14720720052719116,"34":-0.06193981319665909,"35":-0.16542670130729675,"36":-0.08306571841239929,"37":0.05452471971511841,"38":0.14404524862766266,"39":0.143801748752594,"40":-0.07658249139785767,"41":0.15698660910129547,"42":-0.15287888050079346,"43":0.0788959264755249,"44":-0.1355346441268921,"45":0.10754481703042984,"46":-0.09422735124826431,"47":0.15957331657409668,"48":0.17183564603328705,"49":0.024166325107216835,"50":-0.1402721107006073,"51":0.04603882133960724,"52":0.07086238265037537,"53":0.011340366676449776,"54":-0.19456645846366882,"55":-0.16184350848197937,"56":-0.053261421620845795,"57":0.06832336634397507,"58":0.05650891736149788,"59":0.019503410905599594,"60":-0.0889299139380455,"61":-0.09298408031463623,"62":0.16445980966091156,"63":0.1398501843214035,"64":-0.01823875866830349,"65":-0.18784625828266144,"66":-0.07162885367870331,"67":-0.13684788346290588,"68":0.1152653619647026,"69":-0.10304507613182068,"70":0.13847105205059052,"71":-0.12146797776222229,"72":-0.07848335057497025,"73":0.025683406740427017,"74":-0.10404868423938751,"75":0.07638120651245117,"76":0.132802352309227,"77":0.03183445334434509,"78":0.06876106560230255,"79":0.011993746273219585,"80":-0.06768228113651276,"81":0.024919437244534492,"82":-0.0300728939473629,"83":-0.08846257627010345,"84":-0.049799561500549316,"85":-0.09154018759727478,"86":-0.1416272073984146,"87":0.040377579629421234,"88":0.05334005504846573,"89":0.1641116589307785,"90":-0.13004110753536224,"91":-0.04965396225452423,"92":-0.044110190123319626,"93":0.015909556299448013,"94":-0.08966296166181564,"95":0.0944281667470932,"96":-0.07325481623411179,"97":0.04604374244809151,"98":0.13563093543052673,"99":-0.05690161511301994,"100":0.129883274435997,"101":-0.06411667168140411,"102":0.07176122069358826,"103":-0.08763959258794785,"104":0.20020487904548645,"105":-0.1401842087507248,"106":0.016846047714352608,"107":0.012337131425738335,"108":0.11784979701042175,"109":0.1866605281829834,"110":0.009172026999294758,"111":0.07142743468284607,"112":-0.1693601757287979,"113":0.13101106882095337,"114":0.016241082921624184,"115":0.13286778330802917,"116":0.16734960675239563,"117":0.13361819088459015,"118":0.10008668899536133,"119":0.04260553792119026,"120":-0.14264756441116333,"121":0.042842406779527664,"122":-0.03506135940551758,"123":-0.08592482656240463,"124":-0.08305279910564423,"125":0.03710874542593956,"126":0.04819725453853607,"127":0.18486890196800232,"128":0.01688004843890667,"129":0.04813437536358833,"130":-0.16131889820098877,"131":-0.18848147988319397,"132":0.0987740159034729,"133":0.09860633313655853,"134":-0.04077727720141411,"135":0.14794252812862396,"136":0.06194441765546799,"137":-0.12960152328014374,"138":-0.023472540080547333,"139":0.21821902692317963,"140":0.04022114723920822,"141":-0.08134725689888,"142":-0.20297794044017792,"143":-0.04511023312807083,"144":0.19523127377033234,"145":-0.10846980661153793,"146":-0.05788694694638252,"147":-0.05225486308336258,"148":0.16187581419944763,"149":-0.0008419714285992086,"150":-0.09380750358104706,"151":-0.10586612671613693,"152":0.031940802931785583,"153":-0.07926308363676071,"154":-0.043271057307720184,"155":0.0632857009768486,"156":0.0933903157711029,"157":-0.03420702740550041,"158":-0.14106181263923645,"159":0.13199780881404877,"160":-0.1740746796131134,"161":0.1502877026796341,"162":-0.14675840735435486,"163":-0.06274507939815521,"164":-0.07504837960004807,"165":0.07628282159566879,"166":0.091804139316082,"167":-0.16007274389266968,"168":0.04825221374630928,"169":0.250840961933136,"170":0.07901813834905624,"171":-0.16800838708877563,"172":0.1693212240934372,"173":-0.20769448578357697,"174":0.12279940396547318,"175":0.12084319442510605,"176":0.060400258749723434,"177":0.07367181032896042,"178":0.04310879111289978,"179":0.0019352277740836143,"180":-0.018726326525211334,"181":0.06028873100876808,"182":0.15175986289978027,"183":0.029637247323989868,"184":-0.09185469895601273,"185":-0.24629785120487213,"186":-0.14851713180541992,"187":-0.008522083051502705,"188":-0.04680172726511955,"189":-0.10149477422237396,"190":-0.020426437258720398,"191":0.18693599104881287,"192":0.17034533619880676,"193":-0.05036819353699684,"194":0.01689578965306282,"195":-0.08054760843515396,"196":-0.12710927426815033,"197":-0.24763822555541992,"198":0.007272712886333466,"199":0.2258765995502472,"200":0.012890232726931572,"201":-0.1921861469745636,"202":0.08165444433689117,"203":0.05788213759660721,"204":-0.1727469116449356,"205":0.25216183066368103,"206":-0.16767188906669617,"207":0.05837294086813927,"208":-0.10989772528409958,"209":-0.06693444401025772,"210":-0.0519576221704483,"211":-0.03685007616877556,"212":-0.18994124233722687,"213":0.13869568705558777,"214":0.020009832456707954,"215":-0.06927462667226791,"216":0.15980277955532074,"217":-0.052690375596284866,"218":0.058254700154066086,"219":0.06224070116877556,"220":-0.05045397952198982,"221":0.0674414336681366,"222":0.1085391715168953,"223":0.24259725213050842,"224":0.10751654207706451,"225":-0.01730387657880783,"226":-0.2008352130651474,"227":-0.12842389941215515,"228":-0.12684059143066406,"229":0.0010281587019562721,"230":0.005362533498555422,"231":-0.010809670202434063,"232":-0.10758351534605026,"233":0.05399705842137337,"234":-0.01739378459751606,"235":-0.10133488476276398,"236":0.19388122856616974,"237":-0.04757656529545784,"238":0.1680159568786621,"239":-0.01494129840284586}},"4":{"bias":0.17994970083236694,"weights":{"0":-0.05486468970775604,"1":-0.01649920456111431,"2":-0.10565419495105743,"3":0.0037502192426472902,"4":0.09948022663593292,"5":0.06322278827428818,"6":-0.10926121473312378,"7":-0.019747041165828705,"8":0.10747592151165009,"9":0.060252025723457336,"10":0.05117734521627426,"11":-0.016273148357868195,"12":0.049880899488925934,"13":0.02948203682899475,"14":0.04680505394935608,"15":-0.03702109307050705,"16":-0.07941105216741562,"17":-0.19680197536945343,"18":-0.16880790889263153,"19":-0.030676821246743202,"20":-0.0788150429725647,"21":0.15945088863372803,"22":0.08858213573694229,"23":-0.12873829901218414,"24":0.16013358533382416,"25":0.1715923696756363,"26":-0.1331740915775299,"27":-0.1934572458267212,"28":-0.16273409128189087,"29":-0.01610065996646881,"30":-0.01138366013765335,"31":-0.11958814412355423,"32":-0.08624789863824844,"33":0.06529838591814041,"34":0.16935373842716217,"35":0.06065717339515686,"36":0.060747284442186356,"37":-0.1066734716296196,"38":-0.16034014523029327,"39":-0.1461527943611145,"40":-0.158002570271492,"41":-0.026538357138633728,"42":0.04526576027274132,"43":0.1667213886976242,"44":0.1492694914340973,"45":-0.021578334271907806,"46":-0.12331569939851761,"47":0.17990262806415558,"48":0.16310013830661774,"49":0.06778576225042343,"50":-0.14844666421413422,"51":0.1791033148765564,"52":0.08310231566429138,"53":-0.14744164049625397,"54":0.0482722744345665,"55":-0.011364685371518135,"56":0.17211295664310455,"57":0.06067071110010147,"58":0.07738777250051498,"59":-0.053923849016427994,"60":0.0046883439645171165,"61":-0.14860661327838898,"62":-0.1346549242734909,"63":0.054230716079473495,"64":0.020312005653977394,"65":-0.0891704261302948,"66":0.030466780066490173,"67":0.014413499273359776,"68":0.048272859305143356,"69":0.0736343264579773,"70":-0.14325273036956787,"71":-0.0768609568476677,"72":-0.08595027029514313,"73":-0.048372652381658554,"74":-0.17895793914794922,"75":-0.11035478860139847,"76":-0.02548898197710514,"77":-0.1471109241247177,"78":0.035841137170791626,"79":0.1981712281703949,"80":0.08662284165620804,"81":0.02594996988773346,"82":0.13018716871738434,"83":0.09956736117601395,"84":0.16074371337890625,"85":0.06383271515369415,"86":-0.042371515184640884,"87":-0.038172800093889236,"88":-0.059670764952898026,"89":-0.1237744614481926,"90":0.16284525394439697,"91":0.022748682647943497,"92":-0.05974499508738518,"93":-0.03867180645465851,"94":-0.03030507266521454,"95":-0.06615681201219559,"96":0.1308242380619049,"97":-0.07163311541080475,"98":-0.14143504202365875,"99":0.052801426500082016,"100":0.11094101518392563,"101":-0.17089137434959412,"102":0.04491031542420387,"103":0.20095452666282654,"104":0.11074139177799225,"105":-0.017643805593252182,"106":0.14245682954788208,"107":-0.026552455499768257,"108":0.05539865791797638,"109":0.18639005720615387,"110":-0.0654447004199028,"111":-0.028222225606441498,"112":0.045215871185064316,"113":-0.062101785093545914,"114":-0.1653631627559662,"115":0.1838604211807251,"116":0.08751391619443893,"117":0.002946165855973959,"118":-0.19432973861694336,"119":0.06852920353412628,"120":-0.05093963444232941,"121":-0.04418732598423958,"122":0.10219468176364899,"123":0.060480747371912,"124":-0.07267558574676514,"125":-0.060637302696704865,"126":0.15552248060703278,"127":0.1241450086236,"128":-0.1654527485370636,"129":0.01683223247528076,"130":-0.040155500173568726,"131":0.00418482068926096,"132":0.13861772418022156,"133":0.049498140811920166,"134":-0.14826051890850067,"135":-0.08848787099123001,"136":0.05821716785430908,"137":0.09341199696063995,"138":0.10299333184957504,"139":0.17652170360088348,"140":-0.05533182621002197,"141":-0.01674814708530903,"142":-0.13709409534931183,"143":-0.06837645918130875,"144":0.14516916871070862,"145":-0.01553361676633358,"146":0.05473565310239792,"147":-0.05570559203624725,"148":0.03672422841191292,"149":0.0635414570569992,"150":-0.17951689660549164,"151":-0.11990845203399658,"152":-0.15993621945381165,"153":-0.004924371838569641,"154":0.03885383903980255,"155":-0.15507067739963531,"156":-0.1326170116662979,"157":-0.001106521114706993,"158":0.15637607872486115,"159":-0.1411151885986328,"160":-0.15908236801624298,"161":0.07816144824028015,"162":0.01793512888252735,"163":0.22205506265163422,"164":-0.05780111625790596,"165":-0.09733808040618896,"166":-0.06600282341241837,"167":-0.11923088878393173,"168":0.19918930530548096,"169":-0.082064688205719,"170":-0.15039817988872528,"171":-0.08756259083747864,"172":0.11721038073301315,"173":-0.11198560148477554,"174":0.038338206708431244,"175":0.15264073014259338,"176":-0.1975167691707611,"177":0.04103656858205795,"178":0.18068985641002655,"179":0.05749009922146797,"180":0.13989467918872833,"181":0.11696011573076248,"182":0.016433347016572952,"183":0.18805532157421112,"184":0.07193578779697418,"185":-0.12078845500946045,"186":0.1468106359243393,"187":0.07744999974966049,"188":0.15343907475471497,"189":-0.07340776175260544,"190":0.06880004703998566,"191":0.14943808317184448,"192":0.004897449631243944,"193":0.08009210973978043,"194":0.15009227395057678,"195":0.1891772598028183,"196":-0.020329870283603668,"197":0.05267417058348656,"198":-0.11750564724206924,"199":-0.06369704753160477,"200":0.174009770154953,"201":-0.12353460490703583,"202":0.14235849678516388,"203":0.1455441564321518,"204":-0.12626701593399048,"205":0.13814949989318848,"206":-0.14870236814022064,"207":-0.06770648062229156,"208":0.1966290920972824,"209":-0.17559127509593964,"210":-0.07314950972795486,"211":0.1724233329296112,"212":0.15055124461650848,"213":-0.17920084297657013,"214":0.04208171367645264,"215":0.04708942398428917,"216":-0.06670868396759033,"217":0.30750012397766113,"218":0.09086436778306961,"219":-0.023347100242972374,"220":-0.17700640857219696,"221":-0.09929682314395905,"222":-0.20430448651313782,"223":-0.0953858271241188,"224":0.18192774057388306,"225":-0.1889915019273758,"226":0.14589956402778625,"227":-0.19598691165447235,"228":-0.1485740691423416,"229":0.2740021347999573,"230":0.029247727245092392,"231":0.009707491844892502,"232":0.13324785232543945,"233":-0.2361249178647995,"234":-0.12222021073102951,"235":0.022170718759298325,"236":-0.11381883919239044,"237":-0.13052363693714142,"238":-0.11388721317052841,"239":0.14913927018642426}},"5":{"bias":0.10809534788131714,"weights":{"0":-0.08168274909257889,"1":0.04636160284280777,"2":0.15484854578971863,"3":0.14167548716068268,"4":0.017829004675149918,"5":0.09151168912649155,"6":0.13673090934753418,"7":-0.11802729964256287,"8":0.02734590508043766,"9":-0.015650814399123192,"10":0.1422099620103836,"11":-0.06554430723190308,"12":0.13122880458831787,"13":0.04042555391788483,"14":0.13871365785598755,"15":-0.12732204794883728,"16":0.053825583308935165,"17":0.19274865090847015,"18":0.15125368535518646,"19":-0.13961859047412872,"20":0.14842239022254944,"21":-0.03292481228709221,"22":-0.06519264727830887,"23":0.035392142832279205,"24":-0.10291294753551483,"25":0.07526541501283646,"26":0.024147434160113335,"27":-0.08223426342010498,"28":0.18896359205245972,"29":-0.06232267990708351,"30":-0.14547093212604523,"31":-0.12920741736888885,"32":-0.19585923850536346,"33":0.18112294375896454,"34":0.04058760032057762,"35":0.14276574552059174,"36":-0.14198340475559235,"37":-0.09511831402778625,"38":0.14837750792503357,"39":-0.025671200826764107,"40":-0.18901993334293365,"41":-0.18300986289978027,"42":0.11992211639881134,"43":-0.06528929620981216,"44":-0.1910955160856247,"45":0.003706654068082571,"46":0.16732479631900787,"47":-0.1947847157716751,"48":-0.1444307267665863,"49":0.021441470831632614,"50":0.16483184695243835,"51":-0.13720181584358215,"52":-0.1321428418159485,"53":-0.11281227320432663,"54":-0.019914396107196808,"55":0.0013653563801199198,"56":0.004929009359329939,"57":-0.025830427184700966,"58":-0.038595132529735565,"59":0.1313323825597763,"60":0.19869573414325714,"61":-0.1795109510421753,"62":-0.14433026313781738,"63":-0.05327099934220314,"64":0.04487573727965355,"65":-0.010857611894607544,"66":0.0779215544462204,"67":-0.17587415874004364,"68":0.15477749705314636,"69":-0.06608916819095612,"70":-0.016346100717782974,"71":0.09126108139753342,"72":-0.13409993052482605,"73":0.06744814664125443,"74":-0.02125564031302929,"75":-0.17204129695892334,"76":0.0635920837521553,"77":-0.1216684877872467,"78":-0.0612550713121891,"79":0.19465236365795135,"80":0.08451619744300842,"81":-0.022012140601873398,"82":0.1668536365032196,"83":-0.00011522488057380542,"84":-0.19705593585968018,"85":-0.136649027466774,"86":-0.18622422218322754,"87":0.11860915273427963,"88":-0.04820576310157776,"89":-0.07101045548915863,"90":-0.15623727440834045,"91":0.05944066494703293,"92":0.13805808126926422,"93":0.11018749326467514,"94":0.08698360621929169,"95":0.021137889474630356,"96":-0.17044466733932495,"97":-0.10267829895019531,"98":-0.1780095100402832,"99":-0.010737646371126175,"100":0.19426366686820984,"101":0.16202017664909363,"102":0.03012506105005741,"103":0.09089712798595428,"104":-0.19851228594779968,"105":-0.10089589655399323,"106":-0.09132789075374603,"107":-0.047400083392858505,"108":0.13458839058876038,"109":0.12005827575922012,"110":-0.08405185490846634,"111":0.1339453011751175,"112":-0.013791801407933235,"113":-0.13709963858127594,"114":0.006731646601110697,"115":-0.1298375427722931,"116":-0.04520217701792717,"117":0.15109963715076447,"118":-0.1831968128681183,"119":-0.032711055129766464,"120":-0.006110323593020439,"121":-0.17877154052257538,"122":-0.10270071029663086,"123":-0.14251185953617096,"124":0.12557457387447357,"125":-0.19218118488788605,"126":-0.05413269251585007,"127":0.11985799670219421,"128":-0.07579315453767776,"129":-0.05183468014001846,"130":-0.19619283080101013,"131":-0.06293747574090958,"132":0.04713635519146919,"133":0.06372664123773575,"134":0.0302643533796072,"135":-0.18543227016925812,"136":-0.18435269594192505,"137":0.07151471823453903,"138":-0.025401735678315163,"139":0.18638812005519867,"140":-0.06204604730010033,"141":-0.10844969004392624,"142":-0.15113569796085358,"143":0.029950715601444244,"144":0.04095107316970825,"145":-0.09772665798664093,"146":-0.0936761423945427,"147":-0.16689971089363098,"148":-0.14594705402851105,"149":0.08197154104709625,"150":-0.013964452780783176,"151":0.06435107439756393,"152":0.14642459154129028,"153":-0.09680122882127762,"154":0.03928714990615845,"155":0.03028680942952633,"156":-0.02141263335943222,"157":-0.06032489240169525,"158":-0.05517413094639778,"159":0.12176932394504547,"160":0.13940760493278503,"161":-0.09274414926767349,"162":-0.1066397875547409,"163":0.020032454282045364,"164":-0.16803321242332458,"165":-0.18234336376190186,"166":0.20097200572490692,"167":-0.09986744076013565,"168":0.00002228074663435109,"169":0.054871171712875366,"170":-0.1400764435529709,"171":0.00042137657874263823,"172":-0.13208864629268646,"173":0.19017048180103302,"174":-0.07983279228210449,"175":-0.1304362714290619,"176":-0.0362129770219326,"177":0.08312874287366867,"178":-0.1800439953804016,"179":-0.08553916960954666,"180":-0.0839754119515419,"181":-0.143897145986557,"182":0.14521846175193787,"183":0.18800660967826843,"184":0.12724746763706207,"185":0.11779464781284332,"186":0.016299394890666008,"187":0.05928124487400055,"188":-0.1367524415254593,"189":-0.13883328437805176,"190":0.01033590268343687,"191":-0.1027984544634819,"192":0.15110117197036743,"193":-0.2130885273218155,"194":-0.16802866756916046,"195":-0.011580729857087135,"196":-0.17021897435188293,"197":0.10486458986997604,"198":-0.18842168152332306,"199":-0.1285308450460434,"200":0.11138927191495895,"201":0.1551600843667984,"202":0.13361197710037231,"203":0.04421248659491539,"204":-0.02824622020125389,"205":0.07433506101369858,"206":0.10469628870487213,"207":0.14582987129688263,"208":0.17567341029644012,"209":-0.053955454379320145,"210":0.1597520112991333,"211":-0.1137697771191597,"212":-0.05386143922805786,"213":-0.19439178705215454,"214":-0.20307357609272003,"215":0.15140768885612488,"216":-0.08352876454591751,"217":0.01508348062634468,"218":0.046939413994550705,"219":-0.07930203527212143,"220":0.08981199562549591,"221":-0.025885995477437973,"222":0.09752042591571808,"223":-0.16665947437286377,"224":0.16192330420017242,"225":-0.006239722948521376,"226":0.052343033254146576,"227":-0.18319818377494812,"228":-0.0990142747759819,"229":-0.10475542396306992,"230":-0.04846719652414322,"231":0.16499219834804535,"232":-0.04803861305117607,"233":-0.12361409515142441,"234":0.026463011279702187,"235":-0.12022928893566132,"236":0.011235104873776436,"237":-0.042915407568216324,"238":0.20628920197486877,"239":-0.07230342924594879}},"6":{"bias":0.10797778517007828,"weights":{"0":0.17693780362606049,"1":-0.021792646497488022,"2":0.18058229982852936,"3":0.03625950217247009,"4":0.0596187599003315,"5":-0.11864292621612549,"6":0.06759930402040482,"7":-0.11298137903213501,"8":-0.0902571976184845,"9":-0.12500055134296417,"10":-0.09479397535324097,"11":-0.026746919378638268,"12":0.1034894809126854,"13":0.023619620129466057,"14":0.09511366486549377,"15":-0.18183556199073792,"16":0.08714936673641205,"17":0.17422911524772644,"18":-0.002703455975279212,"19":-0.058665528893470764,"20":0.04136290401220322,"21":0.1854754239320755,"22":0.1490270048379898,"23":-0.1692674607038498,"24":0.19570466876029968,"25":0.03857564553618431,"26":0.12967391312122345,"27":0.1726331263780594,"28":0.02800547517836094,"29":0.1339760720729828,"30":0.1580321192741394,"31":-0.0954301655292511,"32":-0.18835671246051788,"33":0.07366082072257996,"34":0.1252754032611847,"35":0.15890221297740936,"36":-0.042833246290683746,"37":0.18993867933750153,"38":-0.11416201293468475,"39":-0.11315923184156418,"40":-0.0806511715054512,"41":0.07312988489866257,"42":0.05894220992922783,"43":0.179271399974823,"44":-0.17769306898117065,"45":0.0064038969576358795,"46":0.1954362690448761,"47":-0.1267964243888855,"48":-0.1728867143392563,"49":0.17396816611289978,"50":0.16071997582912445,"51":-0.12371307611465454,"52":-0.08171339333057404,"53":-0.09016089141368866,"54":-0.19276562333106995,"55":0.05399125814437866,"56":0.11888575553894043,"57":0.10839592665433884,"58":0.03470147028565407,"59":-0.1310465931892395,"60":-0.06476179510354996,"61":0.03757210075855255,"62":-0.12589140236377716,"63":0.04730692505836487,"64":-0.0024243025109171867,"65":-0.07442481815814972,"66":0.19471468031406403,"67":0.13524366915225983,"68":-0.11007130891084671,"69":-0.09345268458127975,"70":0.0708671361207962,"71":0.03195219486951828,"72":-0.05774857848882675,"73":0.005046676378697157,"74":0.013575536198914051,"75":-0.026013920083642006,"76":0.04185907542705536,"77":-0.18158391118049622,"78":0.04421351104974747,"79":-0.16613085567951202,"80":-0.0740755945444107,"81":0.06021680310368538,"82":0.00794603955000639,"83":0.1404559314250946,"84":-0.040033094584941864,"85":0.08383692800998688,"86":-0.14882440865039825,"87":-0.03091568872332573,"88":0.1729036420583725,"89":-0.16591276228427887,"90":0.1506434679031372,"91":-0.10449015349149704,"92":0.17685796320438385,"93":-0.14194239675998688,"94":0.17435166239738464,"95":-0.07018966227769852,"96":-0.11597242951393127,"97":-0.13025279343128204,"98":0.09730347990989685,"99":0.027297211810946465,"100":-0.03164904937148094,"101":-0.154028981924057,"102":0.11047661304473877,"103":-0.015416532754898071,"104":0.16569820046424866,"105":0.16678254306316376,"106":0.145597904920578,"107":0.04568174108862877,"108":0.16474485397338867,"109":-0.15537942945957184,"110":-0.18769370019435883,"111":0.03076516091823578,"112":-0.08955492079257965,"113":-0.13481150567531586,"114":-0.07794522494077682,"115":-0.050653595477342606,"116":-0.04382433742284775,"117":0.11417672038078308,"118":-0.047833628952503204,"119":-0.03360649570822716,"120":-0.06254750490188599,"121":-0.18984530866146088,"122":-0.17338940501213074,"123":0.08270031958818436,"124":0.008413785137236118,"125":0.09754854440689087,"126":-0.02299320138990879,"127":-0.20356833934783936,"128":-0.060457754880189896,"129":0.15252579748630524,"130":-0.090081587433815,"131":-0.005329139996320009,"132":0.14356930553913116,"133":0.18043994903564453,"134":-0.025785891339182854,"135":0.10364030301570892,"136":0.15003560483455658,"137":-0.11582832038402557,"138":0.17108690738677979,"139":-0.13237972557544708,"140":-0.1287570297718048,"141":0.17257829010486603,"142":-0.0027353542391210794,"143":-0.06082608178257942,"144":0.0024234598968178034,"145":0.1477351188659668,"146":0.17551162838935852,"147":0.15436996519565582,"148":0.11454125493764877,"149":0.06046376749873161,"150":-0.11158909648656845,"151":0.00017990720516536385,"152":0.09500296413898468,"153":-0.1592421531677246,"154":0.005330701358616352,"155":-0.13460001349449158,"156":0.12079218775033951,"157":-0.0013295919634401798,"158":0.17261067032814026,"159":0.02041739411652088,"160":0.13828228414058685,"161":-0.09977622330188751,"162":0.1564614474773407,"163":-0.2034190446138382,"164":0.14703208208084106,"165":0.04809020459651947,"166":0.19811883568763733,"167":-0.17225508391857147,"168":0.11804795265197754,"169":0.03410312533378601,"170":-0.018375560641288757,"171":-0.09386422485113144,"172":0.18247143924236298,"173":0.20788200199604034,"174":0.17392274737358093,"175":-0.014729894697666168,"176":0.10103414207696915,"177":-0.056059837341308594,"178":0.00417946046218276,"179":-0.06675992161035538,"180":-0.011285320855677128,"181":0.025669081136584282,"182":-0.021267356351017952,"183":-0.07334059476852417,"184":0.03657642379403114,"185":0.14929349720478058,"186":-0.17847377061843872,"187":-0.06736347079277039,"188":-0.118252694606781,"189":0.08745013922452927,"190":0.03493864834308624,"191":0.111469566822052,"192":-0.15056124329566956,"193":-0.1868056356906891,"194":0.1603732407093048,"195":-0.06670807301998138,"196":0.02397390455007553,"197":0.050914742052555084,"198":0.1396373212337494,"199":-0.19172537326812744,"200":0.003395203035324812,"201":0.07005304843187332,"202":0.13291648030281067,"203":0.007245719898492098,"204":0.09596972912549973,"205":0.03548113629221916,"206":0.11148656904697418,"207":0.031401798129081726,"208":0.09180206805467606,"209":0.18559899926185608,"210":0.010468543507158756,"211":-0.014920225366950035,"212":0.19197560846805573,"213":-0.10071224719285965,"214":-0.01077812910079956,"215":0.03396804258227348,"216":0.15236245095729828,"217":-0.07751685380935669,"218":-0.0067809526808559895,"219":-0.03405849635601044,"220":0.15900573134422302,"221":0.1289512813091278,"222":0.10250169038772583,"223":0.13576287031173706,"224":-0.10546667873859406,"225":0.140741765499115,"226":-0.03391915187239647,"227":0.017990021035075188,"228":0.1596149057149887,"229":-0.18198762834072113,"230":-0.06350884586572647,"231":0.09482605010271072,"232":-0.10237494856119156,"233":0.160371795296669,"234":0.14610746502876282,"235":0.09352333098649979,"236":0.12323011457920074,"237":-0.11453304439783096,"238":0.07686584442853928,"239":0.16022510826587677}},"7":{"bias":-0.16500452160835266,"weights":{"0":0.07174132019281387,"1":0.09160055965185165,"2":-0.04202841967344284,"3":-0.18135768175125122,"4":-0.02767053432762623,"5":-0.04943463206291199,"6":-0.16251373291015625,"7":-0.09914911538362503,"8":-0.005609694868326187,"9":0.003997694235295057,"10":-0.043111056089401245,"11":-0.12431648373603821,"12":0.02043822780251503,"13":-0.037425413727760315,"14":-0.14423136413097382,"15":0.1501167118549347,"16":-0.19050560891628265,"17":0.15609604120254517,"18":0.18482884764671326,"19":-0.08726385980844498,"20":-0.11633488535881042,"21":-0.09030371904373169,"22":0.0010003149509429932,"23":0.18629147112369537,"24":-0.04777955263853073,"25":0.104547418653965,"26":-0.11372491717338562,"27":-0.08679132908582687,"28":0.0997348204255104,"29":0.010321312583982944,"30":0.03764523193240166,"31":0.1517486423254013,"32":0.11785801500082016,"33":0.16124887764453888,"34":-0.09972787648439407,"35":-0.14062435925006866,"36":0.013184744864702225,"37":0.1821143478155136,"38":0.07494348287582397,"39":-0.15200775861740112,"40":0.058828551322221756,"41":-0.17489831149578094,"42":0.08855399489402771,"43":-0.027761993929743767,"44":-0.0862332209944725,"45":0.037069354206323624,"46":-0.141025573015213,"47":-0.0189686082303524,"48":-0.0847841277718544,"49":-0.17757031321525574,"50":-0.05208355560898781,"51":0.19101005792617798,"52":0.11995577067136765,"53":0.04454609006643295,"54":-0.07384087145328522,"55":-0.17276673018932343,"56":0.04668167978525162,"57":0.0968492329120636,"58":0.021649599075317383,"59":-0.06373477727174759,"60":-0.0086961779743433,"61":0.1468137949705124,"62":0.1295580118894577,"63":-0.19525757431983948,"64":-0.09245119988918304,"65":-0.1593211591243744,"66":-0.0555078350007534,"67":-0.0686594769358635,"68":0.1480262726545334,"69":0.17493149638175964,"70":0.12585175037384033,"71":-0.06340811401605606,"72":0.0760052502155304,"73":-0.16911128163337708,"74":-0.09694718569517136,"75":0.19522017240524292,"76":-0.13888956606388092,"77":0.1666407287120819,"78":-0.09840291738510132,"79":-0.05269618704915047,"80":-0.17999061942100525,"81":-0.027322307229042053,"82":-0.09957075864076614,"83":0.08451715111732483,"84":0.14643515646457672,"85":0.17711925506591797,"86":0.08619104325771332,"87":-0.18833526968955994,"88":-0.023959213867783546,"89":0.10514602065086365,"90":0.14418616890907288,"91":0.16632843017578125,"92":0.17211972177028656,"93":-0.13737744092941284,"94":-0.02149323746562004,"95":0.08190645277500153,"96":-0.17634931206703186,"97":-0.004799309186637402,"98":-0.14570683240890503,"99":-0.01729159615933895,"100":-0.050374411046504974,"101":0.05390377715229988,"102":-0.06656107306480408,"103":0.17304806411266327,"104":0.05526556819677353,"105":-0.10753259062767029,"106":0.11259854584932327,"107":0.04456852003931999,"108":-0.19843868911266327,"109":0.04901616647839546,"110":0.027673140168190002,"111":-0.09625284373760223,"112":0.1043768897652626,"113":0.06807360053062439,"114":0.02936742827296257,"115":-0.18552729487419128,"116":0.011473366059362888,"117":0.10707602649927139,"118":0.06412235647439957,"119":0.08477216958999634,"120":-0.016843073070049286,"121":-0.1026410311460495,"122":-0.06873805820941925,"123":0.08927618712186813,"124":0.0014391724253073335,"125":0.01814700849354267,"126":-0.0012563880300149322,"127":0.15710453689098358,"128":0.06967952102422714,"129":0.0370405912399292,"130":-0.09003319591283798,"131":-0.17095759510993958,"132":0.04568883404135704,"133":-0.14955183863639832,"134":0.1807454377412796,"135":0.08269277215003967,"136":0.19712616503238678,"137":-0.18211805820465088,"138":0.059408437460660934,"139":0.07843661308288574,"140":0.10010849684476852,"141":-0.1761476844549179,"142":0.0024775471538305283,"143":-0.163756862282753,"144":0.07711229473352432,"145":0.02725447714328766,"146":-0.01881849579513073,"147":0.032183535397052765,"148":0.09244219958782196,"149":-0.06976451724767685,"150":-0.09701046347618103,"151":0.040430258959531784,"152":-0.17692270874977112,"153":0.1410405933856964,"154":-0.08990640938282013,"155":-0.17231756448745728,"156":0.018016325309872627,"157":0.14092178642749786,"158":0.09543745219707489,"159":-0.09458306431770325,"160":0.07991296052932739,"161":0.15243306756019592,"162":0.1109841987490654,"163":-0.18114106357097626,"164":0.03523435443639755,"165":0.008040563203394413,"166":-0.1519138067960739,"167":-0.1168709322810173,"168":0.06076715514063835,"169":0.10110527276992798,"170":0.09154694527387619,"171":-0.01153488364070654,"172":0.10173554718494415,"173":0.18535974621772766,"174":-0.016547122970223427,"175":-0.03295021876692772,"176":0.17491915822029114,"177":0.06454251706600189,"178":-0.09776131808757782,"179":-0.023869667202234268,"180":-0.13456210494041443,"181":0.06246126443147659,"182":0.19323070347309113,"183":0.002789674326777458,"184":0.12122472375631332,"185":0.007328380364924669,"186":-0.09122499823570251,"187":0.08949011564254761,"188":-0.08121789991855621,"189":0.12998607754707336,"190":0.1650143265724182,"191":0.15348471701145172,"192":0.10359178483486176,"193":0.07725705206394196,"194":-0.027201572433114052,"195":-0.07918073236942291,"196":0.08212728798389435,"197":0.171056866645813,"198":-0.08217202872037888,"199":-0.007695631589740515,"200":0.16881564259529114,"201":-0.0392804890871048,"202":0.19121964275836945,"203":-0.14571474492549896,"204":-0.03101581335067749,"205":0.06948453187942505,"206":-0.17185917496681213,"207":0.13550055027008057,"208":-0.13253042101860046,"209":0.14529535174369812,"210":-0.031731169670820236,"211":-0.1961190551519394,"212":-0.10032885521650314,"213":0.04427791386842728,"214":-0.06141022965312004,"215":-0.07341665774583817,"216":0.05541614070534706,"217":-0.05388651415705681,"218":0.141493558883667,"219":-0.08648274093866348,"220":0.09644034504890442,"221":-0.14462418854236603,"222":-0.12269885092973709,"223":-0.13113607466220856,"224":0.0035223166923969984,"225":0.07329035550355911,"226":0.11355383694171906,"227":0.042366791516542435,"228":0.14468631148338318,"229":-0.03999427706003189,"230":-0.06634267419576645,"231":0.1944090873003006,"232":0.08509887754917145,"233":0.10907900333404541,"234":-0.0304932352155447,"235":-0.1272454410791397,"236":0.15538930892944336,"237":-0.17237399518489838,"238":-0.028303900733590126,"239":0.028325116261839867}},"8":{"bias":0.005843774881213903,"weights":{"0":0.04055974259972572,"1":0.0953773558139801,"2":-0.12591663002967834,"3":-0.1150478944182396,"4":-0.07611078023910522,"5":-0.12311623245477676,"6":0.1275498867034912,"7":0.15286889672279358,"8":-0.0946744903922081,"9":0.19020773470401764,"10":0.04750203713774681,"11":0.032376978546381,"12":0.06366837024688721,"13":0.08514809608459473,"14":-0.13344503939151764,"15":-0.17132781445980072,"16":-0.16512629389762878,"17":0.1509861946105957,"18":-0.19480589032173157,"19":-0.040631167590618134,"20":-0.06809450685977936,"21":0.14775341749191284,"22":-0.0843861997127533,"23":-0.1000351831316948,"24":-0.03974312171339989,"25":-0.05886917933821678,"26":-0.020695233717560768,"27":-0.1447329968214035,"28":-0.09189014136791229,"29":-0.1999223530292511,"30":0.18166489899158478,"31":0.02864362671971321,"32":-0.1117565929889679,"33":-0.007414858788251877,"34":-0.037861306220293045,"35":0.12870098650455475,"36":-0.07088642567396164,"37":-0.03783060237765312,"38":-0.1514803171157837,"39":-0.11348617076873779,"40":-0.16138558089733124,"41":-0.172805517911911,"42":0.13452193140983582,"43":-0.13771499693393707,"44":-0.015386288985610008,"45":0.14050862193107605,"46":0.10107459127902985,"47":0.14942754805088043,"48":-0.11361298710107803,"49":0.12875346839427948,"50":0.023738274350762367,"51":-0.14107471704483032,"52":-0.10919307917356491,"53":0.13673530519008636,"54":-0.16508015990257263,"55":0.14866621792316437,"56":0.18031546473503113,"57":0.19206595420837402,"58":-0.058439891785383224,"59":0.16663752496242523,"60":0.08359437435865402,"61":-0.08289596438407898,"62":-0.10697409510612488,"63":-0.13780386745929718,"64":-0.11927741020917892,"65":0.17420770227909088,"66":-0.17078882455825806,"67":-0.18531091511249542,"68":-0.09757953882217407,"69":0.17221276462078094,"70":-0.11385869234800339,"71":-0.1249515563249588,"72":0.17286443710327148,"73":-0.11035224795341492,"74":0.03564003109931946,"75":-0.13910356163978577,"76":-0.07141686975955963,"77":0.15960681438446045,"78":0.11313968896865845,"79":-0.07990891486406326,"80":-0.12589803338050842,"81":0.1272749900817871,"82":0.11225287616252899,"83":0.13311834633350372,"84":-0.11547593772411346,"85":0.11331057548522949,"86":0.1939598023891449,"87":-0.05314060300588608,"88":-0.07105012983083725,"89":-0.1252169907093048,"90":-0.05241399258375168,"91":-0.12525758147239685,"92":0.010454613715410233,"93":-0.13656464219093323,"94":0.19446982443332672,"95":-0.06725987046957016,"96":-0.043420203030109406,"97":0.12254030257463455,"98":0.19720089435577393,"99":-0.03482099622488022,"100":-0.19186946749687195,"101":0.18506261706352234,"102":-0.0773150697350502,"103":0.1502399444580078,"104":0.08501385897397995,"105":-0.14821718633174896,"106":-0.12827923893928528,"107":-0.07120474427938461,"108":-0.1654597371816635,"109":-0.13456960022449493,"110":-0.0621875636279583,"111":-0.07332300394773483,"112":0.04586699977517128,"113":-0.05824334919452667,"114":-0.1712678074836731,"115":-0.17967019975185394,"116":-0.18298551440238953,"117":-0.11022505909204483,"118":0.15934720635414124,"119":-0.03380780294537544,"120":-0.010224857367575169,"121":-0.13028891384601593,"122":-0.024990497156977654,"123":0.06998956203460693,"124":0.06469359248876572,"125":-0.1621793657541275,"126":-0.18314363062381744,"127":0.1772119700908661,"128":-0.0860137864947319,"129":-0.004194825887680054,"130":-0.06008570268750191,"131":-0.048080433160066605,"132":0.16782104969024658,"133":-0.07921283692121506,"134":-0.09704103320837021,"135":0.1267147660255432,"136":0.03879914805293083,"137":-0.10010378062725067,"138":-0.0736628994345665,"139":-0.1922808736562729,"140":-0.14414075016975403,"141":0.15470723807811737,"142":-0.18056635558605194,"143":0.047933127731084824,"144":-0.12014340609312057,"145":0.026229597628116608,"146":-0.19914977252483368,"147":-0.19993537664413452,"148":0.08260680735111237,"149":0.10633194446563721,"150":-0.0040833293460309505,"151":0.09714952856302261,"152":0.15341190993785858,"153":-0.035518303513526917,"154":0.1011129692196846,"155":-0.1752469688653946,"156":-0.032057009637355804,"157":-0.05058208480477333,"158":-0.13297191262245178,"159":0.1128183975815773,"160":0.13880909979343414,"161":-0.13950349390506744,"162":-0.00583555968478322,"163":-0.21037980914115906,"164":0.1119946613907814,"165":0.10043749958276749,"166":-0.028421109542250633,"167":0.08924625813961029,"168":-0.04736318439245224,"169":-0.007395430468022823,"170":-0.1096830889582634,"171":0.10809805989265442,"172":-0.14188110828399658,"173":-0.10526668280363083,"174":0.033950261771678925,"175":-0.0034944626968353987,"176":0.01405500341206789,"177":0.17208339273929596,"178":0.0700620487332344,"179":-0.03527975082397461,"180":0.04289589449763298,"181":0.01536960806697607,"182":0.06255482137203217,"183":0.09562870115041733,"184":-0.180720716714859,"185":0.22175471484661102,"186":-0.06086266040802002,"187":-0.22291643917560577,"188":-0.023301465436816216,"189":0.17761224508285522,"190":0.01122601144015789,"191":0.02634490840137005,"192":0.036011580377817154,"193":0.012526602484285831,"194":-0.19689412415027618,"195":-0.02651272341609001,"196":0.07127732038497925,"197":-0.05988330394029617,"198":0.0743848904967308,"199":-0.15029604732990265,"200":-0.13518476486206055,"201":-0.05554022639989853,"202":0.06539549678564072,"203":-0.006929369177669287,"204":-0.17140504717826843,"205":-0.09512802213430405,"206":-0.11417394131422043,"207":0.04608692228794098,"208":0.08535195142030716,"209":0.104529470205307,"210":-0.043322157114744186,"211":0.11359208822250366,"212":0.04689570516347885,"213":-0.0527457557618618,"214":0.1383456438779831,"215":0.08141457289457321,"216":-0.1198987141251564,"217":-0.15462471544742584,"218":-0.047910016030073166,"219":-0.14375534653663635,"220":0.13909660279750824,"221":0.16104499995708466,"222":-0.1038823053240776,"223":-0.16001015901565552,"224":-0.16972608864307404,"225":0.1252254992723465,"226":0.18900257349014282,"227":0.05556489899754524,"228":0.0566566027700901,"229":0.018677029758691788,"230":0.12109807133674622,"231":0.08644098788499832,"232":0.005288867279887199,"233":0.09967012703418732,"234":0.056139297783374786,"235":0.10444877296686172,"236":0.10318540781736374,"237":-0.1654479205608368,"238":-0.1326800286769867,"239":-0.07118786871433258}},"9":{"bias":-0.0768805593252182,"weights":{"0":0.09282925724983215,"1":0.12680739164352417,"2":0.009198924526572227,"3":0.11751479655504227,"4":-0.028755372390151024,"5":0.08279988914728165,"6":-0.08649363368749619,"7":0.15059684216976166,"8":0.09133654087781906,"9":0.12467838078737259,"10":0.004937192425131798,"11":0.002864206675440073,"12":0.07938128709793091,"13":0.09406565129756927,"14":0.13395756483078003,"15":0.10246442258358002,"16":-0.04155700281262398,"17":0.1756616085767746,"18":-0.11208444088697433,"19":0.07006309926509857,"20":-0.11580975353717804,"21":0.08128427714109421,"22":0.0558127835392952,"23":0.18645110726356506,"24":0.07680675387382507,"25":0.0963401198387146,"26":-0.07024015486240387,"27":-0.051051102578639984,"28":0.16913852095603943,"29":-0.10420845448970795,"30":-0.1769697368144989,"31":0.09092944860458374,"32":0.08672084659337997,"33":0.1431989073753357,"34":0.12291258573532104,"35":0.09454426169395447,"36":-0.13578595221042633,"37":0.14095403254032135,"38":0.04253333806991577,"39":0.01648290827870369,"40":0.11199851334095001,"41":0.1998625248670578,"42":-0.13788717985153198,"43":-0.03475891798734665,"44":-0.19119897484779358,"45":0.14657539129257202,"46":0.12366022169589996,"47":0.038767892867326736,"48":-0.029753511771559715,"49":-0.027809983119368553,"50":-0.03186868131160736,"51":0.010050890035927296,"52":-0.038037076592445374,"53":-0.04163872450590134,"54":0.09535697102546692,"55":0.14900794625282288,"56":-0.1820221245288849,"57":0.06745240837335587,"58":0.005354742985218763,"59":0.12545175850391388,"60":-0.18501749634742737,"61":0.1640104055404663,"62":-0.04667622968554497,"63":0.1312793493270874,"64":-0.03901677206158638,"65":0.014312317594885826,"66":-0.09680958092212677,"67":-0.03157026693224907,"68":0.1629236787557602,"69":0.16279733180999756,"70":-0.1650625318288803,"71":-0.16300304234027863,"72":0.025041935965418816,"73":-0.13955086469650269,"74":-0.03720854967832565,"75":0.034887704998254776,"76":-0.13055148720741272,"77":0.0648358166217804,"78":-0.19027185440063477,"79":-0.11894427239894867,"80":-0.1619197130203247,"81":-0.11800434440374374,"82":0.18962639570236206,"83":0.010980014689266682,"84":-0.008050492033362389,"85":0.10663202404975891,"86":0.13133642077445984,"87":0.15073294937610626,"88":0.02378561533987522,"89":-0.1875804364681244,"90":-0.05274949222803116,"91":0.18704618513584137,"92":-0.14425915479660034,"93":-0.0633634552359581,"94":-0.14605140686035156,"95":-0.18698041141033173,"96":-0.14016419649124146,"97":-0.03326398506760597,"98":0.14828942716121674,"99":0.08409682661294937,"100":-0.1602293848991394,"101":0.1696782261133194,"102":-0.11137955635786057,"103":-0.16065621376037598,"104":0.052074186503887177,"105":-0.13460931181907654,"106":-0.1803174614906311,"107":-0.09612780064344406,"108":0.06433265656232834,"109":0.10197487473487854,"110":0.10284329950809479,"111":0.02018548920750618,"112":0.17213504016399384,"113":-0.10166412591934204,"114":0.11767527461051941,"115":-0.1878526508808136,"116":0.06072147563099861,"117":-0.19501423835754395,"118":0.014659041538834572,"119":0.15420512855052948,"120":-0.08680552989244461,"121":-0.0014218732248991728,"122":-0.030346550047397614,"123":0.012109821662306786,"124":-0.07658225297927856,"125":-0.0696360245347023,"126":-0.15842309594154358,"127":-0.11178646981716156,"128":0.07573111355304718,"129":0.10848565399646759,"130":-0.18758147954940796,"131":0.0662216767668724,"132":0.0963783785700798,"133":-0.17457549273967743,"134":-0.03833694010972977,"135":-0.16288863122463226,"136":-0.10479085147380829,"137":-0.047095637768507004,"138":-0.17487017810344696,"139":-0.10489773750305176,"140":-0.19348028302192688,"141":-0.11778349429368973,"142":-0.18570750951766968,"143":-0.01088759396225214,"144":-0.1319458782672882,"145":0.1396043449640274,"146":0.057108934968709946,"147":-0.1331026256084442,"148":-0.1167387142777443,"149":0.04512116685509682,"150":-0.11583076417446136,"151":-0.1827997863292694,"152":0.19351638853549957,"153":-0.06836364418268204,"154":-0.1647719442844391,"155":0.15574778616428375,"156":-0.021574687212705612,"157":0.03908328339457512,"158":-0.1342373788356781,"159":-0.11843358725309372,"160":-0.12549586594104767,"161":0.19374585151672363,"162":-0.12375686317682266,"163":-0.2140180617570877,"164":-0.12138425558805466,"165":-0.08454597741365433,"166":0.14149439334869385,"167":-0.03471529111266136,"168":0.12193311005830765,"169":-0.10568150132894516,"170":-0.14277519285678864,"171":0.17376242578029633,"172":0.12725916504859924,"173":-0.1622297614812851,"174":-0.031603604555130005,"175":0.072201207280159,"176":0.13384154438972473,"177":-0.17323200404644012,"178":-0.08106154203414917,"179":-0.1846044808626175,"180":-0.09366347640752792,"181":-0.08966931700706482,"182":0.1404976099729538,"183":0.07694102823734283,"184":-0.176974818110466,"185":-0.006267493590712547,"186":-0.1332680583000183,"187":0.03703376278281212,"188":-0.06760942935943604,"189":0.19415533542633057,"190":-0.06747939437627792,"191":0.14618924260139465,"192":-0.17114636301994324,"193":-0.12136475741863251,"194":-0.014350696466863155,"195":0.11445490270853043,"196":-0.13386107981204987,"197":0.08353178948163986,"198":0.17260082066059113,"199":-0.016878990456461906,"200":-0.045665234327316284,"201":0.054615262895822525,"202":0.13676831126213074,"203":0.18042555451393127,"204":0.024046657606959343,"205":-0.21955519914627075,"206":0.12756222486495972,"207":0.030557388439774513,"208":0.07050563395023346,"209":0.04688345640897751,"210":0.13881362974643707,"211":-0.13553883135318756,"212":-0.058310043066740036,"213":0.191042959690094,"214":-0.150197833776474,"215":-0.17902830243110657,"216":0.023938924074172974,"217":0.07719320058822632,"218":0.19848839938640594,"219":-0.17703542113304138,"220":-0.1559237390756607,"221":0.013958793133497238,"222":0.0400857999920845,"223":-0.025189898908138275,"224":-0.15286552906036377,"225":0.14959022402763367,"226":0.15591159462928772,"227":0.1548755019903183,"228":0.13682232797145844,"229":-0.23140928149223328,"230":0.10435345023870468,"231":-0.03283630684018135,"232":-0.00025065778754651546,"233":0.1473194658756256,"234":0.10220055282115936,"235":-0.08374373614788055,"236":-0.21161743998527527,"237":0.09934461116790771,"238":0.17279654741287231,"239":0.13126160204410553}},"10":{"bias":0.19457747042179108,"weights":{"0":0.07709445059299469,"1":0.08813432604074478,"2":-0.07575968652963638,"3":0.04102196544408798,"4":-0.05143842101097107,"5":-0.02640717476606369,"6":-0.05970732122659683,"7":0.16147232055664062,"8":-0.15655377507209778,"9":0.04983143135905266,"10":-0.0028747080359607935,"11":-0.14626596868038177,"12":-0.1896633505821228,"13":-0.013707099482417107,"14":0.05460704490542412,"15":-0.013358436524868011,"16":0.007467379793524742,"17":0.0028568184934556484,"18":0.03170474246144295,"19":0.030812853947281837,"20":-0.19378593564033508,"21":-0.01582026109099388,"22":-0.14939695596694946,"23":-0.07242467254400253,"24":-0.19533853232860565,"25":0.029443908482789993,"26":-0.026114994660019875,"27":-0.03380931168794632,"28":-0.06673261523246765,"29":0.1661617010831833,"30":-0.16403765976428986,"31":-0.11446276307106018,"32":0.19136562943458557,"33":-0.042395561933517456,"34":-0.08114903420209885,"35":0.1849813163280487,"36":-0.0719175636768341,"37":-0.03912767395377159,"38":-0.026891114190220833,"39":0.07845251262187958,"40":0.14074870944023132,"41":-0.10163047909736633,"42":0.13948091864585876,"43":-0.08209984749555588,"44":-0.10959748178720474,"45":-0.12618550658226013,"46":0.14663289487361908,"47":0.05911596119403839,"48":-0.14488428831100464,"49":-0.18618115782737732,"50":-0.11823445558547974,"51":-0.0012560212053358555,"52":-0.15371908247470856,"53":0.1596139818429947,"54":-0.10889668017625809,"55":0.02988039143383503,"56":-0.007459297776222229,"57":0.17605338990688324,"58":-0.022007044404745102,"59":0.06282764673233032,"60":0.12156328558921814,"61":-0.17270952463150024,"62":-0.0364857092499733,"63":-0.11713637411594391,"64":-0.17864559590816498,"65":-0.16373810172080994,"66":0.023268921300768852,"67":-0.049558065831661224,"68":0.18848195672035217,"69":-0.1285465657711029,"70":0.184027299284935,"71":-0.12499914318323135,"72":0.11428830772638321,"73":-0.16230890154838562,"74":-0.12951421737670898,"75":-0.1426841765642166,"76":-0.04129049926996231,"77":-0.19295381009578705,"78":-0.04619394987821579,"79":0.03892487660050392,"80":-0.15096856653690338,"81":0.09207843244075775,"82":-0.1322045922279358,"83":0.19440492987632751,"84":-0.008687908761203289,"85":-0.1113094612956047,"86":-0.05889752879738808,"87":0.08486668765544891,"88":0.009990439750254154,"89":-0.046640053391456604,"90":-0.14968103170394897,"91":0.16106465458869934,"92":-0.07778190821409225,"93":0.11499772220849991,"94":0.029584908857941628,"95":-0.11669685691595078,"96":0.1394149661064148,"97":-0.020504634827375412,"98":-0.1665494441986084,"99":0.03320575878024101,"100":-0.05076684430241585,"101":-0.025984518229961395,"102":0.18064604699611664,"103":-0.00045033032074570656,"104":-0.08484796434640884,"105":0.002286213915795088,"106":0.18297258019447327,"107":0.11966437846422195,"108":0.008022460155189037,"109":-0.041198454797267914,"110":-0.16898037493228912,"111":0.017610400915145874,"112":-0.06702932715415955,"113":-0.08840597420930862,"114":-0.022822240367531776,"115":-0.002779570408165455,"116":-0.13774019479751587,"117":0.03000587224960327,"118":0.05477669835090637,"119":-0.1411816030740738,"120":-0.1183355450630188,"121":-0.17384697496891022,"122":-0.03605570271611214,"123":-0.11079272627830505,"124":0.08931484073400497,"125":-0.01377898920327425,"126":-0.04643716290593147,"127":0.15921717882156372,"128":-0.04597071185708046,"129":-0.046794045716524124,"130":-0.17873071134090424,"131":-0.05514553189277649,"132":0.11175978183746338,"133":-0.01223570853471756,"134":0.10455536097288132,"135":-0.15385393798351288,"136":-0.05215177685022354,"137":-0.09532799571752548,"138":0.05987926200032234,"139":0.0554019957780838,"140":0.021085914224386215,"141":-0.12023614346981049,"142":-0.10624144971370697,"143":-0.02805320732295513,"144":-0.10679325461387634,"145":0.1000380590558052,"146":0.15031293034553528,"147":-0.11346353590488434,"148":0.118801049888134,"149":0.039981622248888016,"150":-0.020709196105599403,"151":-0.18633829057216644,"152":-0.1462293565273285,"153":-0.14277416467666626,"154":0.03253816068172455,"155":-0.16308844089508057,"156":-0.14992420375347137,"157":-0.08897644281387329,"158":0.11403154581785202,"159":0.10166670382022858,"160":0.05655895918607712,"161":-0.054007403552532196,"162":-0.03158538043498993,"163":-0.02241726778447628,"164":-0.07203003019094467,"165":0.0866088718175888,"166":0.03513782471418381,"167":-0.18753108382225037,"168":-0.1132461428642273,"169":0.11118016391992569,"170":0.053349632769823074,"171":0.15432123839855194,"172":0.053337495774030685,"173":-0.018100911751389503,"174":-0.054624270647764206,"175":-0.05653514713048935,"176":0.07693035155534744,"177":-0.04612436890602112,"178":0.060089465230703354,"179":0.06651345640420914,"180":0.05632786080241203,"181":0.06102178990840912,"182":0.06348694115877151,"183":-0.15228691697120667,"184":0.1469196230173111,"185":0.07265286892652512,"186":0.03511760011315346,"187":0.0362180732190609,"188":-0.16079969704151154,"189":-0.20091882348060608,"190":0.1965932548046112,"191":0.08121545612812042,"192":0.08895649760961533,"193":-0.20127567648887634,"194":0.014583003707230091,"195":0.1208362951874733,"196":0.11568882316350937,"197":0.04073076322674751,"198":0.19371937215328217,"199":-0.10235951095819473,"200":-0.18102815747261047,"201":-0.09373712539672852,"202":-0.05779479071497917,"203":0.16284413635730743,"204":0.11843441426753998,"205":0.14359688758850098,"206":-0.1918814331293106,"207":0.017414027824997902,"208":-0.19389168918132782,"209":-0.1105242669582367,"210":0.009115832857787609,"211":-0.04769117757678032,"212":-0.0907687172293663,"213":0.05725547671318054,"214":-0.2019256353378296,"215":0.167817622423172,"216":-0.15491452813148499,"217":-0.011966015212237835,"218":0.1880578249692917,"219":-0.19448240101337433,"220":0.16869030892848969,"221":-0.030277302488684654,"222":-0.020662594586610794,"223":0.06528919190168381,"224":0.17987848818302155,"225":0.14289486408233643,"226":0.1783040463924408,"227":0.05166425555944443,"228":-0.08710433542728424,"229":0.15937310457229614,"230":0.16640248894691467,"231":0.07388952374458313,"232":-0.19930359721183777,"233":0.11262892931699753,"234":-0.1659470945596695,"235":-0.1480642408132553,"236":0.19274593889713287,"237":0.058822114020586014,"238":-0.08600153028964996,"239":0.14015674591064453}},"11":{"bias":0.12768973410129547,"weights":{"0":0.11667455732822418,"1":-0.041988492012023926,"2":-0.02406281791627407,"3":0.11297112703323364,"4":0.09313776344060898,"5":-0.07627349346876144,"6":-0.06480955332517624,"7":-0.11232735216617584,"8":-0.09320294111967087,"9":0.023169543594121933,"10":0.1960039734840393,"11":-0.09367292374372482,"12":-0.15548576414585114,"13":-0.03465653583407402,"14":-0.003490790259093046,"15":0.04041750729084015,"16":-0.15458913147449493,"17":-0.032857898622751236,"18":-0.05623108148574829,"19":0.079231396317482,"20":-0.040724579244852066,"21":0.06062167137861252,"22":0.044663187116384506,"23":0.04863007366657257,"24":0.1371932476758957,"25":0.1893656700849533,"26":-0.04230763018131256,"27":0.1019909530878067,"28":0.04356766864657402,"29":-0.07555481046438217,"30":-0.1578802466392517,"31":-0.18461084365844727,"32":-0.17620062828063965,"33":0.18788215517997742,"34":-0.06017833203077316,"35":-0.05101904273033142,"36":-0.01179345604032278,"37":-0.1234845221042633,"38":0.06282052397727966,"39":-0.08850905299186707,"40":-0.10849381238222122,"41":0.1724935621023178,"42":0.19223694503307343,"43":0.1798110008239746,"44":-0.13294927775859833,"45":-0.19518214464187622,"46":-0.05514035373926163,"47":0.1408955305814743,"48":0.05802439898252487,"49":0.06384719908237457,"50":0.11759018152952194,"51":0.0931750237941742,"52":-0.04483797401189804,"53":-0.0032637170515954494,"54":0.023037031292915344,"55":-0.08476383984088898,"56":0.1923372447490692,"57":-0.031886760145425797,"58":-0.03979664668440819,"59":-0.1282142996788025,"60":0.16775856912136078,"61":0.1499307006597519,"62":-0.13452427089214325,"63":-0.09540071338415146,"64":-0.12030360847711563,"65":-0.13880808651447296,"66":-0.14722630381584167,"67":-0.02750854566693306,"68":0.07713344693183899,"69":0.17412158846855164,"70":-0.03641434386372566,"71":-0.11226138472557068,"72":-0.18369783461093903,"73":0.18540962040424347,"74":-0.029192471876740456,"75":-0.10096520930528641,"76":-0.07270548492670059,"77":0.13119889795780182,"78":0.021028313785791397,"79":0.051747776567935944,"80":0.06006113067269325,"81":-0.10504747927188873,"82":-0.17792116105556488,"83":-0.08311450481414795,"84":-0.1806158572435379,"85":0.06892506033182144,"86":-0.1438477337360382,"87":-0.006345801521092653,"88":0.08242662250995636,"89":0.16083164513111115,"90":-0.09368078410625458,"91":-0.07288865000009537,"92":-0.08192746341228485,"93":-0.18436895310878754,"94":-0.1116405501961708,"95":-0.08890168368816376,"96":0.17640486359596252,"97":-0.16957378387451172,"98":0.09534208476543427,"99":0.09835702925920486,"100":-0.009633754380047321,"101":0.06673362851142883,"102":0.021401409059762955,"103":-0.1802470088005066,"104":-0.09959729015827179,"105":0.046362001448869705,"106":0.1504620611667633,"107":-0.13776342570781708,"108":0.02626992017030716,"109":0.03565474972128868,"110":0.05580311268568039,"111":0.08277790993452072,"112":-0.01739855296909809,"113":-0.056007951498031616,"114":0.030158009380102158,"115":-0.012021761387586594,"116":0.15672260522842407,"117":0.04620026424527168,"118":-0.03314540535211563,"119":0.09693265706300735,"120":-0.13570061326026917,"121":-0.07252040505409241,"122":-0.0012681696098297834,"123":-0.06073018163442612,"124":-0.11946898698806763,"125":0.15468129515647888,"126":-0.012242132797837257,"127":0.0884680300951004,"128":-0.14020967483520508,"129":0.09989579766988754,"130":-0.05414675921201706,"131":-0.13318611681461334,"132":-0.1385308802127838,"133":-0.044421542435884476,"134":0.1756344586610794,"135":-0.0120883509516716,"136":-0.14292055368423462,"137":-0.09789209812879562,"138":-0.17820648849010468,"139":0.11701323837041855,"140":-0.003859607269987464,"141":0.030444283038377762,"142":0.13108369708061218,"143":0.03179329261183739,"144":0.18122877180576324,"145":0.15903028845787048,"146":0.10452614724636078,"147":0.12029218673706055,"148":-0.028770295903086662,"149":-0.16854801774024963,"150":-0.13294808566570282,"151":-0.05951051786541939,"152":0.06958533078432083,"153":-0.1445126086473465,"154":0.010698707774281502,"155":0.1171368956565857,"156":-0.01805492304265499,"157":0.09085805714130402,"158":-0.12725211679935455,"159":0.13186109066009521,"160":0.10330574214458466,"161":-0.030166666954755783,"162":0.008290121331810951,"163":-0.06738276034593582,"164":0.1340477019548416,"165":-0.07185451686382294,"166":-0.18676063418388367,"167":0.030014734715223312,"168":0.004437251482158899,"169":-0.09255923330783844,"170":-0.18227306008338928,"171":0.10318856686353683,"172":0.03477755934000015,"173":0.1512380689382553,"174":0.033346548676490784,"175":-0.15655960142612457,"176":0.06074195355176926,"177":0.1290695071220398,"178":-0.10617335885763168,"179":0.1560029536485672,"180":0.09319362789392471,"181":0.1425091028213501,"182":-0.12528285384178162,"183":-0.11219801753759384,"184":-0.08651360124349594,"185":-0.02295282483100891,"186":0.14836330711841583,"187":-0.022458916530013084,"188":-0.10577576607465744,"189":-0.04286600276827812,"190":0.003544800216332078,"191":-0.14532199501991272,"192":-0.016962816938757896,"193":-0.21884238719940186,"194":0.005875828675925732,"195":-0.17441128194332123,"196":-0.04499946907162666,"197":-0.06394855678081512,"198":-0.04203295335173607,"199":0.04940041899681091,"200":0.19366034865379333,"201":-0.15468914806842804,"202":-0.0264588613063097,"203":-0.00044576742220669985,"204":0.04840724170207977,"205":-0.028491130098700523,"206":-0.06768996268510818,"207":0.04290209710597992,"208":0.08984224498271942,"209":0.19924895465373993,"210":0.19654059410095215,"211":0.021532103419303894,"212":-0.10795655846595764,"213":-0.02153727039694786,"214":0.07992139458656311,"215":-0.15407602488994598,"216":0.12618206441402435,"217":0.06393513828516006,"218":0.1673211306333542,"219":0.14969485998153687,"220":0.0743107721209526,"221":-0.07047419995069504,"222":0.07853959500789642,"223":0.07706335186958313,"224":0.07025772333145142,"225":-0.031223833560943604,"226":0.05452537164092064,"227":0.11192691326141357,"228":0.1288270205259323,"229":0.08480605483055115,"230":-0.17406845092773438,"231":0.17933012545108795,"232":-0.12979020178318024,"233":0.08156359195709229,"234":-0.096525639295578,"235":-0.041927359998226166,"236":-0.026506122201681137,"237":-0.03269078955054283,"238":0.0481351837515831,"239":-0.021997850388288498}},"12":{"bias":0.16428408026695251,"weights":{"0":-0.06597306579351425,"1":0.06610230356454849,"2":-0.030461076647043228,"3":-0.18454717099666595,"4":0.18858712911605835,"5":-0.006701665930449963,"6":0.03459242731332779,"7":-0.05490673705935478,"8":-0.09130899608135223,"9":-0.11160513758659363,"10":-0.023192716762423515,"11":-0.007494635879993439,"12":-0.19799800217151642,"13":0.09415928274393082,"14":0.1394115686416626,"15":0.14309293031692505,"16":0.007076383102685213,"17":-0.173394575715065,"18":-0.18372195959091187,"19":0.038849495351314545,"20":-0.0825858861207962,"21":0.02950803004205227,"22":-0.04102985933423042,"23":0.11816134303808212,"24":-0.006580642890185118,"25":-0.06554108113050461,"26":0.10022959113121033,"27":0.09580980241298676,"28":-0.13892140984535217,"29":0.06732949614524841,"30":-0.11304907500743866,"31":-0.07430551946163177,"32":0.1181478351354599,"33":0.18119411170482635,"34":-0.08428134024143219,"35":-0.06399685889482498,"36":0.12872834503650665,"37":-0.19535420835018158,"38":0.1361798346042633,"39":-0.10981825739145279,"40":0.1959490031003952,"41":-0.021075360476970673,"42":0.056287746876478195,"43":0.09300563484430313,"44":0.1955341398715973,"45":-0.1432684361934662,"46":-0.14626319706439972,"47":0.04265077784657478,"48":-0.047057826071977615,"49":-0.0054756151512265205,"50":-0.019273025915026665,"51":0.1399804949760437,"52":0.001829909160733223,"53":0.08604216575622559,"54":-0.02288908138871193,"55":0.13732688128948212,"56":-0.19301220774650574,"57":-0.15359067916870117,"58":0.10319524258375168,"59":-0.05940576270222664,"60":-0.0609794519841671,"61":-0.11780283600091934,"62":-0.029782751575112343,"63":0.19341371953487396,"64":-0.1542237102985382,"65":-0.1829375922679901,"66":0.16840004920959473,"67":0.17783738672733307,"68":-0.032140664756298065,"69":0.1183214783668518,"70":-0.12877322733402252,"71":-0.06981320679187775,"72":0.012466603890061378,"73":0.03147415071725845,"74":0.03990647941827774,"75":-0.11572740972042084,"76":0.13470055162906647,"77":0.18035922944545746,"78":0.08207625150680542,"79":0.07176868617534637,"80":0.1381767839193344,"81":0.0010348701616749167,"82":-0.05434929206967354,"83":-0.05471644550561905,"84":-0.18811343610286713,"85":0.08356548845767975,"86":-0.07310892641544342,"87":0.011713840067386627,"88":0.07250678539276123,"89":-0.08535967767238617,"90":0.06244266778230667,"91":-0.016277825459837914,"92":0.18622444570064545,"93":-0.05075085163116455,"94":0.17753048241138458,"95":0.10821074992418289,"96":0.15629395842552185,"97":-0.05469563975930214,"98":0.1816849410533905,"99":0.17540167272090912,"100":0.12645646929740906,"101":0.02400270290672779,"102":-0.14667275547981262,"103":0.05885184928774834,"104":-0.004558605141937733,"105":0.11758174747228622,"106":0.05803395062685013,"107":-0.16557174921035767,"108":0.11301443725824356,"109":0.18504364788532257,"110":-0.19886206090450287,"111":0.17919564247131348,"112":0.05707395821809769,"113":-0.06714151799678802,"114":0.06836552172899246,"115":-0.14724914729595184,"116":0.173082172870636,"117":0.1857648342847824,"118":-0.04953540861606598,"119":0.1364416778087616,"120":0.11022617667913437,"121":-0.03962079435586929,"122":0.012981743551790714,"123":0.19927896559238434,"124":-0.08983630686998367,"125":-0.10816008597612381,"126":0.07773460447788239,"127":-0.0015504533657804132,"128":-0.040859658271074295,"129":-0.03968612104654312,"130":-0.11930187791585922,"131":0.07519783824682236,"132":-0.04633491486310959,"133":-0.12003499269485474,"134":-0.008878877386450768,"135":-0.03401923552155495,"136":0.02294638752937317,"137":-0.009699818678200245,"138":-0.012521461583673954,"139":-0.18151895701885223,"140":0.1564047485589981,"141":-0.02801043540239334,"142":-0.1671980768442154,"143":-0.06275791674852371,"144":0.05507900193333626,"145":-0.07983521372079849,"146":0.12044817209243774,"147":0.0031226600985974073,"148":-0.1185007318854332,"149":-0.0734521746635437,"150":-0.17939622700214386,"151":0.08659263700246811,"152":-0.022705508396029472,"153":0.038609690964221954,"154":-0.13236679136753082,"155":0.18827876448631287,"156":0.045222606509923935,"157":0.0069439709186553955,"158":0.07648502290248871,"159":-0.13637575507164001,"160":0.1755261868238449,"161":0.12302765250205994,"162":0.19318455457687378,"163":0.1747930645942688,"164":0.07132955640554428,"165":-0.17815227806568146,"166":0.02157542295753956,"167":-0.16829822957515717,"168":-0.02460058219730854,"169":0.11204677075147629,"170":-0.009928456507623196,"171":0.17666703462600708,"172":0.16147835552692413,"173":-0.10059139877557755,"174":0.1346614956855774,"175":0.12502741813659668,"176":-0.07359470427036285,"177":0.1833612620830536,"178":-0.14878232777118683,"179":-0.06768660992383957,"180":0.026277419179677963,"181":-0.04558485373854637,"182":0.11369538307189941,"183":0.13374841213226318,"184":-0.04659715294837952,"185":-0.20767460763454437,"186":0.10873927921056747,"187":-0.07265772670507431,"188":0.13110265135765076,"189":0.08802884817123413,"190":-0.19928324222564697,"191":0.06287719309329987,"192":-0.10178012400865555,"193":0.10595075786113739,"194":0.12486869096755981,"195":-0.14198139309883118,"196":-0.03579811379313469,"197":0.03278065845370293,"198":0.18247471749782562,"199":0.044312380254268646,"200":0.10254247486591339,"201":-0.18474701046943665,"202":0.11956086754798889,"203":0.1409422904253006,"204":0.104103222489357,"205":0.10720249265432358,"206":-0.19363713264465332,"207":0.036358918994665146,"208":0.030993176624178886,"209":-0.14617624878883362,"210":-0.08127004653215408,"211":0.017220083624124527,"212":-0.11841648072004318,"213":0.10024835914373398,"214":-0.00249680713750422,"215":0.047240566462278366,"216":0.11784878373146057,"217":-0.11736014485359192,"218":0.021436749026179314,"219":-0.110837921500206,"220":0.14790017902851105,"221":-0.03700578585267067,"222":0.1240537166595459,"223":0.013729773461818695,"224":0.003443961963057518,"225":-0.050293341279029846,"226":-0.12274275720119476,"227":0.010669408366084099,"228":0.015608557499945164,"229":-0.0938849151134491,"230":-0.05087334290146828,"231":-0.07866983115673065,"232":-0.10750021785497665,"233":-0.033433955162763596,"234":-0.03364616632461548,"235":-0.16551603376865387,"236":-0.11296886950731277,"237":0.08056502044200897,"238":-0.04253309592604637,"239":0.16429506242275238}},"13":{"bias":0.16784434020519257,"weights":{"0":-0.18869121372699738,"1":0.17429831624031067,"2":-0.0750141590833664,"3":-0.02982759289443493,"4":-0.07453576475381851,"5":0.07623302191495895,"6":0.1614515632390976,"7":0.12491472065448761,"8":0.06069058179855347,"9":0.11029043048620224,"10":0.009066303260624409,"11":0.14168304204940796,"12":-0.1445026993751526,"13":-0.0560472272336483,"14":-0.16157838702201843,"15":0.11506757885217667,"16":-0.16075865924358368,"17":-0.12491057813167572,"18":0.09829448163509369,"19":-0.06622866541147232,"20":-0.1445014774799347,"21":-0.16556192934513092,"22":-0.11035293340682983,"23":0.047064945101737976,"24":-0.016606369987130165,"25":-0.09979711472988129,"26":0.08637648075819016,"27":-0.15612384676933289,"28":0.028618676587939262,"29":-0.0674985721707344,"30":0.11574851721525192,"31":0.1308983564376831,"32":0.08091708272695541,"33":-0.016236059367656708,"34":0.00004707579137175344,"35":0.14677214622497559,"36":-0.1129971519112587,"37":-0.07286552339792252,"38":0.08467696607112885,"39":0.0033852735068649054,"40":-0.1796528398990631,"41":0.14345605671405792,"42":-0.09880328178405762,"43":0.06454910337924957,"44":0.19965937733650208,"45":-0.06831932067871094,"46":-0.0453120581805706,"47":-0.14489784836769104,"48":-0.07827252149581909,"49":0.12434237450361252,"50":0.134812131524086,"51":0.09023445844650269,"52":-0.048479579389095306,"53":0.17873993515968323,"54":0.07083475589752197,"55":-0.052951421588659286,"56":-0.00670583127066493,"57":0.14882466197013855,"58":0.18680033087730408,"59":0.17746582627296448,"60":-0.14914584159851074,"61":-0.195734441280365,"62":-0.11827913671731949,"63":-0.1508423089981079,"64":0.007092711050063372,"65":0.17845523357391357,"66":-0.18254268169403076,"67":0.00015062834427226335,"68":0.13523375988006592,"69":0.09650983661413193,"70":0.06183813884854317,"71":0.15736451745033264,"72":0.05462023243308067,"73":0.1692456156015396,"74":-0.16007474064826965,"75":0.01933043636381626,"76":-0.06457456946372986,"77":0.03778914362192154,"78":-0.196181520819664,"79":0.00501865241676569,"80":0.04900699108839035,"81":-0.19097648561000824,"82":0.15225136280059814,"83":0.019139040261507034,"84":-0.0454857237637043,"85":-0.18816368281841278,"86":0.1307317316532135,"87":0.0940481647849083,"88":-0.08280550688505173,"89":-0.11119228601455688,"90":0.1541755497455597,"91":0.06612572818994522,"92":0.14963337779045105,"93":-0.19279451668262482,"94":0.06640137732028961,"95":-0.10027074813842773,"96":-0.08885351568460464,"97":-0.015438131056725979,"98":0.08579552173614502,"99":-0.058593422174453735,"100":0.06378907710313797,"101":0.12438084185123444,"102":0.15771602094173431,"103":0.16430138051509857,"104":0.07966045290231705,"105":0.162697896361351,"106":0.17641927301883698,"107":0.05846042558550835,"108":-0.06283561885356903,"109":-0.104729562997818,"110":0.1464298814535141,"111":-0.06506291776895523,"112":0.12956705689430237,"113":0.1552223116159439,"114":-0.17854692041873932,"115":0.031353820115327835,"116":-0.059932876378297806,"117":0.15165548026561737,"118":0.1043253168463707,"119":0.18542560935020447,"120":0.07613475620746613,"121":-0.0022561424411833286,"122":0.0977184846997261,"123":0.14706385135650635,"124":0.05475971847772598,"125":-0.1418469101190567,"126":-0.07267110049724579,"127":-0.17430491745471954,"128":-0.08172523975372314,"129":-0.054347071796655655,"130":0.0418873094022274,"131":-0.07495460659265518,"132":0.1295863837003708,"133":0.08301878720521927,"134":0.18433742225170135,"135":0.09252416342496872,"136":-0.032557256519794464,"137":0.13331416249275208,"138":-0.08635155111551285,"139":-0.03740620240569115,"140":0.06484448164701462,"141":0.15665529668331146,"142":-0.13999083638191223,"143":0.05068723484873772,"144":0.13977444171905518,"145":-0.12540000677108765,"146":0.12915092706680298,"147":-0.16903166472911835,"148":-0.08203296363353729,"149":-0.058847542852163315,"150":0.008329726755619049,"151":-0.06757260859012604,"152":-0.1869191974401474,"153":0.14466987550258636,"154":0.16756100952625275,"155":0.18564151227474213,"156":-0.0328560546040535,"157":0.002605489222332835,"158":-0.11208505928516388,"159":-0.004308887757360935,"160":0.17753522098064423,"161":-0.1317029446363449,"162":-0.03235456719994545,"163":0.060750994831323624,"164":0.16431309282779694,"165":-0.046625539660453796,"166":0.07043181359767914,"167":0.08331261575222015,"168":-0.11832990497350693,"169":-0.267467737197876,"170":0.01554872002452612,"171":0.018152428790926933,"172":-0.13626323640346527,"173":0.17515116930007935,"174":-0.1730339378118515,"175":0.01424401719123125,"176":-0.08099552243947983,"177":0.1442272663116455,"178":0.11329406499862671,"179":0.12001889944076538,"180":0.1643347293138504,"181":-0.10507635772228241,"182":0.14768703281879425,"183":0.16684314608573914,"184":-0.18770141899585724,"185":-0.0919879823923111,"186":0.058340027928352356,"187":-0.10562057048082352,"188":-0.10241758823394775,"189":-0.07420539110898972,"190":-0.10529354214668274,"191":0.1834808588027954,"192":0.1483631581068039,"193":-0.16401955485343933,"194":0.12176374346017838,"195":0.08274161070585251,"196":-0.08694832772016525,"197":-0.00718948058784008,"198":-0.031094755977392197,"199":-0.12442724406719208,"200":0.12527209520339966,"201":0.061159711331129074,"202":-0.08754267543554306,"203":-0.07799863070249557,"204":0.19827227294445038,"205":-0.1389208883047104,"206":-0.012801168486475945,"207":0.15378351509571075,"208":-0.05681147053837776,"209":-0.12779875099658966,"210":-0.00884079746901989,"211":-0.14033707976341248,"212":0.12195353209972382,"213":0.10730171203613281,"214":0.02215416729450226,"215":0.14895835518836975,"216":0.038006607443094254,"217":-0.2546257972717285,"218":-0.09248345345258713,"219":-0.17254333198070526,"220":0.02118898555636406,"221":0.27959123253822327,"222":0.02193335071206093,"223":0.08838333189487457,"224":-0.2183084338903427,"225":-0.08839300274848938,"226":0.06424267590045929,"227":0.041487835347652435,"228":-0.12408379465341568,"229":-0.1411532163619995,"230":-0.0380978137254715,"231":0.1099962443113327,"232":-0.1972392201423645,"233":0.13787932693958282,"234":0.07525256276130676,"235":0.04147898778319359,"236":0.047219324856996536,"237":-0.05752382054924965,"238":-0.16137224435806274,"239":0.16294388473033905}},"14":{"bias":0.10491203516721725,"weights":{"0":0.16414156556129456,"1":-0.11683373898267746,"2":-0.1899459958076477,"3":0.16316041350364685,"4":-0.15498577058315277,"5":0.17912490665912628,"6":-0.016074828803539276,"7":-0.049391262233257294,"8":-0.14256717264652252,"9":0.07143024355173111,"10":-0.12389291077852249,"11":0.12257103621959686,"12":-0.004094439558684826,"13":-0.13431881368160248,"14":-0.15491235256195068,"15":-0.022716594859957695,"16":-0.056273218244314194,"17":-0.09161413460969925,"18":0.10885681957006454,"19":-0.10403011739253998,"20":0.11608331650495529,"21":0.1497342586517334,"22":-0.050169747322797775,"23":-0.19753868877887726,"24":-0.1271015852689743,"25":-0.08093990385532379,"26":0.08910816162824631,"27":-0.03725586086511612,"28":-0.1832454949617386,"29":-0.15144336223602295,"30":0.10881108045578003,"31":0.025117842480540276,"32":0.14764733612537384,"33":-0.04620731621980667,"34":0.07289918512105942,"35":0.09518180787563324,"36":-0.12255556881427765,"37":-0.034044064581394196,"38":-0.1689031720161438,"39":0.08448529243469238,"40":-0.16591016948223114,"41":0.1896393746137619,"42":0.11308959871530533,"43":-0.18422876298427582,"44":0.14917117357254028,"45":0.10146800428628922,"46":0.15287630259990692,"47":0.1582694798707962,"48":0.02871815860271454,"49":0.1770808845758438,"50":0.08955568075180054,"51":-0.1885196566581726,"52":0.10623853653669357,"53":0.1199546679854393,"54":-0.007721342612057924,"55":-0.09684237837791443,"56":0.11678368598222733,"57":-0.10704170167446136,"58":-0.08429275453090668,"59":-0.052792202681303024,"60":-0.12908053398132324,"61":-0.007442256901413202,"62":-0.14103412628173828,"63":0.03592318668961525,"64":-0.07333297282457352,"65":0.14921772480010986,"66":0.03391337767243385,"67":0.17450296878814697,"68":0.179018035531044,"69":0.1802874505519867,"70":-0.023983241990208626,"71":-0.14880894124507904,"72":-0.1268227994441986,"73":0.0907997339963913,"74":-0.0900520458817482,"75":-0.0003425101167522371,"76":0.15192919969558716,"77":-0.13320022821426392,"78":-0.16165141761302948,"79":-0.08637525141239166,"80":-0.11141280829906464,"81":-0.06605726480484009,"82":0.07946925610303879,"83":0.0397552028298378,"84":-0.06799489259719849,"85":-0.1525259166955948,"86":0.16766247153282166,"87":-0.15879637002944946,"88":0.14659342169761658,"89":-0.15606994926929474,"90":0.05187384411692619,"91":-0.01434871181845665,"92":-0.0012026538606733084,"93":-0.060447800904512405,"94":-0.0802149847149849,"95":-0.14767056703567505,"96":0.17271281778812408,"97":-0.11329682916402817,"98":-0.04288843274116516,"99":0.012269668281078339,"100":-0.1986129879951477,"101":-0.04241437464952469,"102":-0.05946173518896103,"103":0.009675782173871994,"104":-0.188797727227211,"105":-0.06497398018836975,"106":0.0557599700987339,"107":0.17700208723545074,"108":-0.19988733530044556,"109":-0.11900390684604645,"110":-0.06497950851917267,"111":-0.0733201876282692,"112":-0.1557506024837494,"113":0.12712699174880981,"114":-0.1897522509098053,"115":-0.014357669278979301,"116":0.048475250601768494,"117":0.14668521285057068,"118":0.1544846147298813,"119":-0.00014796573668718338,"120":0.1217561587691307,"121":0.1625787764787674,"122":0.12190773338079453,"123":-0.15098947286605835,"124":0.11753852665424347,"125":-0.1422167867422104,"126":0.18656136095523834,"127":-0.1569378525018692,"128":-0.02867620438337326,"129":-0.17848502099514008,"130":0.06081586331129074,"131":0.09673541784286499,"132":0.10630268603563309,"133":-0.12811905145645142,"134":0.038324031978845596,"135":0.12282878905534744,"136":0.000631325994618237,"137":-0.1079205647110939,"138":0.0627906396985054,"139":-0.09019769728183746,"140":0.09439131617546082,"141":0.12183423340320587,"142":-0.009926642291247845,"143":-0.008047512732446194,"144":-0.07702237367630005,"145":0.11545561254024506,"146":0.14327198266983032,"147":0.11112039536237717,"148":-0.03382227569818497,"149":-0.034403495490550995,"150":0.17337732017040253,"151":-0.1118413433432579,"152":-0.19504696130752563,"153":-0.035945866256952286,"154":-0.03440731018781662,"155":0.0905061885714531,"156":0.1440287083387375,"157":0.07887925952672958,"158":0.17035800218582153,"159":0.014491206966340542,"160":-0.1453692764043808,"161":0.009616478346288204,"162":0.04417018964886665,"163":-0.11427367478609085,"164":0.18300241231918335,"165":-0.1447252482175827,"166":0.09890255331993103,"167":0.11296388506889343,"168":0.17091263830661774,"169":-0.13809052109718323,"170":-0.04804156720638275,"171":-0.03516322746872902,"172":0.12116090208292007,"173":-0.19785669445991516,"174":0.18370266258716583,"175":-0.05275994911789894,"176":-0.12954500317573547,"177":-0.12589041888713837,"178":-0.10878007113933563,"179":0.096157968044281,"180":0.14312154054641724,"181":-0.11423266679048538,"182":-0.09773249924182892,"183":-0.10935602337121964,"184":-0.07610258460044861,"185":0.07222788780927658,"186":0.0896720141172409,"187":-0.17724497616291046,"188":-0.031676992774009705,"189":-0.045279644429683685,"190":0.10591846704483032,"191":0.007518088910728693,"192":-0.13915292918682098,"193":-0.0067262668162584305,"194":0.13641852140426636,"195":0.17131341993808746,"196":0.10856796056032181,"197":-0.08964505046606064,"198":0.07683811336755753,"199":0.012327119708061218,"200":-0.09334366768598557,"201":-0.15588855743408203,"202":0.18566906452178955,"203":0.01191846001893282,"204":0.010417983867228031,"205":0.24679327011108398,"206":0.10786435753107071,"207":0.09749724715948105,"208":-0.08477737009525299,"209":0.03842061012983322,"210":0.15379734337329865,"211":0.17150580883026123,"212":-0.1636160910129547,"213":0.13266710937023163,"214":0.17853370308876038,"215":-0.03642890602350235,"216":0.008965685032308102,"217":0.06142798811197281,"218":0.18950791656970978,"219":-0.0784449502825737,"220":0.14062193036079407,"221":0.05018380284309387,"222":0.11006951332092285,"223":0.17993804812431335,"224":-0.06175437197089195,"225":0.07622255384922028,"226":0.09960540384054184,"227":0.03277739882469177,"228":-0.12681204080581665,"229":0.1669655293226242,"230":0.07181697338819504,"231":0.07431656867265701,"232":0.15607506036758423,"233":-0.23384243249893188,"234":0.07371052354574203,"235":-0.10226687043905258,"236":0.11142510920763016,"237":-0.20786021649837494,"238":-0.1564686894416809,"239":0.17782676219940186}},"15":{"bias":0.0841699093580246,"weights":{"0":0.1317485272884369,"1":-0.022502390667796135,"2":-0.14249061048030853,"3":0.13445019721984863,"4":-0.08980114012956619,"5":-0.19313251972198486,"6":0.05263000354170799,"7":-0.04051150009036064,"8":-0.00010176972864428535,"9":0.06543990969657898,"10":-0.09108738601207733,"11":-0.014955165795981884,"12":-0.06526647508144379,"13":0.16087238490581512,"14":0.05242365971207619,"15":0.09370613098144531,"16":0.11271337419748306,"17":0.13942374289035797,"18":0.16603867709636688,"19":-0.0003526864747982472,"20":0.05903588980436325,"21":0.19777999818325043,"22":0.11209650337696075,"23":0.18958421051502228,"24":0.11563608050346375,"25":0.149069145321846,"26":-0.18888114392757416,"27":0.16329699754714966,"28":0.04360198229551315,"29":-0.1418154090642929,"30":-0.14497768878936768,"31":-0.0585373193025589,"32":0.11954891681671143,"33":0.1234576553106308,"34":0.05733324959874153,"35":-0.19819675385951996,"36":-0.13901346921920776,"37":-0.17306165397167206,"38":0.01850735768675804,"39":0.1464974731206894,"40":0.028357066214084625,"41":-0.03418354317545891,"42":-0.17631272971630096,"43":0.19893865287303925,"44":0.11361418664455414,"45":0.1134619265794754,"46":-0.11106519401073456,"47":0.07436515390872955,"48":0.0018379228422418237,"49":-0.09949930757284164,"50":-0.16741320490837097,"51":0.09787916392087936,"52":-0.18705980479717255,"53":0.1851356029510498,"54":-0.18833334743976593,"55":0.0915151908993721,"56":0.12664498388767242,"57":-0.046021655201911926,"58":0.10559962689876556,"59":0.06533513963222504,"60":-0.057558655738830566,"61":-0.059475693851709366,"62":0.006288029253482819,"63":-0.09440794587135315,"64":-0.1454218626022339,"65":-0.18723954260349274,"66":-0.074564628303051,"67":-0.14010994136333466,"68":0.08638699352741241,"69":-0.13009437918663025,"70":-0.0902957022190094,"71":-0.08485822379589081,"72":-0.000027491627406561747,"73":0.013108554296195507,"74":0.006000113673508167,"75":-0.10744861513376236,"76":-0.004621356260031462,"77":0.18033576011657715,"78":-0.16643847525119781,"79":-0.18101058900356293,"80":-0.1982414424419403,"81":-0.09745488315820694,"82":0.19993318617343903,"83":0.04563980549573898,"84":0.05082516744732857,"85":0.1537533700466156,"86":0.17660431563854218,"87":-0.11128350347280502,"88":0.014362156391143799,"89":-0.10268945246934891,"90":-0.126090869307518,"91":0.17426949739456177,"92":0.19070202112197876,"93":0.1267813742160797,"94":0.08708369731903076,"95":-0.10315809398889542,"96":0.15337558090686798,"97":0.0973101407289505,"98":-0.08740858733654022,"99":0.1613607406616211,"100":-0.16139766573905945,"101":-0.03201183304190636,"102":-0.10426060110330582,"103":-0.02238822728395462,"104":0.18701836466789246,"105":0.07621517777442932,"106":0.06495717912912369,"107":-0.19212055206298828,"108":0.016871729865670204,"109":0.016104435548186302,"110":-0.1602025032043457,"111":-0.17213724553585052,"112":-0.03799569979310036,"113":-0.0903567224740982,"114":-0.1502176821231842,"115":-0.021898217499256134,"116":0.18336065113544464,"117":0.02362108789384365,"118":0.03637206181883812,"119":-0.00471834558993578,"120":-0.06983292102813721,"121":0.027490681037306786,"122":0.15949669480323792,"123":-0.050505734980106354,"124":-0.16630642116069794,"125":0.10823876410722733,"126":-0.10783074796199799,"127":0.21394683420658112,"128":0.11121588945388794,"129":0.17066025733947754,"130":0.004496700130403042,"131":0.03632015734910965,